{"learner":{"attributes":{"scikit_learn":"{\"use_label_encoder\": true, \"n_estimators\": 100, \"objective\": \"binary:logistic\", \"max_depth\": null, \"learning_rate\": null, \"verbosity\": null, \"booster\": null, \"tree_method\": null, \"gamma\": null, \"min_child_weight\": null, \"max_delta_step\": null, \"subsample\": null, \"colsample_bytree\": null, \"colsample_bylevel\": null, \"colsample_bynode\": null, \"reg_alpha\": null, \"reg_lambda\": null, \"scale_pos_weight\": null, \"base_score\": null, \"missing\": NaN, \"num_parallel_tree\": null, \"kwargs\": {}, \"random_state\": null, \"n_jobs\": null, \"monotone_constraints\": null, \"interaction_constraints\": null, \"importance_type\": \"gain\", \"gpu_id\": null, \"validate_parameters\": null, \"classes_\": [\"a\", \"b\"], \"n_classes_\": 2, \"_le\": {\"classes_\": [\"a\", \"b\"]}, \"_features_count\": 13, \"n_features_in_\": 13, \"type\": \"XGBClassifier\"}"},"gradient_booster":{"model":{"gbtree_model_param":{"num_trees":"100","size_leaf_vector":"0"},"tree_info":[0,0,0,0,0,0,0,0,0,0,0,0,0,0,0,0,0,0,0,0,0,0,0,0,0,0,0,0,0,0,0,0,0,0,0,0,0,0,0,0,0,0,0,0,0,0,0,0,0,0,0,0,0,0,0,0,0,0,0,0,0,0,0,0,0,0,0,0,0,0,0,0,0,0,0,0,0,0,0,0,0,0,0,0,0,0,0,0,0,0,0,0,0,0,0,0,0,0,0,0],"trees":[{"base_weights":[6.0190994E-1,3.6391914E-1,1.1577028E0,-4.1753654E-3,8.2704127E-1,1.4230303E0,3.478261E-1,2.972067E-1,-4.981685E-1,1.23E0,-1.2244898E-1,1.949367E0,1.0877193E0,-1.509434E-1,1.882353E0,4.2840236E-1,-1.7777778E0,1.7837838E0,-6.588694E-1,1.2959183E0,-1.6E0,3.1654677E-1,-1.884058E0,6.666667E-1,1.974026E0,1.665272E0,5.755396E-1,4.848485E-1,-1.1428572E0,1.7062937E-1,1.7910448E0,-9.0178573E-1,9.5652175E-1,7.986799E-1,1.5958763E0,9.128205E-1,-1.0344827E0,-0E0,1E0,-1.6E0,1.9282511E0,-1.878453E-1,1.9207921E0,-3.809524E-1,1.8461539E0,-0E0,-1.8461539E0,-9.948542E-2,1.3235294E0,7.2727275E-1,1.9310344E0,-1.5801105E0,-4.3542436E-1,-1.6E0,1.8490566E0,1.475862E0,1.7283951E-1,7.4509805E-1,1.6803653E0,-1.5789474E0,1.4782609E0,1.6521739E0,-1.882353E0,9.3333334E-1,1.9622642E0,8.2758623E-1,-1.884058E0,6.1538464E-1,-1.7777778E0,-1.6E0,1.6E0],"categories":[],"categories_nodes":[],"categories_segments":[],"categories_sizes":[],"default_left":[true,true,true,true,true,true,true,true,true,true,true,true,true,true,false,true,false,false,true,true,false,true,false,true,false,true,true,true,true,true,true,true,true,true,true,true,true,false,false,false,true,true,false,true,false,true,false,false,false,false,false,false,false,false,false,false,false,false,false,false,false,false,false,false,false,false,false,false,false,false,false],"id":0,"left_children":[1,3,5,7,9,11,13,15,17,19,21,23,25,27,-1,29,-1,-1,31,33,-1,35,-1,37,-1,39,41,43,45,47,49,51,53,55,57,59,61,-1,-1,-1,63,65,-1,67,-1,69,-1,-1,-1,-1,-1,-1,-1,-1,-1,-1,-1,-1,-1,-1,-1,-1,-1,-1,-1,-1,-1,-1,-1,-1,-1],"loss_changes":[1.2077438E2,1.096174E2,5.8436584E1,5.363344E1,1.0909747E2,3.428E1,5.3095016E1,6.1672836E1,5.1231438E1,3.938327E1,6.69102E1,1.1827393E0,3.697931E1,3.3978603E1,0E0,7.389647E1,0E0,0E0,5.1188503E1,2.7958923E1,0E0,5.693235E1,0E0,6.666666E-1,0E0,5.439244E1,7.173352E1,3.9597736E1,1.6879122E1,5.5797165E1,3.5843353E0,3.4742554E1,4.231928E1,3.1848362E1,7.4635925E0,7.102022E1,5.2655083E1,0E0,0E0,0E0,5.5130005E-2,7.949726E1,0E0,3.0319904E1,0E0,2.56E1,0E0,0E0,0E0,0E0,0E0,0E0,0E0,0E0,0E0,0E0,0E0,0E0,0E0,0E0,0E0,0E0,0E0,0E0,0E0,0E0,0E0,0E0,0E0,0E0,0E0],"parents":[2147483647,0,0,1,1,2,2,3,3,4,4,5,5,6,6,7,7,8,8,9,9,10,10,11,11,12,12,13,13,15,15,18,18,19,19,21,21,23,23,25,25,26,26,27,27,28,28,29,29,30,30,31,31,32,32,33,33,34,34,35,35,36,36,40,40,41,41,43,43,45,45],"right_children":[2,4,6,8,10,12,14,16,18,20,22,24,26,28,-1,30,-1,-1,32,34,-1,36,-1,38,-1,40,42,44,46,48,50,52,54,56,58,60,62,-1,-1,-1,64,66,-1,68,-1,70,-1,-1,-1,-1,-1,-1,-1,-1,-1,-1,-1,-1,-1,-1,-1,-1,-1,-1,-1,-1,-1,-1,-1,-1,-1],"split_conditions":[4.0825E0,5E-1,1.6795E3,4.5E2,5.375E-4,5E-1,1.45E1,6.5E0,4.175E-5,1.7E1,5E-1,5E-1,6.5825E-4,1.3E-3,5.647059E-1,1.3E2,-5.3333336E-1,5.3513515E-1,2.875E0,1.08249995E-4,-4.8000002E-1,5.255E2,-5.6521744E-1,2.875E-4,5.922078E-1,4.375E-5,1E1,8.25E-4,5.4175E0,9.645E-4,5E-1,9.8E2,4.79E2,3.5E0,5E-1,7.1675004E-4,5E-1,-0E0,3E-1,-4.8000002E-1,5E-1,6.25E0,5.762377E-1,4.5624998E-4,5.538462E-1,5.1675E0,-5.538462E-1,-2.9845627E-2,3.970588E-1,2.1818183E-1,5.7931036E-1,-4.7403318E-1,-1.3062732E-1,-4.8000002E-1,5.54717E-1,4.4275862E-1,5.1851854E-2,2.2352943E-1,5.041096E-1,-4.7368425E-1,4.434783E-1,4.9565217E-1,-5.647059E-1,2.8E-1,5.8867925E-1,2.4827588E-1,-5.6521744E-1,1.846154E-1,-5.3333336E-1,-4.8000002E-1,4.8000002E-1],"split_indices":[1,6,7,7,3,6,4,4,3,4,12,0,3,3,0,7,0,0,1,3,0,7,0,3,0,3,1,3,1,3,0,7,7,7,0,3,2,0,0,0,0,1,0,3,0,1,0,0,0,0,0,0,0,0,0,0,0,0,0,0,0,0,0,0,0,0,0,0,0,0,0],"split_type":[0,0,0,0,0,0,0,0,0,0,0,0,0,0,0,0,0,0,0,0,0,0,0,0,0,0,0,0,0,0,0,0,0,0,0,0,0,0,0,0,0,0,0,0,0,0,0,0,0,0,0,0,0,0,0,0,0,0,0,0,0,0,0,0,0,0,0,0,0,0,0],"sum_hessian":[9.1525E2,6.42E2,2.7325E2,3.5825E2,2.8375E2,2.0525E2,6.8E1,2.2275E2,1.355E2,1.99E2,8.475E1,7.8E1,1.2725E2,5.2E1,1.6E1,2.1025E2,1.25E1,8.25E0,1.2725E2,1.95E2,4E0,6.85E1,1.625E1,2E0,7.6E1,5.875E1,6.85E1,3.2E1,2E1,1.7775E2,3.25E1,1.11E2,1.625E1,7.475E1,1.2025E2,4.775E1,2.075E1,1E0,1E0,4E0,5.475E1,4.425E1,2.425E1,2E1,1.2E1,8E0,1.2E1,1.4475E2,3.3E1,4.5E0,2.8E1,4.425E1,6.675E1,4E0,1.225E1,3.525E1,3.95E1,1.175E1,1.085E2,8.5E0,3.925E1,4.75E0,1.6E1,2.75E0,5.2E1,2.8E1,1.625E1,1.2E1,8E0,4E0,4E0],"tree_param":{"num_deleted":"0","num_feature":"13","num_nodes":"71","size_leaf_vector":"0"}},{"base_weights":[4.4827792E-1,2.6745182E-1,8.851693E-1,-3.3170386E-4,6.127421E-1,1.0908148E0,2.6414832E-1,5.728074E-2,-1.5632447E0,9.11015E-1,-1.01994775E-1,1.5128951E0,8.264017E-1,-3.4129667E-1,1.1174071E0,1.2697423E-1,-8.968642E-1,9.619791E-1,-1.2799958E0,-4.0062368E-1,1.5045774E0,5.7163376E-1,1.5311396E0,4.0179783E-1,1.3224119E0,2.62544E-1,-1.6487145E0,1.5470972E0,-1.2510978E0,3.4433868E-2,1.0377084E0,-1.5745316E0,1.3479375E0,7.7536297E-1,1.4885645E0,-1.3862786E0,2.873735E-1,-6.120474E-2,1.4832475E0,1.4855291E0,6.5420467E-1,-3.0027473E-1,1.5105602E0,4.8353496E-1,-1.8109171E-1,1.5321383E0,-1.5186814E0,6.907685E-1,-1.8468479E0,8.7520796E-1,-2.1047566E0,7.4250335E-1,1.5663487E0,7.468553E-1,-1.525623E0,9.5696783E-1,-1.3244623E0,9.022376E-1,-7.6651007E-1,8.1561476E-2,1.5408734E0,1.5796323E0,-1.2343419E0,-1.414402E0,5.015309E-1],"categories":[],"categories_nodes":[],"categories_segments":[],"categories_sizes":[],"default_left":[true,true,true,true,true,true,true,true,false,true,true,true,true,true,true,true,true,true,false,true,false,false,false,true,true,true,false,false,false,true,true,true,false,true,true,true,true,true,false,true,true,true,false,false,false,false,false,false,false,false,false,false,false,false,false,false,false,false,false,false,false,false,false,false,false],"id":1,"left_children":[1,3,5,7,9,11,13,15,-1,17,19,21,23,25,27,29,31,33,-1,35,-1,-1,-1,37,39,41,-1,-1,-1,43,45,47,-1,49,51,53,55,57,-1,59,61,63,-1,-1,-1,-1,-1,-1,-1,-1,-1,-1,-1,-1,-1,-1,-1,-1,-1,-1,-1,-1,-1,-1,-1],"loss_changes":[6.891112E1,5.737221E1,3.237863E1,3.1646477E1,5.7871086E1,2.0159515E1,3.3934963E1,2.2654552E1,0E0,2.259488E1,3.9319885E1,3.7295532E-1,2.477369E1,3.1031593E1,2.9609688E1,2.6661652E1,3.741172E1,1.727562E1,0E0,4.708074E1,0E0,0E0,0E0,3.3224213E1,5.020767E0,1.9682535E1,0E0,0E0,0E0,2.8020723E1,3.9214283E1,1.2552265E1,0E0,4.2261833E1,1.621666E0,9.601894E0,4.5917015E1,3.282972E1,0E0,3.2469788E0,2.3926907E1,1.8308903E1,0E0,0E0,0E0,0E0,0E0,0E0,0E0,0E0,0E0,0E0,0E0,0E0,0E0,0E0,0E0,0E0,0E0,0E0,0E0,0E0,0E0,0E0,0E0],"parents":[2147483647,0,0,1,1,2,2,3,3,4,4,5,5,6,6,7,7,9,9,10,10,11,11,12,12,13,13,14,14,15,15,16,16,17,17,19,19,23,23,24,24,25,25,29,29,30,30,31,31,33,33,34,34,35,35,36,36,37,37,39,39,40,40,41,41],"right_children":[2,4,6,8,10,12,14,16,-1,18,20,22,24,26,28,30,32,34,-1,36,-1,-1,-1,38,40,42,-1,-1,-1,44,46,48,-1,50,52,54,56,58,-1,60,62,64,-1,-1,-1,-1,-1,-1,-1,-1,-1,-1,-1,-1,-1,-1,-1,-1,-1,-1,-1,-1,-1,-1,-1],"split_conditions":[4.0825E0,5E-1,1.6795E3,1.3E1,5.375E-4,5E-1,5E-1,1.15425E-3,-4.6897343E-1,1.7E1,1.42925E-3,5E-1,5E-1,9E0,3.305E4,1.00425E-3,1.525E-3,2.6025E-4,-3.8399875E-1,7.725E-1,4.5137325E-1,1.7149013E-1,4.593419E-1,1.05E1,1.22925E-3,6E0,-4.946144E-1,4.6412918E-1,-3.7532935E-1,3.125E-1,1.639E3,5E-1,4.0438125E-1,2.52E-4,5E-1,5E-1,4E2,6.27E-4,4.4497427E-1,5E-1,7.125E0,3.5E0,4.5316806E-1,1.450605E-1,-5.4327514E-2,4.5964152E-1,-4.5560443E-1,2.0723055E-1,-5.540544E-1,2.625624E-1,-6.31427E-1,2.22751E-1,4.6990463E-1,2.240566E-1,-4.576869E-1,2.8709036E-1,-3.9733872E-1,2.7067128E-1,-2.2995304E-1,2.4468444E-2,4.6226203E-1,4.738897E-1,-3.7030256E-1,-4.243206E-1,1.5045927E-1],"split_indices":[1,6,7,4,3,6,12,3,0,4,3,0,11,1,7,3,3,3,0,1,0,0,0,1,3,1,0,0,0,1,7,0,0,3,0,0,7,3,0,0,1,4,0,0,0,0,0,0,0,0,0,0,0,0,0,0,0,0,0,0,0,0,0,0,0],"split_type":[0,0,0,0,0,0,0,0,0,0,0,0,0,0,0,0,0,0,0,0,0,0,0,0,0,0,0,0,0,0,0,0,0,0,0,0,0,0,0,0,0,0,0,0,0,0,0,0,0,0,0,0,0,0,0,0,0,0,0,0,0,0,0,0,0],"sum_hessian":[8.742742E2,6.194858E2,2.5478838E2,3.4946423E2,2.7002155E2,1.908377E2,6.395067E1,3.379693E2,1.1494949E1,1.9032202E2,7.969951E1,7.168533E1,1.19152374E2,3.7758476E1,2.6192192E1,3.1577136E2,2.2197924E1,1.8654385E2,3.778167E0,6.7840065E1,1.1859446E1,1.9778333E0,6.97075E1,6.517236E1,5.398001E1,2.6375805E1,1.1382672E1,2.2463675E1,3.7285163E0,2.8758722E2,2.8184137E1,1.727998E1,4.9179444E0,1.3955835E2,4.698551E1,2.7470161E1,4.0369904E1,4.6295296E1,1.8877066E1,4.2405235E1,1.1574774E1,1.8701412E1,7.674391E0,9.285573E1,1.9473149E2,2.3952215E1,4.2319217E0,1.6894468E0,1.5590533E1,1.3555518E2,4.003165E0,5.4318657E0,4.1553646E1,1.4170876E0,2.6053074E1,2.8808475E1,1.1561428E1,1.9448948E1,2.6846348E1,1.70203E0,4.0703205E1,7.8779736E0,3.6968005E0,7.5066833E0,1.119473E1],"tree_param":{"num_deleted":"0","num_feature":"13","num_nodes":"65","size_leaf_vector":"0"}},{"base_weights":[3.4861636E-1,1.8163738E-1,7.112495E-1,3.1032956E-1,-5.758761E-1,8.896988E-1,1.2650052E-1,5.4604158E-2,7.7453655E-1,-9.372861E-2,-1.5307816E0,1.2026895E0,4.4746327E-1,-1.8850064E-1,1.256233E0,3.7282026E-1,-3.3775577E-1,-2.830828E-2,1.1197006E0,-4.847842E-1,1.3675922E0,1.1128712E0,-1.9592752E0,1.2816532E-1,1.308407E0,1.0478414E-1,1.3193827E0,3.4035586E-2,-1.3339949E0,8.2954586E-1,-1.5223935E-1,-1.875606E0,-4.6268564E-2,-1.6034335E0,1.0046568E0,1.5261848E0,5.7219875E-1,-2.0821202E0,-7.5254306E-2,1.1704398E0,-1.4457238E0,1.3885572E0,5.4484653E-1,1.3153245E0,-4.1998026E-1,6.963201E-1,-4.7077098E-1,3.088253E-1,1.334634E0,-1.4796934E0,1.5368074E-1,-6.510585E-2,-2.0442758E0,3.8055885E-1,-6.611375E-1,1.4211105E0,2.841103E-1,1.6822062E0,1.0084577E-1,9.141239E-2,1.686346E0,-6.883917E-1,1.2308605E0,7.946055E-1,1.4187673E0,1.304768E0,-1.0638553E0,-9.22967E-1,1.225855E0,-1.3800735E0,1.3512226E0,1.1975762E0,-8.2233924E-1],"categories":[],"categories_nodes":[],"categories_segments":[],"categories_sizes":[],"default_left":[true,true,true,true,true,true,true,true,true,true,true,true,true,true,false,true,true,true,true,true,false,false,false,true,true,true,false,true,false,true,true,true,true,false,true,true,true,false,true,false,false,true,true,false,true,true,true,false,false,false,false,false,false,false,false,false,false,false,false,false,false,false,false,false,false,false,false,false,false,false,false,false,false],"id":2,"left_children":[1,3,5,7,9,11,13,15,17,19,21,23,25,27,-1,29,31,33,35,37,-1,-1,-1,39,41,43,-1,45,-1,47,49,51,53,-1,55,57,59,-1,61,-1,-1,63,65,-1,67,69,71,-1,-1,-1,-1,-1,-1,-1,-1,-1,-1,-1,-1,-1,-1,-1,-1,-1,-1,-1,-1,-1,-1,-1,-1,-1,-1],"loss_changes":[4.9023575E1,5.449359E1,2.6557556E1,5.656988E1,3.7268425E1,2.6544403E1,2.1918623E1,3.865316E1,4.695289E1,3.2127827E1,3.2989956E1,1.27799835E1,2.4565865E1,1.2411833E1,0E0,4.110035E1,6.20934E1,8.6028824E1,2.5485062E1,2.8740746E1,0E0,0E0,0E0,2.0258635E1,5.5875397E0,3.8946903E1,0E0,1.4234367E1,0E0,2.366167E1,3.284888E1,6.608818E0,3.1124357E1,0E0,9.183491E0,1.4812897E1,2.7735239E1,0E0,2.98357E1,0E0,0E0,5.444031E-1,1.5438616E1,0E0,3.6662624E1,2.6878956E1,1.5179539E1,0E0,0E0,0E0,0E0,0E0,0E0,0E0,0E0,0E0,0E0,0E0,0E0,0E0,0E0,0E0,0E0,0E0,0E0,0E0,0E0,0E0,0E0,0E0,0E0,0E0,0E0],"parents":[2147483647,0,0,1,1,2,2,3,3,4,4,5,5,6,6,7,7,8,8,9,9,10,10,11,11,12,12,13,13,15,15,16,16,17,17,18,18,19,19,23,23,24,24,25,25,27,27,29,29,30,30,31,31,32,32,34,34,35,35,36,36,38,38,41,41,42,42,44,44,45,45,46,46],"right_children":[2,4,6,8,10,12,14,16,18,20,22,24,26,28,-1,30,32,34,36,38,-1,-1,-1,40,42,44,-1,46,-1,48,50,52,54,-1,56,58,60,-1,62,-1,-1,64,66,-1,68,70,72,-1,-1,-1,-1,-1,-1,-1,-1,-1,-1,-1,-1,-1,-1,-1,-1,-1,-1,-1,-1,-1,-1,-1,-1,-1,-1],"split_conditions":[3.21E0,2.27E0,1.6795E3,1.125E0,8.11E2,5E-1,1.45E1,3.125E-1,1.04E-4,2.96E2,5E-1,4.375E-5,9.5E0,1.2E1,3.7686992E-1,2.52E-4,5.2E-5,5E-1,1.73E0,2.48E0,4.102777E-1,3.3386135E-1,-5.877826E-1,3.125E-5,1.31675E-3,4.6250003E-4,3.958148E-1,2.674E3,-4.001985E-1,6.25E-2,3.0625E-4,5E-1,6.25E-4,-4.8103008E-1,2.535E2,1E1,2.105E0,-6.2463605E-1,8.5E-4,3.5113198E-1,-4.3371716E-1,5E-1,7.125E0,3.9459738E-1,1E1,3.5E-4,3.0825E-4,9.26476E-2,4.003902E-1,-4.4390804E-1,4.6104223E-2,-1.9531755E-2,-6.1328274E-1,1.1416766E-1,-1.9834127E-1,4.2633316E-1,8.523309E-2,5.0466186E-1,3.0253733E-2,2.7423717E-2,5.0590384E-1,-2.0651752E-1,3.6925817E-1,2.3838165E-1,4.256302E-1,3.914304E-1,-3.191566E-1,-2.7689013E-1,3.6775652E-1,-4.140221E-1,4.053668E-1,3.5927287E-1,-2.4670178E-1],"split_indices":[1,1,7,1,7,12,4,1,3,7,2,3,4,4,0,3,3,6,1,1,0,0,0,3,3,3,0,7,0,1,3,0,3,0,7,4,1,0,3,0,0,0,1,0,1,3,3,0,0,0,0,0,0,0,0,0,0,0,0,0,0,0,0,0,0,0,0,0,0,0,0,0,0],"split_type":[0,0,0,0,0,0,0,0,0,0,0,0,0,0,0,0,0,0,0,0,0,0,0,0,0,0,0,0,0,0,0,0,0,0,0,0,0,0,0,0,0,0,0,0,0,0,0,0,0,0,0,0,0,0,0,0,0,0,0,0,0,0,0,0,0,0,0,0,0,0,0,0,0],"sum_hessian":[8.1074316E2,5.561553E2,2.5458788E2,4.7589667E2,8.025863E1,1.9466112E2,5.9926754E1,3.0757523E2,1.6832143E2,5.4060665E1,2.6197966E1,1.1298021E2,8.1680916E1,4.7512173E1,1.2414582E1,1.6986182E2,1.3771342E2,5.0884064E1,1.1743737E2,4.3175087E1,1.0885578E1,3.4312441E0,2.2766722E1,1.0318107E1,1.026621E2,5.9440117E1,2.2240799E1,4.0595863E1,6.916309E0,9.053212E1,7.93297E1,2.1077349E1,1.1663607E2,1.9934505E1,3.0949556E1,6.637255E1,5.106481E1,7.977064E0,3.5198025E1,6.3616066E0,3.9564996E0,9.21687E1,1.0493401E1,1.75194E1,4.192072E1,1.7394997E1,2.3200867E1,4.536968E1,4.5162437E1,1.4139305E1,6.519039E1,1.9143828E0,1.9162966E1,6.907023E1,4.7565838E1,1.8997385E1,1.1952172E1,5.966162E1,6.710934E0,3.64274E1,1.4637415E1,2.4275278E1,1.0922745E1,5.7825446E0,8.6386154E1,7.2551374E0,3.2382631E0,3.2444504E1,9.476214E0,3.905419E0,1.3489576E1,3.6192997E0,1.9581566E1],"tree_param":{"num_deleted":"0","num_feature":"13","num_nodes":"73","size_leaf_vector":"0"}},{"base_weights":[2.8030515E-1,1.4014533E-1,6.1849463E-1,2.3547491E-1,-4.348268E-1,7.759362E-1,1.1314892E-1,3.8275447E-2,6.1722124E-1,-5.777988E-2,-1.2056243E0,1.0626173E0,3.9104316E-1,-1.5492775E-1,1.1332246E0,9.758123E-2,-1.4196348E0,-2.0032212E-2,8.8314205E-1,-3.5582763E-1,1.1979723E0,9.844892E-1,-1.545742E0,1.0750545E-1,1.1604618E0,1.1606735E-1,1.4358863E0,3.7173342E-2,-1.1611549E0,3.5249966E-1,-2.1169102E-1,-1.3256854E0,8.16322E-1,1.1520663E0,1.6709296E-1,-1.5097935E0,-4.342193E-2,1.0500518E0,-1.1949811E0,1.2352403E0,4.6411684E-1,8.5956335E-1,-7.920719E-1,5.949902E-1,-3.5982943E-1,7.263677E-1,-5.978664E-2,-1.2240925E0,1.3917063E-1,1.3814502E0,1.3082321E-1,1.2622763E0,-1.0720634E0,6.4114165E-1,-1.16441E0,-4.9545997E-1,1.0454727E0,6.1832863E-1,1.2745324E0,1.1415341E0,-9.435944E-1,1.22056484E-1,1.1695399E0,4.9443814E-1,-1.4318893E0,-1.156188E0,1.195633E0,-1.1689469E0,2.3899665E-1],"categories":[],"categories_nodes":[],"categories_segments":[],"categories_sizes":[],"default_left":[true,true,true,true,true,true,true,true,true,true,true,true,true,true,false,true,false,true,true,true,false,false,false,true,true,true,false,true,false,true,true,false,true,true,true,false,true,false,false,true,true,true,true,true,true,false,false,false,false,false,false,false,false,false,false,false,false,false,false,false,false,false,false,false,false,false,false,false,false],"id":3,"left_children":[1,3,5,7,9,11,13,15,17,19,21,23,25,27,-1,29,-1,31,33,35,-1,-1,-1,37,39,41,-1,43,-1,45,47,-1,49,51,53,-1,55,-1,-1,57,59,61,63,65,67,-1,-1,-1,-1,-1,-1,-1,-1,-1,-1,-1,-1,-1,-1,-1,-1,-1,-1,-1,-1,-1,-1,-1,-1],"loss_changes":[3.5161808E1,2.8990093E1,1.7224663E1,3.4057846E1,2.1816132E1,1.7872093E1,1.4630439E1,2.604157E1,2.613834E1,1.9746033E1,1.9910435E1,8.697586E0,2.061473E1,8.30443E0,0E0,2.2844345E1,0E0,5.170846E1,2.075447E1,1.5251865E1,0E0,0E0,0E0,1.3377293E1,3.8804092E0,4.0078518E1,0E0,8.3761E0,0E0,2.4504528E1,4.674548E1,0E0,1.10066185E1,2.0695854E1,2.0231281E1,0E0,1.7483036E1,0E0,0E0,1.0695114E0,1.0514083E1,7.301424E0,2.2757242E1,1.7897486E1,1.1013941E1,0E0,0E0,0E0,0E0,0E0,0E0,0E0,0E0,0E0,0E0,0E0,0E0,0E0,0E0,0E0,0E0,0E0,0E0,0E0,0E0,0E0,0E0,0E0,0E0],"parents":[2147483647,0,0,1,1,2,2,3,3,4,4,5,5,6,6,7,7,8,8,9,9,10,10,11,11,12,12,13,13,15,15,17,17,18,18,19,19,23,23,24,24,25,25,27,27,29,29,30,30,32,32,33,33,34,34,36,36,39,39,40,40,41,41,42,42,43,43,44,44],"right_children":[2,4,6,8,10,12,14,16,18,20,22,24,26,28,-1,30,-1,32,34,36,-1,-1,-1,38,40,42,-1,44,-1,46,48,-1,50,52,54,-1,56,-1,-1,58,60,62,64,66,68,-1,-1,-1,-1,-1,-1,-1,-1,-1,-1,-1,-1,-1,-1,-1,-1,-1,-1,-1,-1,-1,-1,-1,-1],"split_conditions":[3.21E0,2.27E0,1.6795E3,1.125E0,8.11E2,5E-1,1.45E1,1.3E1,1.04E-4,2.96E2,5E-1,4.375E-5,1.375E-3,1.2E1,3.399674E-1,3.125E-1,-4.2589048E-1,5E-1,9.7500003E-4,2.48E0,3.593917E-1,2.9534677E-1,-4.6372262E-1,3.125E-5,1.31675E-3,6.27E-4,4.307659E-1,2.674E3,-3.4834647E-1,2.52E-4,9.575E-5,-3.9770564E-1,5E-1,1.5E1,5.335E2,-4.5293808E-1,8.5E-4,3.1501555E-1,-3.5849434E-1,5E-1,7.125E0,4.125E0,5E-1,3.5E-4,6.9255E3,2.1791032E-1,-1.7935993E-2,-3.6722776E-1,4.175119E-2,4.1443506E-1,3.9246965E-2,3.786829E-1,-3.2161903E-1,1.923425E-1,-3.49323E-1,-1.48638E-1,3.1364185E-1,1.854986E-1,3.8235974E-1,3.4246024E-1,-2.8307834E-1,3.6616948E-2,3.50862E-1,1.4833145E-1,-4.295668E-1,-3.4685642E-1,3.5868993E-1,-3.5068408E-1,7.1699E-2],"split_indices":[1,1,7,1,7,12,4,4,3,7,2,3,3,4,0,1,0,6,3,1,0,0,0,3,3,3,0,7,0,3,3,0,11,4,7,0,3,0,0,0,1,1,6,3,7,0,0,0,0,0,0,0,0,0,0,0,0,0,0,0,0,0,0,0,0,0,0,0,0],"split_type":[0,0,0,0,0,0,0,0,0,0,0,0,0,0,0,0,0,0,0,0,0,0,0,0,0,0,0,0,0,0,0,0,0,0,0,0,0,0,0,0,0,0,0,0,0,0,0,0,0,0,0,0,0,0,0,0,0,0,0,0,0,0,0,0,0,0,0,0,0],"sum_hessian":[7.426298E2,5.260339E2,2.1659595E2,4.517284E2,7.430548E1,1.6473648E2,5.185947E1,2.98587E2,1.5314142E2,5.0619278E1,2.3686203E1,9.340473E1,7.133175E1,4.1738644E1,1.0120827E1,2.8781226E2,1.0774739E1,4.536154E1,1.0777987E2,4.1488735E1,9.130543E0,2.9292686E0,2.0756935E1,8.874525E0,8.4530205E1,5.7349834E1,1.3981915E1,3.5856297E1,5.882349E0,1.5769334E2,1.3011891E2,1.7483128E1,2.7878416E1,7.791039E1,2.9869476E1,8.022475E0,3.3466263E1,5.261119E0,3.6134064E0,7.563417E1,8.896034E0,3.1562786E1,2.5787048E1,1.470127E1,2.1155025E1,8.230028E1,7.539307E1,3.2848026E1,9.727088E1,1.4724352E1,1.3154064E1,7.46441E1,3.2662966E0,2.2409582E1,7.459895E0,2.403393E1,9.432331E0,5.530976E0,7.0103195E1,6.133543E0,2.762492E0,9.752667E0,2.181012E1,8.640474E0,1.7146574E1,3.518409E0,1.1182861E1,8.592716E0,1.2562308E1],"tree_param":{"num_deleted":"0","num_feature":"13","num_nodes":"69","size_leaf_vector":"0"}},{"base_weights":[2.2493416E-1,1.1658401E-1,5.801511E-1,-7.522777E-2,3.873289E-1,7.340555E-1,1.5890467E-1,-7.0436317E-3,-9.353574E-1,6.000386E-1,-1.320051E-1,1.1171323E0,5.175951E-1,-7.446543E-2,1.0454144E0,-1.919899E-1,3.2900605E-1,-1.2594312E0,9.378976E-1,4.1371238E-1,1.194718E0,8.154121E-1,-5.615111E-1,1.885156E-1,1.153239E0,3.130056E-1,1.2821655E0,3.0350336E-1,-6.9717723E-1,4.4060204E-2,-8.276728E-1,5.01919E-1,-1.2344066E0,6.223104E-1,-1.4834883E0,4.8060408E-1,-1.2304076E0,6.010605E-1,1.2716854E0,-1.0772083E0,1.2484183E0,-1.237777E0,1.14995904E-1,6.149578E-1,-9.202236E-1,-2.475117E-1,1.2149622E0,4.4555824E-2,-1.1236036E0,-3.2271296E-1,1.041078E0,-1.5372834E0,3.8227972E-1,3.0870232E-1,1.3204314E0,6.054876E-1,-4.2964697E-1,-4.3521407E-1,9.479025E-1,1.3922428E0,3.971666E-1,7.114399E-1,-1.2451522E0,-1.0373274E0,7.498331E-1,-1.2946597E0,7.5625205E-1,1.0112813E0,-6.5501773E-1,-8.6139107E-1,8.9615685E-1],"categories":[],"categories_nodes":[],"categories_segments":[],"categories_sizes":[],"default_left":[true,true,true,true,true,true,true,true,true,true,true,true,true,true,false,true,true,true,false,true,true,true,true,false,false,true,false,true,true,true,true,true,false,false,false,true,false,true,false,false,true,false,true,true,true,true,false,true,false,false,false,false,false,false,false,false,false,false,false,false,false,false,false,false,false,false,false,false,false,false,false],"id":4,"left_children":[1,3,5,7,9,11,13,15,17,19,21,23,25,27,-1,29,31,33,-1,35,37,39,41,-1,-1,43,-1,45,47,49,51,53,-1,-1,-1,55,-1,57,-1,-1,59,-1,61,63,65,67,-1,69,-1,-1,-1,-1,-1,-1,-1,-1,-1,-1,-1,-1,-1,-1,-1,-1,-1,-1,-1,-1,-1,-1,-1],"loss_changes":[2.5855103E1,2.6896564E1,1.00732E1,1.780212E1,2.3796448E1,8.944378E0,9.043074E0,1.7612307E1,1.4716486E1,1.6402763E1,2.6177208E1,1.1438446E0,1.1368027E1,8.50529E0,0E0,2.7460032E1,2.781606E1,9.117098E0,0E0,1.3529493E1,8.737602E-1,1.7836226E1,2.0309498E1,0E0,0E0,2.3161764E1,0E0,1.1663406E1,4.355753E0,4.9417683E1,4.3121227E1,1.4030779E1,0E0,0E0,0E0,1.3192188E1,0E0,2.5729976E0,0E0,0E0,1.5087585E0,0E0,1.95055E1,1.177437E1,8.72259E0,8.321548E0,0E0,5.3478417E0,0E0,0E0,0E0,0E0,0E0,0E0,0E0,0E0,0E0,0E0,0E0,0E0,0E0,0E0,0E0,0E0,0E0,0E0,0E0,0E0,0E0,0E0,0E0],"parents":[2147483647,0,0,1,1,2,2,3,3,4,4,5,5,6,6,7,7,8,8,9,9,10,10,11,11,12,12,13,13,15,15,16,16,17,17,19,19,20,20,21,21,22,22,25,25,27,27,28,28,29,29,30,30,31,31,35,35,37,37,40,40,42,42,43,43,44,44,45,45,47,47],"right_children":[2,4,6,8,10,12,14,16,18,20,22,24,26,28,-1,30,32,34,-1,36,38,40,42,-1,-1,44,-1,46,48,50,52,54,-1,-1,-1,56,-1,58,-1,-1,60,-1,62,64,66,68,-1,70,-1,-1,-1,-1,-1,-1,-1,-1,-1,-1,-1,-1,-1,-1,-1,-1,-1,-1,-1,-1,-1,-1,-1],"split_conditions":[4.0825E0,5E-1,1.6795E3,1.15425E-3,5.375E-4,5E-1,1.45E1,5.0425E-4,1.60825E-3,2.6025E-4,5E-1,5E-1,1.36675E-3,1.3E-3,3.1362435E-1,2.8550002E-4,2.977E3,5E-1,2.813693E-1,2.52E-4,5E-1,6E-4,1.105E0,5.6554683E-2,3.459717E-1,9.9575E-4,3.8464966E-1,8.25E-4,5.4175E0,5E-1,9.95E1,1.023E-3,-3.70322E-1,1.8669313E-1,-4.450465E-1,2.27E0,-3.691223E-1,2.38E0,3.8150564E-1,-3.231625E-1,2.5E0,-3.7133312E-1,2.2075E0,4.375E-5,1.425E1,2.0200001E-4,3.644887E-1,5.1675E0,-3.3708107E-1,-9.6813895E-2,3.123234E-1,-4.6118504E-1,1.1468392E-1,9.26107E-2,3.9612943E-1,1.8164629E-1,-1.2889409E-1,-1.3056423E-1,2.8437075E-1,4.1767284E-1,1.1914999E-1,2.1343198E-1,-3.7354568E-1,-3.1119823E-1,2.2494994E-1,-3.8839793E-1,2.2687562E-1,3.033844E-1,-1.9650532E-1,-2.5841734E-1,2.6884708E-1],"split_indices":[1,6,7,3,3,6,4,3,3,3,2,0,3,3,0,3,7,0,0,3,0,3,1,0,0,3,0,3,1,10,7,3,0,0,0,1,0,5,0,0,1,0,1,3,1,3,0,1,0,0,0,0,0,0,0,0,0,0,0,0,0,0,0,0,0,0,0,0,0,0,0],"split_type":[0,0,0,0,0,0,0,0,0,0,0,0,0,0,0,0,0,0,0,0,0,0,0,0,0,0,0,0,0,0,0,0,0,0,0,0,0,0,0,0,0,0,0,0,0,0,0,0,0,0,0,0,0,0,0,0,0,0,0,0,0,0,0,0,0,0,0,0,0,0,0],"sum_hessian":[6.725311E2,5.163573E2,1.5617384E2,3.026583E2,2.13699E2,1.1383946E2,4.2334373E1,2.8136234E2,2.1295948E1,1.5149431E2,6.2204704E1,3.959898E1,7.424048E1,3.4237495E1,8.09688E0,1.8175916E2,9.960319E1,1.8434458E1,2.8614907E0,1.1664312E2,3.4851185E1,1.9123354E1,4.3081352E1,1.7149044E0,3.7884075E1,5.968019E1,1.456029E1,2.1624582E1,1.2612912E1,1.3322063E2,4.853854E1,9.0295494E1,9.307692E0,1.7723053E0,1.6662151E1,1.1276299E2,3.8801267E0,5.010895E0,2.9840288E1,3.283558E0,1.5839795E1,2.1129612E1,2.195174E1,4.834453E1,1.1335661E1,1.3931097E1,7.693486E0,4.9311323E0,7.68178E0,9.788717E1,3.5333454E1,3.042463E1,1.811391E1,7.4165306E1,1.6130186E1,9.9453156E1,1.3309835E1,1.1926811E0,3.818214E0,1.3006704E1,2.8330905E0,1.5591561E1,6.3601785E0,3.143551E0,4.5200977E1,9.452272E0,1.8833888E0,3.0446103E0,1.0886486E1,2.383757E0,2.5473752E0],"tree_param":{"num_deleted":"0","num_feature":"13","num_nodes":"71","size_leaf_vector":"0"}},{"base_weights":[1.8017648E-1,7.094163E-2,5.0018054E-1,2.3512438E-1,-2.0519517E-1,8.877995E-1,2.968255E-1,1.3743137E-1,1.1952641E0,-4.9341628E-1,3.6562416E-1,1.1293972E0,-2.1591696E-1,1.0812924E-1,1.0250177E0,3.4185132E-1,-2.5180012E-1,2.173163E-1,1.2550117E0,-1.0880381E0,-2.671006E-1,7.467651E-1,-8.130457E-1,4.5840397E-1,1.1769334E0,8.9282596E-1,-8.917025E-1,4.5978808E-1,-2.4275601E-1,3.7793332E-1,1.0646594E0,2.464266E-1,9.97157E-1,-1.28258E-1,-1.1655682E0,-4.3242124E-1,-1.5676777E0,-9.963302E-2,-1.6857239E0,1.2070416E0,-1.0882672E0,-2.2699203E0,1.0563769E0,-2.144482E-1,8.800439E-1,9.201736E-1,-2.960351E-1,-7.046614E-1,1.0477446E0,3.4580442E-1,-1.5284504E0,1.1656191E0,-7.746542E-1,-3.3878964E-1,5.838892E-1,-4.4394276E-1,-1.3393714E0,1.0652872E0,-1.0079422E0,-2.2433505E0,-1.23159E0,-7.4297047E-1,5.1569265E-1,1.3658642E0,-8.2840747E-1,1.0593674E0,2.714984E-1,-1.0241251E0,2.4678695E-1,-1.0044812E0,1.2387034E0],"categories":[],"categories_nodes":[],"categories_segments":[],"categories_sizes":[],"default_left":[true,true,true,true,true,true,true,true,true,true,true,true,true,true,true,true,true,false,false,true,true,true,true,true,false,false,false,true,true,false,false,true,true,true,true,true,true,true,false,true,false,false,false,false,false,true,true,true,false,false,false,false,false,false,false,false,false,false,false,false,false,false,false,false,false,false,false,false,false,false,false],"id":5,"left_children":[1,3,5,7,9,11,13,15,17,19,21,23,25,27,29,31,33,-1,-1,35,37,39,41,43,-1,-1,-1,45,47,-1,-1,49,51,53,55,57,59,61,-1,63,-1,-1,-1,-1,-1,65,67,69,-1,-1,-1,-1,-1,-1,-1,-1,-1,-1,-1,-1,-1,-1,-1,-1,-1,-1,-1,-1,-1,-1,-1],"loss_changes":[2.1391668E1,2.0819464E1,1.2019619E1,2.6829796E1,2.8373941E1,1.4408291E1,1.4139742E1,2.0959497E1,1.2726059E0,1.5090431E1,2.669463E1,8.556404E-1,8.572711E0,1.0412966E1,1.421032E-1,1.0536619E1,1.0113281E1,0E0,0E0,9.128113E0,1.9814865E1,3.8816555E1,4.2347176E1,1.4743768E0,0E0,0E0,0E0,1.4901754E1,2.603802E1,0E0,0E0,2.731048E1,7.346895E0,1.237311E1,7.478571E-1,1.3620331E1,1.2401314E0,3.0585043E1,0E0,1.2760429E1,0E0,0E0,0E0,0E0,0E0,2.093439E0,6.8415985E0,1.9803982E1,0E0,0E0,0E0,0E0,0E0,0E0,0E0,0E0,0E0,0E0,0E0,0E0,0E0,0E0,0E0,0E0,0E0,0E0,0E0,0E0,0E0,0E0,0E0],"parents":[2147483647,0,0,1,1,2,2,3,3,4,4,5,5,6,6,7,7,8,8,9,9,10,10,11,11,12,12,13,13,14,14,15,15,16,16,19,19,20,20,21,21,22,22,23,23,27,27,28,28,31,31,32,32,33,33,34,34,35,35,36,36,37,37,39,39,45,45,46,46,47,47],"right_children":[2,4,6,8,10,12,14,16,18,20,22,24,26,28,30,32,34,-1,-1,36,38,40,42,44,-1,-1,-1,46,48,-1,-1,50,52,54,56,58,60,62,-1,64,-1,-1,-1,-1,-1,66,68,70,-1,-1,-1,-1,-1,-1,-1,-1,-1,-1,-1,-1,-1,-1,-1,-1,-1,-1,-1,-1,-1,-1,-1],"split_conditions":[3.21E0,3.805E2,4.8125E-4,2.49E2,2.6175E3,9.73E0,1.125E1,5E-1,5E-1,1.48E-4,5E-1,5E-1,5E-1,5E-1,5.27E-4,9.645E-4,9E0,6.519489E-2,3.7650353E-1,7.7000004E-5,2.295E3,7E-4,1E-4,5E-1,3.5308003E-1,2.678478E-1,-2.6751074E-1,2.114E3,9.5E0,1.1338E-1,3.193978E-1,8.1475E-4,5E-1,1.95E1,5E-1,5E-1,8.324999E-5,1.0425E0,-5.057172E-1,2.3125E0,-3.2648018E-1,-6.8097615E-1,3.169131E-1,-6.433446E-2,2.640132E-1,8.25E0,3.5E0,1.3895E-3,3.143234E-1,1.0374133E-1,-4.5853513E-1,3.4968576E-1,-2.3239627E-1,-1.01636894E-1,1.7516676E-1,-1.3318284E-1,-4.0181145E-1,3.195862E-1,-3.0238268E-1,-6.7300516E-1,-3.6947703E-1,-2.2289115E-1,1.547078E-1,4.0975925E-1,-2.4852225E-1,3.1781024E-1,8.144952E-2,-3.0723754E-1,7.403609E-2,-3.0134436E-1,3.7161103E-1],"split_indices":[1,7,3,7,7,1,1,2,0,3,10,0,6,12,3,3,4,0,0,3,7,3,3,6,0,0,0,7,4,0,0,3,7,7,11,11,3,1,0,1,0,0,0,0,0,1,4,3,0,0,0,0,0,0,0,0,0,0,0,0,0,0,0,0,0,0,0,0,0,0,0],"split_type":[0,0,0,0,0,0,0,0,0,0,0,0,0,0,0,0,0,0,0,0,0,0,0,0,0,0,0,0,0,0,0,0,0,0,0,0,0,0,0,0,0,0,0,0,0,0,0,0,0,0,0,0,0,0,0,0,0,0,0,0,0,0,0,0,0,0,0,0,0,0,0],"sum_hessian":[6.1198206E2,4.5715262E2,1.5482947E2,2.8678644E2,1.7036618E2,5.2118877E1,1.0271059E2,2.6133868E2,2.5447744E1,1.13295845E2,5.707034E1,4.2740044E1,9.378837E0,8.24848E1,2.0225779E1,1.7142824E2,8.991044E1,1.7322078E0,2.3715536E1,3.0183668E1,8.311218E1,4.3402054E1,1.3668283E1,3.5317116E0,3.9208332E1,3.4300609E0,5.9487753E0,4.1041977E1,4.144283E1,1.7756108E0,1.8450169E1,1.5083928E2,2.0588966E1,8.020679E1,9.703653E0,1.3555831E1,1.6627836E1,7.529401E1,7.818177E0,3.4972267E1,8.429785E0,7.561351E0,6.106933E0,1.5498537E0,1.981858E0,2.537075E1,1.5671226E1,3.0853485E1,1.0589343E1,1.4360387E2,7.2354136E0,1.9113777E1,1.4751887E0,6.23103E1,1.7896486E1,2.573373E0,7.1302805E0,3.5268161E0,1.0029015E1,3.6383588E0,1.2989478E1,3.670775E1,3.8586254E1,3.274611E1,2.2261581E0,2.0367197E1,5.0035534E0,6.314665E0,9.356561E0,2.7148218E1,3.7052684E0],"tree_param":{"num_deleted":"0","num_feature":"13","num_nodes":"71","size_leaf_vector":"0"}},{"base_weights":[1.4632972E-1,5.2600965E-2,4.5433813E-1,9.341249E-2,-9.168393E-1,8.223936E-1,2.6956114E-1,-5.794015E-2,3.257922E-1,-1.2462878E0,8.482791E-1,1.056899E0,-1.7583965E-1,1.01138644E-1,9.6999633E-1,-1.8455087E-1,5.7912916E-1,4.9599034E-1,-1.7255282E-1,3.9434364E-1,1.1135527E0,8.2409054E-1,-7.588161E-1,3.8711342E-1,-1.9104223E-1,3.254145E-1,1.0176026E0,-4.0584613E-2,-1.3475251E0,1.3787937E0,1.5353963E-1,2.1409642E-2,6.7421097E-1,-4.0412605E-1,1.0077931E0,-2.0256667E-1,8.814608E-1,8.807071E-1,-3.371126E-1,-5.7744694E-1,9.8810303E-1,-5.74854E-1,1.4228545E-1,-7.762597E-1,-1.4649844E0,6.156331E-1,1.5552909E0,1.2594618E0,-5.5286777E-1,9.4041127E-1,-7.158075E-1,8.156209E-1,-1.6304731E-1,-9.9644995E-1,2.1915212E-1,2.7403507E-1,1.0797919E0,3.7993905E-1,-7.350044E-1,-8.3767647E-1,1.0667514E0],"categories":[],"categories_nodes":[],"categories_segments":[],"categories_sizes":[],"default_left":[true,true,true,true,true,true,true,true,true,false,false,true,true,true,true,true,true,true,true,true,false,false,false,true,true,false,false,true,true,true,true,true,true,true,false,false,false,true,true,true,false,false,false,false,false,false,false,false,false,false,false,false,false,false,false,false,false,false,false,false,false],"id":6,"left_children":[1,3,5,7,9,11,13,15,17,-1,-1,19,21,23,25,27,29,31,33,35,-1,-1,-1,37,39,-1,-1,41,43,45,47,49,51,53,-1,-1,-1,55,57,59,-1,-1,-1,-1,-1,-1,-1,-1,-1,-1,-1,-1,-1,-1,-1,-1,-1,-1,-1,-1,-1],"loss_changes":[1.6003368E1,1.6970636E1,8.578196E0,1.4454581E1,1.11366E1,1.0195759E1,1.0239954E1,2.0223621E1,1.3829208E1,0E0,0E0,8.6597824E-1,5.866972E0,6.0701957E0,1.8655777E-1,3.4906532E1,1.3942624E1,1.0223492E1,1.18856535E1,1.4251051E0,0E0,0E0,0E0,1.33793545E1,1.7048712E1,0E0,0E0,1.8336557E1,4.0413666E-1,9.714813E-1,2.2781107E1,2.3761768E1,1.0547771E1,1.344244E1,0E0,0E0,0E0,2.3661594E0,4.7176075E0,1.2818567E1,0E0,0E0,0E0,0E0,0E0,0E0,0E0,0E0,0E0,0E0,0E0,0E0,0E0,0E0,0E0,0E0,0E0,0E0,0E0,0E0,0E0],"parents":[2147483647,0,0,1,1,2,2,3,3,4,4,5,5,6,6,7,7,8,8,11,11,12,12,13,13,14,14,15,15,16,16,17,17,18,18,19,19,23,23,24,24,27,27,28,28,29,29,30,30,31,31,32,32,33,33,37,37,38,38,39,39],"right_children":[2,4,6,8,10,12,14,16,18,-1,-1,20,22,24,26,28,30,32,34,36,-1,-1,-1,38,40,-1,-1,42,44,46,48,50,52,54,-1,-1,-1,56,58,60,-1,-1,-1,-1,-1,-1,-1,-1,-1,-1,-1,-1,-1,-1,-1,-1,-1,-1,-1,-1,-1],"split_conditions":[3.21E0,1.15E1,4.8125E-4,5E-1,4.5E1,9.73E0,1.125E1,5.5E0,5.375E-4,-3.7388635E-1,2.5448376E-1,5E-1,5E-1,5E-1,5.27E-4,3.5E0,6.875E-1,8.1E-5,1.42925E-3,2.6250002E-4,3.3406582E-1,2.4722718E-1,-2.2764485E-1,1.3125001E-3,9.5E0,9.7624354E-2,3.0528077E-1,6.25E-2,8.95E-5,7.245E2,6.5E0,5E-1,5E-1,7.725E-1,3.0233794E-1,-6.077E-2,2.6443824E-1,5.6675E-4,5.4375E0,1.3895E-3,2.9643092E-1,-1.724562E-1,4.2685635E-2,-2.3287793E-1,-4.3949535E-1,1.8468992E-1,4.665873E-1,3.7783855E-1,-1.6586034E-1,2.821234E-1,-2.1474226E-1,2.4468628E-1,-4.8914198E-2,-2.98935E-1,6.574564E-2,8.2210526E-2,3.239376E-1,1.1398172E-1,-2.2050133E-1,-2.5130296E-1,3.200254E-1],"split_indices":[1,4,3,6,4,1,1,4,3,0,0,0,6,12,3,4,1,3,3,3,0,0,0,3,4,0,0,1,3,7,4,11,10,1,0,0,0,3,1,3,0,0,0,0,0,0,0,0,0,0,0,0,0,0,0,0,0,0,0,0,0],"split_type":[0,0,0,0,0,0,0,0,0,0,0,0,0,0,0,0,0,0,0,0,0,0,0,0,0,0,0,0,0,0,0,0,0,0,0,0,0,0,0,0,0,0,0,0,0,0,0,0,0,0,0,0,0,0,0,0,0,0,0,0,0],"sum_hessian":[5.541675E2,4.2577307E2,1.2839444E2,4.094401E2,1.6332977E1,4.1760788E1,8.6633644E1,2.4840231E2,1.6103777E2,1.4011712E1,2.3212652E0,3.3768993E1,7.991794E0,7.0762825E1,1.5870817E1,2.0781218E2,4.0590137E1,1.2004419E2,4.099358E1,3.2871373E0,3.0481857E1,2.7910137E0,5.2007804E0,3.5597008E1,3.5165817E1,1.6304395E0,1.4240378E1,1.8584149E2,2.197069E1,1.3320938E1,2.7269197E1,3.307895E1,8.696524E1,3.481986E1,6.173722E0,1.7395974E0,1.54754E0,2.1040716E1,1.4556293E1,2.6870625E1,8.295194E0,4.6842854E1,1.3899864E2,5.044662E0,1.692603E1,3.345088E0,9.97585E0,1.032379E1,1.694541E1,1.4601437E1,1.8477512E1,7.4421555E1,1.2543688E1,1.7546274E1,1.7273584E1,5.7858744E0,1.5254843E1,5.2108316E0,9.345461E0,2.36224E1,3.2482235E0],"tree_param":{"num_deleted":"0","num_feature":"13","num_nodes":"61","size_leaf_vector":"0"}},{"base_weights":[1.2114259E-1,4.167404E-2,4.1486794E-1,1.1406548E-1,-4.1503412E-1,5.773174E-1,2.8282499E-2,6.8349585E-2,1.1771054E0,3.3441335E-2,-7.5813496E-1,8.098911E-1,2.6756752E-1,-1.134065E-1,8.5515076E-1,1.0759546E-1,-8.18946E-1,-1.3315592E0,3.4669265E-1,-3.08344E-1,-1.2204057E0,9.087205E-2,9.0940505E-1,-9.981492E-2,8.724319E-1,3.0762305E-2,-9.0356886E-1,4.3684937E-2,5.2389467E-1,-1.1329464E0,7.706862E-1,1.2069274E0,-2.8013757E-1,-9.4885105E-1,9.619514E-1,8.0694366E-1,-7.8948057E-1,9.8725E-1,3.1100807E-1,-4.241122E-1,9.798127E-1,1.139695E0,2.590956E-2,-3.8195488E-1,3.3769217E-1,2.0346186E-1,-3.4026125E-1,-3.1365987E-2,8.918423E-1,-1.19085975E-1,1.4728872E0,8.3009046E-1,-1.1974003E0,7.401651E-1,-1.2628375E0,3.4440416E-1,1.0660892E0,8.577431E-1,-6.930454E-1,2.1303265E-1,-1.022594E0,-6.661158E-1,6.6108125E-1,6.9473124E-1,-6.2947536E-1,-1.7289387E-1,1.0185771E0],"categories":[],"categories_nodes":[],"categories_segments":[],"categories_sizes":[],"default_left":[true,true,true,true,true,true,true,true,false,true,true,true,true,true,false,true,true,false,true,true,false,true,true,true,true,true,false,true,true,false,false,true,true,true,false,false,false,true,true,true,false,false,true,true,true,false,false,false,false,false,false,false,false,false,false,false,false,false,false,false,false,false,false,false,false,false,false],"id":7,"left_children":[1,3,5,7,9,11,13,15,-1,17,19,21,23,25,-1,27,29,-1,31,33,-1,35,37,39,41,43,-1,45,47,-1,-1,49,51,53,-1,-1,-1,55,57,59,-1,-1,61,63,65,-1,-1,-1,-1,-1,-1,-1,-1,-1,-1,-1,-1,-1,-1,-1,-1,-1,-1,-1,-1,-1,-1],"loss_changes":[1.1870036E1,1.33360615E1,6.787052E0,1.681836E1,8.520417E0,5.2747173E0,3.9755332E0,1.1734633E1,0E0,1.1103176E1,6.136162E0,2.9972897E0,7.6831923E0,3.3479304E0,0E0,8.522114E0,8.0022545E0,0E0,1.1680869E1,1.4917778E1,0E0,4.636407E0,1.4491119E0,8.175565E0,2.9160614E0,3.373792E0,0E0,1.7216362E1,8.742288E0,0E0,0E0,3.3688927E0,1.4212579E1,7.270298E0,0E0,0E0,0E0,1.3002777E0,3.7782192E0,6.9832416E0,0E0,0E0,2.2633743E0,3.4738746E0,5.4677067E0,0E0,0E0,0E0,0E0,0E0,0E0,0E0,0E0,0E0,0E0,0E0,0E0,0E0,0E0,0E0,0E0,0E0,0E0,0E0,0E0,0E0,0E0],"parents":[2147483647,0,0,1,1,2,2,3,3,4,4,5,5,6,6,7,7,9,9,10,10,11,11,12,12,13,13,15,15,16,16,18,18,19,19,21,21,22,22,23,23,24,24,25,25,27,27,28,28,31,31,32,32,33,33,37,37,38,38,39,39,42,42,43,43,44,44],"right_children":[2,4,6,8,10,12,14,16,-1,18,20,22,24,26,-1,28,30,-1,32,34,-1,36,38,40,42,44,-1,46,48,-1,-1,50,52,54,-1,-1,-1,56,58,60,-1,-1,62,64,66,-1,-1,-1,-1,-1,-1,-1,-1,-1,-1,-1,-1,-1,-1,-1,-1,-1,-1,-1,-1,-1,-1],"split_conditions":[3.21E0,2.27E0,1.235E3,2.105E0,5E-1,5E-1,1.45E1,1.15E1,3.5313165E-1,5E-5,8.11E2,1.3125001E-4,1.055E2,1.2E1,2.5654525E-1,5.5E0,4.5E1,-3.9946777E-1,4.2075E-4,2.96E2,-3.661217E-1,5E-1,1.31675E-3,1.3895E-3,1.0832499E-3,2.5E0,-2.7107066E-1,3.455E2,8.525E2,-3.3988392E-1,2.3120587E-1,5E-1,5E-1,5E-1,2.8858542E-1,2.420831E-1,-2.3684418E-1,5E-1,7.125E0,6.27E-4,2.9394382E-1,3.419085E-1,1.05E1,2.0200001E-4,8.25E-4,6.1038557E-2,-1.0207838E-1,-9.409796E-3,2.675527E-1,-3.5725795E-2,4.4186616E-1,2.4902715E-1,-3.5922012E-1,2.2204955E-1,-3.7885126E-1,1.03321254E-1,3.1982675E-1,2.5732294E-1,-2.0791362E-1,6.39098E-2,-3.067782E-1,-1.9983475E-1,1.9832438E-1,2.0841938E-1,-1.8884261E-1,-5.1868163E-2,3.0557314E-1],"split_indices":[1,1,7,1,2,12,4,4,0,3,7,3,7,4,0,4,4,0,3,7,0,10,3,3,3,4,0,7,7,0,0,0,10,11,0,0,0,0,1,3,0,0,1,3,3,0,0,0,0,0,0,0,0,0,0,0,0,0,0,0,0,0,0,0,0,0,0],"split_type":[0,0,0,0,0,0,0,0,0,0,0,0,0,0,0,0,0,0,0,0,0,0,0,0,0,0,0,0,0,0,0,0,0,0,0,0,0,0,0,0,0,0,0,0,0,0,0,0,0,0,0,0,0,0,0,0,0,0,0,0,0,0,0,0,0,0,0],"sum_hessian":[5.0826926E2,4.0093625E2,1.0733299E2,3.4672772E2,5.420853E1,7.522771E1,3.210528E1,3.3345197E2,1.32757635E1,2.388734E1,3.032119E1,4.204434E1,3.3183372E1,2.8145266E1,3.9600177E0,3.2016934E2,1.3282639E1,3.851885E0,2.0035456E1,1.6212954E1,1.4108236E1,5.344177E0,3.670016E1,2.1163853E1,1.2019519E1,2.461518E1,3.530086E0,2.7851627E2,4.165306E1,1.1331596E1,1.9510419E0,8.0552845E0,1.1980171E1,1.0946545E1,5.266409E0,2.9930449E0,2.3511322E0,3.190044E1,4.799722E0,1.674206E1,4.421792E0,8.872102E0,3.1474173E0,1.0394135E1,1.4221045E1,1.9700421E2,8.1512054E1,1.6965542E1,2.4687521E1,1.4379984E0,6.617286E0,5.462978E0,6.517194E0,1.5031874E0,9.443357E0,4.0713735E0,2.7829065E1,3.201912E0,1.5978104E0,8.421045E0,8.321014E0,1.4829797E0,1.6644375E0,1.6051503E0,8.788985E0,8.553197E0,5.6678476E0],"tree_param":{"num_deleted":"0","num_feature":"13","num_nodes":"67","size_leaf_vector":"0"}},{"base_weights":[9.6804984E-2,3.0597562E-2,3.7282926E-1,8.498022E-2,-3.6683837E-1,7.304802E-1,2.0262605E-1,4.9210504E-2,1.088211E0,2.4216782E-2,-6.842564E-1,9.5123947E-1,-1.2350956E-1,5.027515E-2,8.8419044E-1,-7.425773E-2,2.501343E-1,-1.1264359E0,3.0238518E-1,-2.603491E-1,-1.1198901E0,2.959737E-1,1.0346103E0,7.166067E-1,-5.873034E-1,2.420601E-1,-2.7581528E-1,1.4204907E-1,9.5579165E-1,1.375172E-2,-8.786548E-1,1.2554544E-1,9.461062E-1,1.0046881E0,-2.4511741E-1,-8.329526E-1,8.9574474E-1,-2.5212502E-1,7.30641E-1,-8.344226E-2,8.3533657E-1,-4.4955724E-1,7.3593694E-1,-2.2294083E-1,3.9359897E-1,2.1741198E-1,-1.1682636E0,7.4292517E-1,-6.336571E-2,-3.987399E-1,1.078448E0,-9.781435E-2,1.2545415E0,7.4471116E-1,-1.0463462E0,6.760247E-1,-1.1307064E0,-3.1299654E-1,8.731975E-1,4.7874756E-2,1.0534847E0,-9.7417045E-1,-8.052217E-2],"categories":[],"categories_nodes":[],"categories_segments":[],"categories_sizes":[],"default_left":[true,true,true,true,true,true,true,true,false,true,true,true,true,true,true,true,true,false,true,true,false,true,false,false,false,true,true,false,false,true,true,true,true,true,true,true,false,false,false,true,true,true,false,false,false,false,false,false,false,false,false,false,false,false,false,false,false,false,false,false,false,false,false],"id":8,"left_children":[1,3,5,7,9,11,13,15,-1,17,19,21,23,25,27,29,31,-1,33,35,-1,37,-1,-1,-1,39,41,-1,-1,43,45,47,49,51,53,55,-1,-1,-1,57,59,61,-1,-1,-1,-1,-1,-1,-1,-1,-1,-1,-1,-1,-1,-1,-1,-1,-1,-1,-1,-1,-1],"loss_changes":[8.640959E0,8.30817E0,5.42218E0,1.2063865E1,5.7614326E0,5.607601E0,6.5370903E0,8.13301E0,0E0,7.286729E0,4.4323053E0,9.641762E-1,3.0964274E0,3.3728368E0,4.763527E-1,1.440943E1,1.0696196E1,0E0,7.2693663E0,1.0190978E1,0E0,1.1432419E0,0E0,0E0,0E0,6.600672E0,3.8543522E0,0E0,0E0,1.6657286E1,6.625346E0,1.2519572E1,3.7732754E0,2.3808126E0,9.556617E0,5.284289E0,0E0,0E0,0E0,5.2686024E0,2.0233793E0,3.353646E0,0E0,0E0,0E0,0E0,0E0,0E0,0E0,0E0,0E0,0E0,0E0,0E0,0E0,0E0,0E0,0E0,0E0,0E0,0E0,0E0,0E0],"parents":[2147483647,0,0,1,1,2,2,3,3,4,4,5,5,6,6,7,7,9,9,10,10,11,11,12,12,13,13,14,14,15,15,16,16,18,18,19,19,21,21,25,25,26,26,29,29,30,30,31,31,32,32,33,33,34,34,35,35,39,39,40,40,41,41],"right_children":[2,4,6,8,10,12,14,16,-1,18,20,22,24,26,28,30,32,-1,34,36,-1,38,-1,-1,-1,40,42,-1,-1,44,46,48,50,52,54,56,-1,-1,-1,58,60,62,-1,-1,-1,-1,-1,-1,-1,-1,-1,-1,-1,-1,-1,-1,-1,-1,-1,-1,-1,-1,-1],"split_conditions":[3.21E0,2.27E0,4.8125E-4,2.105E0,5E-1,9.73E0,1.125E1,5E-1,3.2646334E-1,5E-5,8.11E2,5E-1,5E-1,1.13E3,5.27E-4,1.73E0,1.52E0,-3.3793077E-1,4.2075E-4,2.96E2,-3.3596703E-1,5E-1,3.1038308E-1,2.1498202E-1,-1.7619103E-1,1.165E2,1.45E1,4.2614724E-2,2.867375E-1,4.8550003E-4,5E-1,1.05000004E-1,5E-1,5E-1,5E-1,5E-1,2.6872343E-1,-7.563751E-2,2.1919231E-1,5E-1,4E0,9.75E-4,2.2078109E-1,-6.688225E-2,1.180797E-1,6.52236E-2,-3.5047907E-1,2.2287756E-1,-1.9009715E-2,-1.1962198E-1,3.2353443E-1,-2.9344307E-2,3.7636247E-1,2.2341336E-1,-3.1390387E-1,2.0280741E-1,-3.3921194E-1,-9.389897E-2,2.6195925E-1,1.4362427E-2,3.160454E-1,-2.9225114E-1,-2.4156652E-2],"split_indices":[1,1,3,1,2,1,1,6,0,3,7,0,6,7,3,1,1,0,3,7,0,6,0,0,0,7,4,0,0,3,11,1,0,0,10,11,0,0,0,10,1,3,0,0,0,0,0,0,0,0,0,0,0,0,0,0,0,0,0,0,0,0,0],"split_type":[0,0,0,0,0,0,0,0,0,0,0,0,0,0,0,0,0,0,0,0,0,0,0,0,0,0,0,0,0,0,0,0,0,0,0,0,0,0,0,0,0,0,0,0,0,0,0,0,0,0,0,0,0,0,0,0,0,0,0,0,0,0,0],"sum_hessian":[4.7245743E2,3.8195276E2,9.050467E1,3.36671E2,4.528178E1,2.8121233E1,6.238344E1,3.2609332E2,1.0577649E1,2.0701496E1,2.4580284E1,2.2254492E1,5.86674E0,5.1863983E1,1.0519454E1,2.0236803E2,1.2372531E2,3.4365637E0,1.7264933E1,1.3267527E1,1.1312758E1,3.0254643E0,1.9229029E1,1.8928798E0,3.9738605E0,3.281944E1,1.9044544E1,1.188159E0,9.331295E0,1.8329639E2,1.9071638E1,1.05940796E2,1.7784517E1,7.1974473E0,1.0067486E1,9.059796E0,4.20773E0,1.5238752E0,1.5015892E0,2.1747166E1,1.1072274E1,1.672767E1,2.3168745E0,1.1318253E2,7.011385E1,4.03811E0,1.5033528E1,2.4134445E1,8.180635E1,1.4129802E0,1.6371536E1,1.4421833E0,5.7552643E0,4.535241E0,5.5322447E0,1.2837096E0,7.7760873E0,1.8081228E1,3.6659362E0,2.6664596E0,8.405814E0,6.230596E0,1.0497074E1],"tree_param":{"num_deleted":"0","num_feature":"13","num_nodes":"63","size_leaf_vector":"0"}},{"base_weights":[8.0016896E-2,-5.6898687E-2,2.2502695E-1,8.280585E-2,-4.68358E-1,-2.607415E-1,3.4000182E-1,2.0119537E-1,-3.3864266E-1,-8.287375E-1,-1.7243972E-2,-8.4542286E-1,2.2011797E-1,9.315844E-1,1.3812481E-1,9.181282E-2,9.864894E-1,-9.403669E-1,7.701958E-1,-1.0071868E0,8.853595E-1,9.841815E-1,-1.242399E0,-1.1180117E0,7.7344567E-1,7.2208405E-1,-3.318021E-1,1.1193683E0,-3.722298E-1,2.4947298E-1,-4.448272E-1,3.2704616E-1,-2.2255601E-1,1.3131775E0,-7.1082634E-1,-1.177558E0,4.0738922E-1,1.2213498E0,-8.953522E-1,-5.416854E-1,-1.371939E0,-1.7381022E-2,1.4249278E0,-4.6591085E-1,-1.1750278E0,9.5042855E-1,-6.49095E-1,9.1193885E-1,-1.0051516E0,2.1576177E-1,1.2069937E0,-9.118756E-1,7.088806E-1,9.5238703E-1,6.3122466E-2,7.184348E-1,-6.033866E-1,-1.2086897E-1,8.2414687E-1,4.5573053E-1,-4.460595E-1,-1.1508899E-1,-1.2461914E0,-5.56871E-1,8.7067175E-1,1.1295025E0,-1.3496475E0,-1.5300332E0,-6.7497015E-2,-8.5787326E-1,8.445493E-1,-1.3083596E0,5.509084E-1,9.2203015E-1,-6.57302E-1,7.684365E-2,1.1235595E0,-3.9119762E-1,3.6404955E-1,-7.8171146E-1,6.8281174E-1],"categories":[],"categories_nodes":[],"categories_segments":[],"categories_sizes":[],"default_left":[true,true,true,true,true,true,true,true,true,true,true,true,true,true,true,true,true,true,true,true,false,true,false,true,false,true,true,true,true,true,true,true,true,false,false,true,true,false,false,true,true,true,false,false,false,false,false,false,true,true,false,false,false,true,true,false,true,false,false,false,false,false,false,false,false,false,false,false,false,false,false,false,false,false,false,false,false,false,false,false,false],"id":9,"left_children":[1,3,5,7,9,11,13,15,17,19,21,23,25,27,29,31,33,35,37,39,-1,41,-1,43,-1,45,47,49,51,53,55,57,59,-1,-1,61,63,-1,-1,65,67,69,-1,-1,-1,-1,-1,-1,71,73,-1,-1,-1,75,77,-1,79,-1,-1,-1,-1,-1,-1,-1,-1,-1,-1,-1,-1,-1,-1,-1,-1,-1,-1,-1,-1,-1,-1,-1,-1],"loss_changes":[8.810635E0,1.31863E1,1.2119115E1,8.629959E0,9.43516E0,1.1935697E1,2.0724562E1,1.147052E1,2.608163E1,1.0768742E1,3.414548E1,9.278374E0,6.8124995E0,1.1250996E1,8.63759E0,8.890534E0,1.00007715E1,8.499142E0,1.1552292E1,4.302004E0,0E0,6.788948E0,0E0,7.447052E-2,0E0,4.605716E0,1.0954085E1,2.8220139E0,4.3344607E0,1.4470859E1,4.3854413E0,1.5376026E1,8.030399E0,0E0,0E0,1.4308643E0,2.4938443E0,0E0,0E0,2.138189E1,3.1978207E0,4.832458E0,0E0,0E0,0E0,0E0,0E0,0E0,4.6138783E0,3.4789395E0,0E0,0E0,0E0,3.386982E0,1.2277104E1,0E0,4.983226E0,0E0,0E0,0E0,0E0,0E0,0E0,0E0,0E0,0E0,0E0,0E0,0E0,0E0,0E0,0E0,0E0,0E0,0E0,0E0,0E0,0E0,0E0,0E0,0E0],"parents":[2147483647,0,0,1,1,2,2,3,3,4,4,5,5,6,6,7,7,8,8,9,9,10,10,11,11,12,12,13,13,14,14,15,15,16,16,17,17,18,18,19,19,21,21,23,23,25,25,26,26,27,27,28,28,29,29,30,30,31,31,32,32,35,35,36,36,39,39,40,40,41,41,48,48,49,49,53,53,54,54,56,56],"right_children":[2,4,6,8,10,12,14,16,18,20,22,24,26,28,30,32,34,36,38,40,-1,42,-1,44,-1,46,48,50,52,54,56,58,60,-1,-1,62,64,-1,-1,66,68,70,-1,-1,-1,-1,-1,-1,72,74,-1,-1,-1,76,78,-1,80,-1,-1,-1,-1,-1,-1,-1,-1,-1,-1,-1,-1,-1,-1,-1,-1,-1,-1,-1,-1,-1,-1,-1,-1],"split_conditions":[1.0625E0,6.875E-1,1.06E-4,2.5E0,2.5E0,5E-1,1.73E0,4.375E-1,1.2425E3,1.09375E-3,7.2925E-4,2.875E0,3.705E2,1.15E1,2.3335E3,2.52E-4,9.25E1,1.0875E-3,1.2E-3,8.55E-1,2.6560786E-1,8.55E-1,-3.727197E-1,1.375E0,2.3203371E-1,7.5E0,5E-1,5E-1,4.15E1,2.875E-4,2.0625E0,6.25E-2,5E-1,3.9395326E-1,-2.1324791E-1,5E-1,1.45E-1,3.6640495E-1,-2.6860568E-1,3.25E-4,2.9375002E-4,9.575E-5,4.2747837E-1,-1.3977326E-1,-3.5250837E-1,2.8512856E-1,-1.9472851E-1,2.7358165E-1,4.5E0,3.35E0,3.6209813E-1,-2.735627E-1,2.1266419E-1,5E-1,3.21E0,2.1553046E-1,1.4E1,-3.6260694E-2,2.4724407E-1,1.3671917E-1,-1.3381785E-1,-3.45267E-2,-3.7385744E-1,-1.670613E-1,2.6120153E-1,3.3885077E-1,-4.0489426E-1,-4.5900998E-1,-2.0249106E-2,-2.5736198E-1,2.533648E-1,-3.925079E-1,1.6527252E-1,2.7660906E-1,-1.9719061E-1,2.3053095E-2,3.3706784E-1,-1.1735929E-1,1.0921487E-1,-2.3451345E-1,2.0484354E-1],"split_indices":[1,1,3,4,4,6,1,1,7,3,3,1,7,4,7,3,7,3,3,1,0,1,0,1,0,1,11,0,4,3,1,1,0,0,0,0,1,0,0,3,3,3,0,0,0,0,0,0,1,5,0,0,0,0,1,0,4,0,0,0,0,0,0,0,0,0,0,0,0,0,0,0,0,0,0,0,0,0,0,0,0],"split_type":[0,0,0,0,0,0,0,0,0,0,0,0,0,0,0,0,0,0,0,0,0,0,0,0,0,0,0,0,0,0,0,0,0,0,0,0,0,0,0,0,0,0,0,0,0,0,0,0,0,0,0,0,0,0,0,0,0,0,0,0,0,0,0,0,0,0,0,0,0,0,0,0,0,0,0,0,0,0,0,0,0],"sum_hessian":[4.421233E2,2.2772116E2,2.1440213E2,1.7059654E2,5.7124622E1,4.0791286E1,1.7361086E2,1.3359175E2,3.7004787E1,3.129057E1,2.5834051E1,1.8066236E1,2.272505E1,4.325152E1,1.3035933E2,1.1823928E2,1.5352476E1,2.408611E1,1.2918676E1,2.8713688E1,2.5768821E0,1.432317E1,1.1510881E1,1.57274065E1,2.3388298E0,1.1739643E1,1.0985408E1,3.793005E1,5.321468E0,1.09933304E2,2.0426025E1,6.7609024E1,5.0630253E1,1.3064273E1,2.2882035E0,2.0588953E1,3.4971576E0,1.0375042E1,2.543634E0,1.3706436E1,1.5007252E1,4.670462E0,9.652708E0,2.0019882E0,1.3725418E1,1.0326764E1,1.4128784E0,3.7340074E0,7.2514E0,3.6591082E0,3.4270943E1,3.6540532E0,1.6674148E0,2.217573E1,8.7757576E1,2.0266447E0,1.839938E1,3.596207E1,3.1646955E1,1.2290901E1,3.8339355E1,1.4117332E0,1.917722E1,1.0693786E0,2.427779E0,4.337269E0,9.369167E0,1.3230781E1,1.7764709E0,2.367021E0,2.303441E0,6.202072E0,1.0493281E0,1.9917712E0,1.667337E0,3.8634064E0,1.8312323E1,3.4847347E1,5.291023E1,1.6503487E1,1.8958937E0],"tree_param":{"num_deleted":"0","num_feature":"13","num_nodes":"81","size_leaf_vector":"0"}},{"base_weights":[6.8323694E-2,-4.428098E-2,1.9101337E-1,6.611908E-2,-3.9474893E-1,-2.3316352E-1,2.8221622E-1,3.1098723E-1,-8.679534E-2,-1.4962314E-1,-8.5592663E-1,-7.662722E-1,2.0378509E-1,8.5361034E-1,1.13052264E-1,1.0471264E0,1.3290586E-1,5.538747E-1,-2.3460247E-1,-7.4788344E-1,8.6745024E-1,8.349692E-1,-1.1805581E0,-1.02544E0,7.1496195E-1,6.517885E-1,-2.7546352E-1,1.0290934E0,-3.2973507E-1,1.9559036E-1,-3.5424787E-1,-2.0508845E-1,1.2060907E0,-3.589642E-1,2.9194018E-1,-1.6828285E-1,7.699181E-1,-1.3705462E-1,-1.0376087E0,-9.934671E-2,-1.0778984E0,-1.5225331E-2,1.2498603E0,-4.022484E-1,-1.0864924E0,8.784859E-1,-5.951196E-1,8.414003E-1,-8.658197E-1,1.8315206E-1,1.1305E0,-8.405019E-1,6.48671E-1,8.640305E-1,4.6189025E-2,-6.971961E-1,2.1506433E-1,-1.0898328E0,1.9249803E-1,6.989013E-2,9.8276734E-1,2.6492056E-1,-9.1287875E-1,1.201606E0,2.3661539E-1,-3.4741482E-1,9.733827E-1,9.481512E-1,-1.189731E0,-1.348686E-1,-1.3337222E0,-7.788484E-1,7.675027E-1,-1.1537136E0,-2.300549E-1,-5.4131556E-1,8.704808E-1,5.8878805E-2,1.0626173E0,-5.012989E-1,1.910037E-1,-1.023304E0,2.8702897E-1,7.5531924E-1,-7.5566494E-1],"categories":[],"categories_nodes":[],"categories_segments":[],"categories_sizes":[],"default_left":[true,true,true,true,true,true,true,true,true,true,true,true,true,true,true,true,true,true,true,true,true,false,false,true,false,true,true,true,true,true,true,false,false,true,true,true,true,true,false,true,true,true,false,false,false,false,false,false,true,true,false,false,false,true,true,true,true,false,false,false,false,false,false,false,false,false,false,false,false,false,false,false,false,false,false,false,false,false,false,false,false,false,false,false,false],"id":10,"left_children":[1,3,5,7,9,11,13,15,17,19,21,23,25,27,29,31,33,35,37,39,41,-1,-1,43,-1,45,47,49,51,53,55,-1,-1,57,59,61,63,65,-1,67,69,71,-1,-1,-1,-1,-1,-1,73,75,-1,-1,-1,77,79,81,83,-1,-1,-1,-1,-1,-1,-1,-1,-1,-1,-1,-1,-1,-1,-1,-1,-1,-1,-1,-1,-1,-1,-1,-1,-1,-1,-1,-1],"loss_changes":[5.5120535E0,8.094552E0,7.4484305E0,5.9968576E0,5.535215E0,8.15023E0,1.5128869E1,7.9240465E0,9.497918E0,2.1289661E1,1.0413127E1,6.747966E0,4.3984704E0,7.779331E0,4.801354E0,2.6033478E0,4.0685754E0,3.0692973E0,6.2092977E0,4.5792007E0,4.4160786E0,0E0,0E0,8.59499E-2,0E0,3.4775858E0,7.451733E0,2.4903412E0,3.2359512E0,1.0437492E1,3.8152242E0,0E0,0E0,5.380521E0,5.8897448E0,1.9061087E0,3.0959635E0,1.7496426E1,0E0,1.0820365E1,3.2965164E0,3.5418708E0,0E0,0E0,0E0,0E0,0E0,0E0,1.0457554E0,2.7414374E0,0E0,0E0,0E0,2.9928389E0,6.9780746E0,4.129626E0,4.6727085E0,0E0,0E0,0E0,0E0,0E0,0E0,0E0,0E0,0E0,0E0,0E0,0E0,0E0,0E0,0E0,0E0,0E0,0E0,0E0,0E0,0E0,0E0,0E0,0E0,0E0,0E0,0E0,0E0],"parents":[2147483647,0,0,1,1,2,2,3,3,4,4,5,5,6,6,7,7,8,8,9,9,10,10,11,11,12,12,13,13,14,14,15,15,16,16,17,17,18,18,19,19,20,20,23,23,25,25,26,26,27,27,28,28,29,29,30,30,33,33,34,34,35,35,36,36,37,37,39,39,40,40,41,41,48,48,49,49,53,53,54,54,55,55,56,56],"right_children":[2,4,6,8,10,12,14,16,18,20,22,24,26,28,30,32,34,36,38,40,42,-1,-1,44,-1,46,48,50,52,54,56,-1,-1,58,60,62,64,66,-1,68,70,72,-1,-1,-1,-1,-1,-1,74,76,-1,-1,-1,78,80,82,84,-1,-1,-1,-1,-1,-1,-1,-1,-1,-1,-1,-1,-1,-1,-1,-1,-1,-1,-1,-1,-1,-1,-1,-1,-1,-1,-1,-1],"split_conditions":[1.0625E0,6.875E-1,1.06E-4,5E-1,7.7925E-4,5E-1,1.73E0,2.7E-5,5E-1,5E-1,5E-1,2.875E0,3.705E2,1.15E1,2.3335E3,5E-1,7.3E-5,2E-2,1.12925E-3,8.55E-1,8.55E-1,2.5049078E-1,-3.5416743E-1,1.375E0,2.144886E-1,7.5E0,5E-1,5E-1,4.15E1,2.875E-4,7.7755E3,-6.1526537E-2,3.6182722E-1,5E-1,2.735E2,3.32E0,1.05E1,9.75E-4,-3.1128263E-1,3.25E-4,5E-1,9.575E-5,3.749581E-1,-1.2067453E-1,-3.2594773E-1,2.6354578E-1,-1.7853588E-1,2.524201E-1,2.25E0,1.5E0,3.3915E-1,-2.521506E-1,1.946013E-1,5E-1,2.48E0,9E0,6.395E0,-3.2694983E-1,5.774941E-2,2.0967038E-2,2.948302E-1,7.947617E-2,-2.7386364E-1,3.6048183E-1,7.098462E-2,-1.0422445E-1,2.9201484E-1,2.8444538E-1,-3.5691932E-1,-4.0460583E-2,-4.0011668E-1,-2.3365453E-1,2.3025082E-1,-3.461141E-1,-6.901647E-2,-1.6239467E-1,2.6114425E-1,1.7663643E-2,3.187852E-1,-1.5038967E-1,5.730111E-2,-3.0699122E-1,8.610869E-2,2.2659577E-1,-2.2669949E-1],"split_indices":[1,1,3,11,3,6,1,3,0,2,2,1,7,4,7,0,3,1,3,1,1,0,0,1,0,1,11,0,4,3,7,0,0,2,7,5,7,3,0,3,0,3,0,0,0,0,0,0,1,7,0,0,0,0,1,4,1,0,0,0,0,0,0,0,0,0,0,0,0,0,0,0,0,0,0,0,0,0,0,0,0,0,0,0,0],"split_type":[0,0,0,0,0,0,0,0,0,0,0,0,0,0,0,0,0,0,0,0,0,0,0,0,0,0,0,0,0,0,0,0,0,0,0,0,0,0,0,0,0,0,0,0,0,0,0,0,0,0,0,0,0,0,0,0,0,0,0,0,0,0,0,0,0,0,0,0,0,0,0,0,0,0,0,0,0,0,0,0,0,0,0,0,0],"sum_hessian":[3.973658E2,2.0753194E2,1.898339E2,1.5843504E2,4.9096897E1,3.331802E1,1.5651587E2,6.050775E1,9.7927284E1,3.2922386E1,1.6174513E1,1.4668143E1,1.8649876E1,3.4828327E1,1.2168754E2,1.0835743E1,4.967201E1,1.7842346E1,8.008494E1,2.0895788E1,1.2026597E1,2.3519485E0,1.3822564E1,1.2745762E1,1.9223815E0,9.45308E0,9.196796E0,3.0444014E1,4.3843126E0,1.0391477E2,1.777277E1,1.1879228E0,9.6478195E0,1.1829118E1,3.784289E1,4.1595383E0,1.3682809E1,7.2454025E1,7.630914E0,7.485844E0,1.34099455E1,3.925644E0,8.100953E0,1.8143537E0,1.0931408E1,8.248845E0,1.2042348E0,3.033201E0,6.163595E0,3.559181E0,2.6884832E1,2.973155E0,1.4111575E0,1.8109104E1,8.5805664E1,1.0951226E1,6.821543E0,4.667237E0,7.1618814E0,2.947123E1,8.371662E0,3.036893E0,1.1226451E0,6.8692646E0,6.8135443E0,6.149215E1,1.0961877E1,3.8845356E0,3.6013083E0,3.1874416E0,1.0222504E1,1.9895813E0,1.9360627E0,3.681715E0,2.4818802E0,1.8362E0,1.722981E0,3.8393424E0,1.4269763E1,1.7433758E1,6.837191E1,8.195927E0,2.7552998E0,4.525052E0,2.2964916E0],"tree_param":{"num_deleted":"0","num_feature":"13","num_nodes":"85","size_leaf_vector":"0"}},{"base_weights":[5.670946E-2,4.090127E-2,8.8123053E-1,-1.9060203E-1,9.073026E-2,1.6789976E-1,-6.9874454E-1,2.094983E-1,-1.2221226E-1,-1.5844011E-1,9.101813E-1,3.4201017E-1,-9.892743E-1,-5.4670376E-1,2.6124325E-1,-7.1475303E-1,-1.8927187E-2,-4.1260982E-1,7.4243623E-1,9.8117685E-1,2.072113E-1,9.7239715E-1,-5.3739524E-1,-1.1038233E0,-3.10502E-1,-1.2266259E0,-1.648479E-1,2.8910595E-1,-7.2501916E-1,-9.230639E-1,1.8096985E-1,6.8896997E-1,-8.360686E-2,-9.9256843E-1,-1.4330806E-1,9.5226496E-1,3.115538E-1,1.0530912E0,1.6825788E-1,-1.1985632E0,-3.532593E-1,-8.281839E-1,5.901859E-1,-2.6661035E-1,-1.5987148E0,1.0070674E0,-9.5735466E-1,4.8134863E-1,1.6058648E-1,-2.625134E-1,-8.19784E-1,-1.0929047E0,5.256985E-1,-4.425581E-1,7.177573E-1,-5.7326436E-1,9.8917055E-1,-1.451887E0,5.6552254E-3],"categories":[],"categories_nodes":[],"categories_segments":[],"categories_sizes":[],"default_left":[true,true,false,true,true,true,true,true,true,true,true,true,true,true,true,true,true,true,true,true,false,false,false,true,true,true,true,true,true,true,true,true,true,false,false,false,false,false,false,false,false,false,false,false,false,false,false,false,false,false,false,false,false,false,false,false,false,false,false],"id":11,"left_children":[1,3,-1,5,7,9,11,13,15,17,19,21,23,25,27,29,31,33,35,37,-1,-1,-1,39,41,43,45,47,49,51,53,55,57,-1,-1,-1,-1,-1,-1,-1,-1,-1,-1,-1,-1,-1,-1,-1,-1,-1,-1,-1,-1,-1,-1,-1,-1,-1,-1],"loss_changes":[4.7012672E0,4.1431556E0,0E0,1.171631E1,7.4862013E0,9.382812E0,8.3609495E0,7.567279E0,6.4892197E0,6.567346E0,3.8536453E-1,4.1444182E0,1.2899952E0,3.0367672E0,5.1083097E0,3.1047907E0,4.247462E0,3.2890165E0,2.7962136E-1,4.334612E-1,0E0,0E0,0E0,8.263664E-1,2.5513198E0,1.1209593E0,9.456544E0,4.223732E0,1.19555E-2,3.7579765E0,1.5917851E0,3.5110092E0,1.0357883E1,0E0,0E0,0E0,0E0,0E0,0E0,0E0,0E0,0E0,0E0,0E0,0E0,0E0,0E0,0E0,0E0,0E0,0E0,0E0,0E0,0E0,0E0,0E0,0E0,0E0,0E0],"parents":[2147483647,0,0,1,1,3,3,4,4,5,5,6,6,7,7,8,8,9,9,10,10,11,11,12,12,13,13,14,14,15,15,16,16,17,17,18,18,19,19,23,23,24,24,25,25,26,26,27,27,28,28,29,29,30,30,31,31,32,32],"right_children":[2,4,-1,6,8,10,12,14,16,18,20,22,24,26,28,30,32,34,36,38,-1,-1,-1,40,42,44,46,48,50,52,54,56,58,-1,-1,-1,-1,-1,-1,-1,-1,-1,-1,-1,-1,-1,-1,-1,-1,-1,-1,-1,-1,-1,-1,-1,-1,-1,-1],"split_conditions":[1.39375E1,6.0500002E-5,2.6436916E-1,3.3249998E-1,7.04E-4,6.25E-2,3.125E-5,2E-2,9.085E-4,5E-1,5E-1,2.375E0,4.5E0,2.4575E-4,1.55E1,5E-1,9.5200003E-4,2.915E0,8.25E-6,4.575E-5,6.2163394E-2,2.9171917E-1,-1.6121858E-1,4.325E0,9.375E-1,1.375E-4,2.9175E-4,2.27E-4,1.75E1,8E0,8.73E-4,1.25E0,9.5825E-4,-2.9777053E-1,-4.299242E-2,2.856795E-1,9.346615E-2,3.1592736E-1,5.0477367E-2,-3.5956898E-1,-1.05977796E-1,-2.4845518E-1,1.7705578E-1,-7.998311E-2,-4.7961447E-1,3.0212024E-1,-2.872064E-1,1.4440459E-1,4.8175946E-2,-7.875402E-2,-2.459352E-1,-3.278714E-1,1.5770955E-1,-1.3276744E-1,2.1532719E-1,-1.7197931E-1,2.9675117E-1,-4.3556613E-1,1.6965676E-3],"split_indices":[1,3,0,1,3,1,3,1,3,6,6,1,4,3,4,10,3,5,3,3,0,0,0,5,1,3,3,3,4,4,3,1,3,0,0,0,0,0,0,0,0,0,0,0,0,0,0,0,0,0,0,0,0,0,0,0,0,0,0],"split_type":[0,0,0,0,0,0,0,0,0,0,0,0,0,0,0,0,0,0,0,0,0,0,0,0,0,0,0,0,0,0,0,0,0,0,0,0,0,0,0,0,0,0,0,0,0,0,0,0,0,0,0,0,0,0,0,0,0,0,0],"sum_hessian":[3.6245276E2,3.566642E2,5.7885647E0,6.2671238E1,2.9399295E2,3.713884E1,2.55324E1,1.8873999E2,1.05252975E2,2.6343582E1,1.0795258E1,5.5333343E0,1.9999065E1,1.1475234E1,1.7726476E2,1.4744485E1,9.050849E1,2.096936E1,5.3742223E0,9.445556E0,1.3497019E0,3.1613965E0,2.3719378E0,1.657558E1,3.423485E0,3.3313136E0,8.143921E0,1.7308192E2,4.182834E0,1.1937708E1,2.8067772E0,6.7692556E0,8.3739235E1,5.7977734E0,1.5171587E1,2.8004434E0,2.5737789E0,8.406442E0,1.0391138E0,1.41878395E1,2.3877413E0,2.2250865E0,1.1983986E0,1.4099824E0,1.9213312E0,3.1762786E0,4.9676423E0,6.82486E1,1.0483332E2,1.3524196E0,2.8304145E0,1.0904933E1,1.0327743E0,1.379687E0,1.4270902E0,1.125852E0,5.6434035E0,4.193439E0,7.95458E1],"tree_param":{"num_deleted":"0","num_feature":"13","num_nodes":"59","size_leaf_vector":"0"}},{"base_weights":[3.9740883E-2,2.6710475E-2,8.396029E-1,9.492851E-2,-1.11947566E-1,3.2110065E-2,9.61282E-1,-4.7922662E-1,5.561226E-2,1.5193047E-1,-1.7201379E-1,5.525683E-2,1.0580646E0,-8.425882E-1,1.3943233E-1,8.1633145E-1,-8.39314E-2,-8.8652834E-2,2.4056609E-1,-3.6185545E-1,1.7369148E-1,2.2122051E-1,-9.915946E-1,-9.484062E-1,5.243285E-1,1.0296096E0,-6.028489E-1,-5.686246E-1,8.079437E-2,-4.2102924E-1,6.9609505E-1,1.0582263E0,1.0212653E-1,7.48001E-1,-4.879608E-1,7.4313223E-1,-2.0067546E-1,6.7204946E-1,-4.1070947E-1,-1.0509015E0,-3.2624352E-1,9.5535994E-1,-7.727261E-1,2.8327838E-1,1.0792277E0,-9.6826446E-1,-1.3584326E-1,2.4288526E-1,-5.2599794E-1],"categories":[],"categories_nodes":[],"categories_segments":[],"categories_sizes":[],"default_left":[true,true,false,true,true,true,true,true,true,true,true,false,false,true,true,true,true,true,true,true,true,true,true,false,true,true,false,true,true,false,false,false,false,false,false,false,false,false,false,false,false,false,false,false,false,false,false,false,false],"id":12,"left_children":[1,3,-1,5,7,9,11,13,15,17,19,-1,-1,21,23,25,27,29,31,33,35,37,39,-1,41,43,-1,45,47,-1,-1,-1,-1,-1,-1,-1,-1,-1,-1,-1,-1,-1,-1,-1,-1,-1,-1,-1,-1],"loss_changes":[3.5824428E0,3.2395568E0,0E0,1.2450364E1,6.982275E0,5.2814007E0,1.2980804E0,8.100753E0,8.402694E0,2.9197876E0,5.30952E0,0E0,0E0,3.7882853E0,6.3584847E0,4.3323517E0,5.4151177E0,1.0028705E1,1.1166061E1,7.633008E0,6.3344097E0,1.2970053E0,4.436283E-1,0E0,6.8790383E0,1.027298E-1,0E0,2.8401957E0,5.150383E0,0E0,0E0,0E0,0E0,0E0,0E0,0E0,0E0,0E0,0E0,0E0,0E0,0E0,0E0,0E0,0E0,0E0,0E0,0E0,0E0],"parents":[2147483647,0,0,1,1,3,3,4,4,5,5,6,6,7,7,8,8,9,9,10,10,13,13,14,14,15,15,16,16,17,17,18,18,19,19,20,20,21,21,22,22,24,24,25,25,27,27,28,28],"right_children":[2,4,-1,6,8,10,12,14,16,18,20,-1,-1,22,24,26,28,30,32,34,36,38,40,-1,42,44,-1,46,48,-1,-1,-1,-1,-1,-1,-1,-1,-1,-1,-1,-1,-1,-1,-1,-1,-1,-1,-1,-1],"split_conditions":[1.39375E1,3.805E2,2.5188088E-1,2.49E2,9.8E2,5E-1,5E-1,1.9175E0,1.2545E3,5.2E-5,4.5E0,1.657705E-2,3.1741938E-1,5E-1,4.79E2,1.95E1,1.827E3,5E-1,1.02E-4,1.05000004E-1,6.5E0,1.2499999E-4,1.2125E-3,-2.8452188E-1,8.11E2,2.22E0,-1.8085468E-1,1.3125E0,5E-1,-1.2630878E-1,2.0882852E-1,3.1746793E-1,3.063796E-2,2.244003E-1,-1.4638825E-1,2.2293968E-1,-6.020264E-2,2.0161484E-1,-1.23212844E-1,-3.1527048E-1,-9.787306E-2,2.8660798E-1,-2.3181784E-1,8.498351E-2,3.2376832E-1,-2.9047936E-1,-4.075298E-2,7.286558E-2,-1.577994E-1],"split_indices":[1,7,0,7,7,2,0,1,7,3,4,0,0,11,7,4,7,10,3,1,4,3,3,0,7,5,0,1,10,0,0,0,0,0,0,0,0,0,0,0,0,0,0,0,0,0,0,0,0],"split_type":[0,0,0,0,0,0,0,0,0,0,0,0,0,0,0,0,0,0,0,0,0,0,0,0,0,0,0,0,0,0,0,0,0,0,0,0,0,0,0,0,0,0,0,0,0,0,0,0,0],"sum_hessian":[3.448727E2,3.4036133E2,4.511372E0,2.283375E2,1.1202384E2,2.1386726E2,1.44702425E1,3.4513252E1,7.751059E1,1.3492322E2,7.894404E1,1.5481596E0,1.2922083E1,2.1514828E1,1.2998424E1,1.1262626E1,6.624796E1,3.632533E1,9.8597885E1,5.0929653E1,2.8014385E1,2.5837688E0,1.8931059E1,3.0144827E0,9.983941E0,1.0029822E1,1.2328037E0,1.6181925E1,5.006604E1,2.584309E1,1.048224E1,1.3314572E1,8.528332E1,4.693192E0,4.623646E1,1.0721352E1,1.7293034E1,1.4709104E0,1.1128583E0,1.6849672E1,2.0813868E0,7.6914062E0,2.292535E0,1.0434805E0,8.986341E0,7.7698064E0,8.412117E0,3.998474E1,1.00813E1],"tree_param":{"num_deleted":"0","num_feature":"13","num_nodes":"49","size_leaf_vector":"0"}},{"base_weights":[3.369378E-2,1.8729838E-2,6.7067343E-1,5.990064E-2,-3.552377E-1,9.2573565E-1,-9.160408E-2,3.022146E-2,5.200254E-1,-6.147828E-1,-9.525448E-2,-8.700615E-2,1.5254407E-1,8.9374006E-1,-1.8622883E-1,3.8655952E-1,-7.619027E-1,8.748845E-1,-3.9391953E-1,2.1398878E-2,-7.2608566E-1,3.2185343E-1,-9.395851E-2,1.0587537E0,-1.5631893E-1,-9.074427E-1,8.4070385E-1,-9.725836E-1,-1.9175024E-1,-5.424445E-1,6.0661346E-1,1.0568132E-1,-3.848092E-1,-8.509494E-2,-1.1233554E0,6.0498554E-1,1.2571383E-1,-1.0416342E0,6.297332E-4,-1.0453974E0,-3.158779E-1,6.509335E-1,-7.763863E-1,-6.803899E-1,9.81727E-2],"categories":[],"categories_nodes":[],"categories_segments":[],"categories_sizes":[],"default_left":[true,true,true,true,true,false,false,true,true,true,true,true,true,true,true,false,true,false,true,true,true,true,true,false,false,false,false,true,true,true,false,false,false,false,false,false,false,false,false,false,false,false,false,false,false],"id":13,"left_children":[1,3,5,7,9,-1,-1,11,13,15,17,19,21,23,25,-1,27,-1,29,31,33,35,37,-1,-1,-1,-1,39,41,43,-1,-1,-1,-1,-1,-1,-1,-1,-1,-1,-1,-1,-1,-1,-1],"loss_changes":[3.0885992E0,4.931428E0,1.5311525E0,3.9191656E0,2.085331E0,0E0,0E0,3.9099479E0,4.758394E0,2.6097689E0,5.28654E0,9.672946E0,5.5954046E0,2.1668053E0,5.8347497E0,0E0,1.4999218E0,0E0,2.3694901E0,4.154247E0,5.059723E0,4.326392E0,4.9369845E0,0E0,0E0,0E0,0E0,1.4823055E-1,2.9852538E0,1.169991E0,0E0,0E0,0E0,0E0,0E0,0E0,0E0,0E0,0E0,0E0,0E0,0E0,0E0,0E0,0E0],"parents":[2147483647,0,0,1,1,2,2,3,3,4,4,7,7,8,8,9,9,10,10,11,11,12,12,13,13,14,14,16,16,18,18,19,19,20,20,21,21,22,22,27,27,28,28,29,29],"right_children":[2,4,6,8,10,-1,-1,12,14,16,18,20,22,24,26,-1,28,-1,30,32,34,36,38,-1,-1,-1,-1,40,42,44,-1,-1,-1,-1,-1,-1,-1,-1,-1,-1,-1,-1,-1,-1,-1],"split_conditions":[1.7125E-3,1.16875E-3,8.5E0,1.08325E-3,3.5E0,2.7772072E-1,-2.7481224E-2,9.175E-1,1.2805E3,5E-1,5.5E0,6.45E-1,3.805E2,2.0625E0,1.25E0,1.1596786E-1,5.375E0,2.6246536E-1,2.2415E3,2.5E0,1.02E-4,2.3525E0,4.78E2,3.1762612E-1,-4.6895683E-2,-2.7223283E-1,2.5221115E-1,3.96E0,8.25E0,1.45E1,1.8198404E-1,3.17044E-2,-1.1544276E-1,-2.5528485E-2,-3.3700663E-1,1.8149567E-1,3.771415E-2,-3.1249028E-1,1.8891996E-4,-3.1361923E-1,-9.4763376E-2,1.9528006E-1,-2.3291591E-1,-2.0411697E-1,2.9451812E-2],"split_indices":[3,3,1,3,4,0,0,1,7,11,4,1,7,1,1,0,1,0,7,4,3,1,7,0,0,0,0,5,1,4,0,0,0,0,0,0,0,0,0,0,0,0,0,0,0],"split_type":[0,0,0,0,0,0,0,0,0,0,0,0,0,0,0,0,0,0,0,0,0,0,0,0,0,0,0,0,0,0,0,0,0,0,0,0,0,0,0,0,0,0,0,0,0],"sum_hessian":[3.2435144E2,3.179124E2,6.439002E0,2.871404E2,3.0772015E1,4.6639767E0,1.7750258E0,2.7074252E2,1.6397879E1,1.4716055E1,1.605596E1,1.383979E2,1.3234464E2,1.054992E1,5.847959E0,1.6766638E0,1.30393915E1,3.3252847E0,1.2730676E1,1.1915289E2,1.924501E1,7.827563E1,5.4069E1,9.110025E0,1.4398946E0,3.5036821E0,2.3442767E0,9.005775E0,4.033616E0,1.1483797E1,1.2468783E0,9.929121E1,1.986169E1,7.8283095E0,1.14167E1,3.118086E1,4.709477E1,3.9982638E0,5.0070736E1,7.5740986E0,1.4316769E0,1.6057367E0,2.427879E0,9.398019E0,2.0857787E0],"tree_param":{"num_deleted":"0","num_feature":"13","num_nodes":"45","size_leaf_vector":"0"}},{"base_weights":[2.4285927E-2,1.2867724E-2,7.945691E-1,2.1554656E-2,-8.654467E-1,-5.4177783E-2,1.3625842E-1,-1.7260505E-1,1.23517886E-1,3.0924147E-1,-1.7789008E-1,-7.283281E-3,-5.789522E-1,6.513272E-1,-1.07248224E-1,8.875862E-2,8.46691E-1,-3.4292606E-1,7.0695037E-1,-2.1510442E-1,5.072584E-1,-7.4539226E-1,9.00624E-1,9.893964E-1,-2.9923722E-1,-5.41172E-1,5.480856E-2,2.0272858E-1,-1.1956307E0,2.2116402E-1,9.738212E-1,-4.8000088E-1,4.6431443E-1,8.953904E-1,5.353701E-2],"categories":[],"categories_nodes":[],"categories_segments":[],"categories_sizes":[],"default_left":[true,true,false,true,false,true,true,true,true,true,true,true,true,true,true,true,true,true,true,false,false,false,false,false,false,false,false,false,false,false,false,false,false,false,false],"id":14,"left_children":[1,3,-1,5,-1,7,9,11,13,15,17,19,21,23,25,27,29,31,33,-1,-1,-1,-1,-1,-1,-1,-1,-1,-1,-1,-1,-1,-1,-1,-1],"loss_changes":[2.7247062E0,2.3643E0,0E0,2.6602829E0,0E0,3.9073317E0,6.6702957E0,7.467826E0,9.135914E0,9.270868E0,6.647773E0,8.671658E0,8.589414E0,7.618121E0,3.7319431E0,8.592605E0,1.5998516E0,4.387973E0,8.4126735E-1,0E0,0E0,0E0,0E0,0E0,0E0,0E0,0E0,0E0,0E0,0E0,0E0,0E0,0E0,0E0,0E0],"parents":[2147483647,0,0,1,1,3,3,5,5,6,6,7,7,8,8,9,9,10,10,11,11,12,12,13,13,14,14,15,15,16,16,17,17,18,18],"right_children":[2,4,-1,6,-1,8,10,12,14,16,18,20,22,24,26,28,30,32,34,-1,-1,-1,-1,-1,-1,-1,-1,-1,-1,-1,-1,-1,-1,-1,-1],"split_conditions":[1.39375E1,1.325E1,2.3837073E-1,5E-1,-2.5963402E-1,5.0425E-4,5.375E-4,2.8550002E-4,7.375E-4,2.6025E-4,1.42925E-3,5E-1,1.009E3,2.105E0,9.5825E-4,2.52E-4,5E-1,1.15E1,5.2075E0,-6.453133E-2,1.5217753E-1,-2.2361769E-1,2.701872E-1,2.9681894E-1,-8.977117E-2,-1.6235161E-1,1.6442569E-2,6.081858E-2,-3.5868922E-1,6.634921E-2,2.9214638E-1,-1.4400028E-1,1.3929434E-1,2.6861712E-1,1.6061105E-2],"split_indices":[1,1,0,6,0,3,3,3,3,3,3,10,7,1,3,3,0,4,1,0,0,0,0,0,0,0,0,0,0,0,0,0,0,0,0],"split_type":[0,0,0,0,0,0,0,0,0,0,0,0,0,0,0,0,0,0,0,0,0,0,0,0,0,0,0,0,0,0,0,0,0,0,0],"sum_hessian":[3.0995538E2,3.0642978E2,3.5256212E0,3.0439462E2,2.0351434E0,1.8366116E2,1.2073347E2,1.1022748E2,7.3433685E1,7.787043E1,4.2863037E1,7.907418E1,3.1153297E1,2.1784842E1,5.164885E1,5.6044094E1,2.1826334E1,3.6641323E1,6.221712E0,5.6739353E1,2.2334826E1,2.844921E1,2.7040884E0,1.603952E1,5.7453218E0,1.3408039E1,3.824081E1,5.2249874E1,3.7942197E0,4.1494055E0,1.767693E1,3.1669083E1,4.9722414E0,4.5416136E0,1.6800985E0],"tree_param":{"num_deleted":"0","num_feature":"13","num_nodes":"35","size_leaf_vector":"0"}},{"base_weights":[2.270335E-2,-1.6072984E-1,6.2606186E-2,1.8194976E-1,-5.2567625E-1,7.247195E-1,3.7942957E-2,8.1618106E-1,-7.853418E-2,5.072709E-2,-8.79519E-1,9.5887166E-1,3.680059E-2,4.1128513E-1,7.4540563E-3,-2.8612384E-1,1.038655E0,-3.80999E-1,9.8574305E-1,7.975519E-1,-9.3140626E-1,-9.787663E-1,-7.610264E-2,1.4899227E-1,1.0985897E0,-5.912194E-1,5.8256197E-1,5.553982E-1,8.389255E-2,-3.917306E-1,3.4204066E-2,-7.541634E-1,6.666033E-2,8.9889175E-1,1.2466404E-1,-1.0634154E0,-3.8587385E-1,-1.2104905E-2,6.5560454E-1,-3.6342317E-1,4.6229744E-1,-7.871115E-1,4.3600687E-1,-1.5079176E-1,1.06344044E-1,1.7096522E-1,-9.113977E-1,8.639765E-1,-1.9201444E-1,-1.1544211E0,-3.2194173E-1,1.0502689E0,3.9004433E-1,-5.8633745E-1,-4.3009356E-2,5.8862877E-1,5.178791E-2,8.159956E-2,-9.625221E-1,8.738886E-1,-5.871298E-1,-1.38556305E-2,-5.595142E-1,2.770984E-1,-3.252563E-2],"categories":[],"categories_nodes":[],"categories_segments":[],"categories_sizes":[],"default_left":[true,true,true,true,true,true,true,true,true,true,true,true,true,true,true,false,false,true,false,true,false,true,false,false,false,false,false,true,true,true,true,true,true,false,false,true,false,false,true,true,true,true,true,true,true,false,false,false,false,false,false,false,false,false,false,false,false,false,false,false,false,false,false,false,false],"id":15,"left_children":[1,3,5,7,9,11,13,15,17,19,21,23,25,27,29,-1,-1,31,-1,33,-1,35,-1,-1,-1,-1,-1,37,39,41,43,45,47,-1,-1,49,-1,-1,51,53,55,57,59,61,63,-1,-1,-1,-1,-1,-1,-1,-1,-1,-1,-1,-1,-1,-1,-1,-1,-1,-1,-1,-1],"loss_changes":[2.172131E0,6.7307973E0,3.9460232E0,4.707335E0,5.33734E0,1.3633614E0,2.6792393E0,2.3253489E0,7.082565E0,8.676422E0,1.2119875E0,5.6482744E-1,1.4566091E0,7.91944E-1,2.3505669E0,0E0,0E0,2.8810377E0,0E0,3.436513E-1,0E0,3.0612373E-1,0E0,0E0,0E0,0E0,0E0,6.9958997E-1,1.2868633E0,4.8681087E0,2.765853E0,1.5119524E0,1.9442714E0,0E0,0E0,4.328661E-1,0E0,0E0,6.756687E-1,2.3112983E-1,1.7804384E-1,1.5586596E0,2.8037477E0,3.250779E0,3.5380733E0,0E0,0E0,0E0,0E0,0E0,0E0,0E0,0E0,0E0,0E0,0E0,0E0,0E0,0E0,0E0,0E0,0E0,0E0,0E0,0E0],"parents":[2147483647,0,0,1,1,2,2,3,3,4,4,5,5,6,6,7,7,8,8,9,9,10,10,11,11,12,12,13,13,14,14,17,17,19,19,21,21,27,27,28,28,29,29,30,30,31,31,32,32,35,35,38,38,39,39,40,40,41,41,42,42,43,43,44,44],"right_children":[2,4,6,8,10,12,14,16,18,20,22,24,26,28,30,-1,-1,32,-1,34,-1,36,-1,-1,-1,-1,-1,38,40,42,44,46,48,-1,-1,50,-1,-1,52,54,56,58,60,62,64,-1,-1,-1,-1,-1,-1,-1,-1,-1,-1,-1,-1,-1,-1,-1,-1,-1,-1,-1,-1],"split_conditions":[6.0500002E-5,2.7E-5,7.7000004E-5,5E-1,3.3249998E-1,1.625E0,1.915E0,2.74E0,5E-1,5E-1,2.1875E0,2.7649999E0,2.5E0,1.7925E0,9.575E-5,-8.5837156E-2,3.115965E-1,3.4250002E0,2.9572293E-1,3.95E0,-2.794219E-1,4.5E0,-2.2830792E-2,4.4697683E-2,3.295769E-1,-1.7736584E-1,1.747686E-1,1.05000004E-1,3.21E0,2.5E0,3.5500002E-1,1.85E0,3.6399999E0,2.6966754E-1,3.7399214E-2,4.325E0,-1.1576216E-1,-3.6314717E-3,5E-1,1.375E0,1.275E-3,5E-1,8.95E-5,1.4500001E-1,1.5E0,5.128957E-2,-2.7341932E-1,2.5919294E-1,-5.7604335E-2,-3.4632635E-1,-9.6582524E-2,3.1508067E-1,1.17013305E-1,-1.7590123E-1,-1.2902807E-2,1.7658864E-1,1.55363735E-2,2.447987E-2,-2.8875664E-1,2.621666E-1,-1.7613894E-1,-4.156689E-3,-1.6785428E-1,8.312952E-2,-9.757689E-3],"split_indices":[3,3,3,11,1,1,5,5,7,10,1,5,4,1,3,0,0,5,0,5,0,4,0,0,0,0,0,1,1,4,1,5,5,0,0,5,0,0,0,5,3,0,3,1,4,0,0,0,0,0,0,0,0,0,0,0,0,0,0,0,0,0,0,0,0],"split_type":[0,0,0,0,0,0,0,0,0,0,0,0,0,0,0,0,0,0,0,0,0,0,0,0,0,0,0,0,0,0,0,0,0,0,0,0,0,0,0,0,0,0,0,0,0,0,0,0,0,0,0,0,0,0,0,0,0,0,0,0,0,0,0,0,0],"sum_hessian":[2.9438452E2,5.205587E1,2.4232866E2,2.710556E1,2.4950308E1,7.6830673E0,2.3464558E2,7.27032E0,1.983524E1,9.816328E0,1.513398E1,5.438165E0,2.2449021E0,1.6772583E1,2.17873E2,1.1728803E0,6.09744E0,1.5945563E1,3.8896766E0,5.6829166E0,4.133412E0,1.327575E1,1.8582299E0,1.1041728E0,4.3339925E0,1.0050617E0,1.2398404E0,1.1162567E1,5.610015E0,1.2826201E1,2.050468E2,8.322952E0,7.6226115E0,4.647162E0,1.0357549E0,1.092268E1,2.3530703E0,1.8071655E0,9.355402E0,2.5890582E0,3.0209565E0,8.713264E0,4.112937E0,5.7220425E1,1.4782637E2,1.196385E0,7.126567E0,1.2940221E0,6.3285894E0,9.23258E0,1.6901003E0,2.574448E0,6.780954E0,1.0373961E0,1.5516621E0,1.9782628E0,1.0426939E0,1.5536599E0,7.1596045E0,2.9824023E0,1.1305349E0,4.363507E1,1.3585354E1,6.585526E1,8.1971115E1],"tree_param":{"num_deleted":"0","num_feature":"13","num_nodes":"65","size_leaf_vector":"0"}},{"base_weights":[1.8850178E-2,9.02095E-3,7.468183E-1,1.6748173E-2,-7.8425604E-1,4.476577E-2,-2.1011774E-1,-3.8587463E-3,3.1286287E-1,-5.2751976E-1,9.760393E-2,4.4133898E-2,-3.454674E-1,1.5645064E-2,8.6491E-1,6.1849797E-1,-8.947808E-1,6.9716436E-1,-4.0410885E-1,1.750892E-2,8.809384E-1,-5.125648E-1,4.9482706E-1,-1.8506983E-1,8.4416354E-1,1.5636258E-2,9.673502E-1,1.0142555E-1,7.540228E-1,-1.0236293E0,-3.137265E-2,1.4117888E-1,8.9167553E-1,5.977109E-1,-6.3208646E-1],"categories":[],"categories_nodes":[],"categories_segments":[],"categories_sizes":[],"default_left":[true,true,false,true,false,true,true,true,true,true,true,true,true,true,true,true,true,true,true,false,false,false,false,false,false,false,false,false,false,false,false,false,false,false,false],"id":16,"left_children":[1,3,-1,5,-1,7,9,11,13,15,17,19,21,23,25,27,29,31,33,-1,-1,-1,-1,-1,-1,-1,-1,-1,-1,-1,-1,-1,-1,-1,-1],"loss_changes":[2.0294976E0,1.7404937E0,0E0,1.7895098E0,0E0,3.2614803E0,3.0754254E0,3.5022013E0,6.2883883E0,7.0336437E0,5.2642174E0,4.1592693E0,3.9482691E0,4.4773917E0,1.1526957E0,2.2680628E-1,1.3105097E0,7.298658E-1,2.5819645E0,0E0,0E0,0E0,0E0,0E0,0E0,0E0,0E0,0E0,0E0,0E0,0E0,0E0,0E0,0E0,0E0],"parents":[2147483647,0,0,1,1,3,3,5,5,6,6,7,7,8,8,9,9,10,10,11,11,12,12,13,13,14,14,15,15,16,16,17,17,18,18],"right_children":[2,4,-1,6,-1,8,10,12,14,16,18,20,22,24,26,28,30,32,34,-1,-1,-1,-1,-1,-1,-1,-1,-1,-1,-1,-1,-1,-1,-1,-1],"split_conditions":[1.39375E1,1.325E1,2.240455E-1,1.16875E-3,-2.3527682E-1,3.21E0,1.37075E-3,2.27E0,5E-1,1.375E0,1.065E3,2.105E0,9.2300004E-4,7.5E0,5E-1,6.875E-1,1.2975E3,6.25E-2,5E-1,5.252676E-3,2.6428154E-1,-1.5376943E-1,1.4844812E-1,-5.552095E-2,2.5324908E-1,4.6908776E-3,2.9020506E-1,3.0427666E-2,2.2620684E-1,-3.070888E-1,-9.411796E-3,4.2353664E-2,2.6750267E-1,1.7931327E-1,-1.8962595E-1],"split_indices":[1,1,0,3,0,1,3,1,11,1,7,1,3,4,0,1,7,1,11,0,0,0,0,0,0,0,0,0,0,0,0,0,0,0,0],"split_type":[0,0,0,0,0,0,0,0,0,0,0,0,0,0,0,0,0,0,0,0,0,0,0,0,0,0,0,0,0,0,0,0,0,0,0],"sum_hessian":[2.8357455E2,2.8079556E2,2.7789876E0,2.7905618E2,1.7393686E0,2.490959E2,2.996029E1,2.1168788E2,3.7408024E1,1.4396564E1,1.5563727E1,1.8637486E2,2.5313023E1,2.4984764E1,1.242326E1,3.327913E0,1.106865E1,6.9129705E0,8.650757E0,1.8161719E2,4.7576704E0,2.1439644E1,3.8733795E0,2.0737558E1,4.2472057E0,1.4612774E0,1.0961983E1,1.0541956E0,2.2737174E0,9.469871E0,1.5987799E0,2.2389708E0,4.674E0,1.3030158E0,7.347741E0],"tree_param":{"num_deleted":"0","num_feature":"13","num_nodes":"35","size_leaf_vector":"0"}},{"base_weights":[1.9088708E-2,1.0915422E-2,6.994635E-1,2.622726E-2,-4.210868E-1,7.233827E-3,5.33007E-1,-7.2633684E-1,2.6878977E-1,3.5700105E-2,-4.7845572E-1,9.295506E-1,-3.223874E-1,-1.4619516E-1,-8.763882E-1,6.1824226E-1,-2.7187157E-1,-6.6310824E-3,2.7949116E-1,2.006977E-1,-7.084866E-1,-5.9912336E-1,4.714983E-2,6.0553156E-2,-5.6247497E-1,4.763614E-1,-6.6246823E-3,7.2784823E-1,-4.404865E-1,-8.741618E-3,-9.2994833E-1],"categories":[],"categories_nodes":[],"categories_segments":[],"categories_sizes":[],"default_left":[true,true,false,true,true,true,true,true,true,true,true,false,true,false,false,false,false,true,true,true,true,false,false,false,false,false,false,false,false,false,false],"id":17,"left_children":[1,3,-1,5,7,9,11,13,15,17,19,-1,21,-1,-1,-1,-1,23,25,27,29,-1,-1,-1,-1,-1,-1,-1,-1,-1,-1],"loss_changes":[1.5152464E0,1.8077444E0,0E0,2.530189E0,2.1655412E0,3.5394375E0,3.5209303E0,4.6003294E-1,8.4823346E-1,2.4950821E0,2.356645E0,0E0,4.1178808E-1,0E0,0E0,0E0,0E0,7.7577753E0,2.0177903E0,1.7961677E0,1.6669211E0,0E0,0E0,0E0,0E0,0E0,0E0,0E0,0E0,0E0,0E0],"parents":[2147483647,0,0,1,1,3,3,4,4,5,5,6,6,7,7,8,8,9,9,10,10,12,12,17,17,18,18,19,19,20,20],"right_children":[2,4,-1,6,8,10,12,14,16,18,20,-1,22,-1,-1,-1,-1,24,26,28,30,-1,-1,-1,-1,-1,-1,-1,-1,-1,-1],"split_conditions":[1.39375E1,1.25E1,2.0983906E-1,1.4249999E-3,5.895E0,1.16875E-3,7.0565E3,3.79E2,1.35425E-3,5.5E0,5E-1,2.788652E-1,1.575E-3,-4.385855E-2,-2.6291648E-1,1.8547268E-1,-8.1561476E-2,3.5E0,2.27E0,1.35425E-3,1.375E0,-1.7973702E-1,1.414495E-2,1.8165948E-2,-1.687425E-1,1.4290842E-1,-1.987405E-3,2.1835448E-1,-1.3214596E-1,-2.6224856E-3,-2.7898452E-1],"split_indices":[1,4,0,3,1,3,7,7,3,4,2,0,3,0,0,0,0,4,1,3,1,0,0,0,0,0,0,0,0,0,0],"split_type":[0,0,0,0,0,0,0,0,0,0,0,0,0,0,0,0,0,0,0,0,0,0,0,0,0,0,0,0,0,0,0],"sum_hessian":[2.728553E2,2.7062036E2,2.2348974E0,2.62264E2,8.356367E0,2.5376741E2,8.496592E0,5.756455E0,2.5999122E0,2.4059276E2,1.3174653E1,5.746116E0,2.7504754E0,1.5886351E0,4.16782E0,1.4920464E0,1.1078658E0,2.0582645E2,3.476632E1,3.3655562E0,9.809097E0,1.2174681E0,1.5330074E0,1.8442612E2,2.1400322E1,2.0201307E1,1.4565013E1,1.7728459E0,1.5927103E0,2.6080387E0,7.2010584E0],"tree_param":{"num_deleted":"0","num_feature":"13","num_nodes":"31","size_leaf_vector":"0"}},{"base_weights":[1.3118025E-2,-5.771074E-2,1.0092548E-1,1.7435579E-2,-3.4003943E-1,-2.6286343E-1,1.6971098E-1,7.910882E-2,-2.849817E-1,-5.979102E-1,2.7844789E-2,1.7111696E-1,-5.357565E-1,7.103688E-1,3.0204952E-2,2.3284727E-1,-2.7208906E-1,-7.924278E-1,7.232889E-1,-7.050862E-1,5.646511E-1,7.4233955E-1,-9.376202E-1,-1.1513711E-1,7.5637245E-1,-1.0166719E0,1.49134E-1,8.399389E-1,-2.813004E-1,1.18593924E-1,-4.3784443E-1,9.8703705E-2,9.6512026E-1,-1.2146288E0,-5.724306E-2,-9.3508214E-1,4.626234E-2,3.6651015E-1,8.684229E-1,2.5758713E-1,-8.152154E-1,2.8419966E-2,1.0007647E0,-4.115222E-1,2.1084116E-1,7.7988225E-1,-7.1934E-1,-1.2178812E-1,1.0185465E0,6.306702E-1,7.890594E-3,-7.192614E-1,1.5799488E-1,-3.1190818E-2,6.480211E-1,1.1282173E0,9.165837E-2,-4.670482E-1,5.22217E-1,-1.5836583E-1,-1.0241598E0,-3.9800522E-1,-1.046711E0,-5.672745E-1,5.8926433E-1,-5.096339E-1,-1.2750423E-1,6.1235607E-1,-2.9893237E-1,6.653168E-1,-7.762232E-1,-1.3077214E-1,9.535833E-1,-2.1800704E-1,2.745839E-1,-9.567326E-1,1.22948445E-1,6.0849875E-1,-6.0497415E-1],"categories":[],"categories_nodes":[],"categories_segments":[],"categories_sizes":[],"default_left":[true,true,true,true,true,true,true,true,true,true,true,true,true,true,true,true,true,true,true,true,false,true,false,true,false,false,true,true,false,true,true,true,true,false,true,true,false,false,false,false,true,true,false,true,true,false,false,true,false,true,true,true,true,false,false,false,false,false,false,false,false,false,false,false,false,false,false,false,false,false,false,false,false,false,false,false,false,false,false],"id":18,"left_children":[1,3,5,7,9,11,13,15,17,19,21,23,25,27,29,31,33,35,37,39,-1,41,-1,43,-1,-1,45,47,-1,49,51,53,55,-1,57,59,-1,-1,-1,-1,61,63,-1,65,67,-1,-1,69,-1,71,73,75,77,-1,-1,-1,-1,-1,-1,-1,-1,-1,-1,-1,-1,-1,-1,-1,-1,-1,-1,-1,-1,-1,-1,-1,-1,-1,-1],"loss_changes":[1.6621478E0,3.1469157E0,3.0291982E0,2.2210872E0,2.9736998E0,2.38428E0,7.5899553E0,5.392054E0,1.0900441E1,2.686986E0,1.021608E1,1.4660915E0,4.1459274E0,2.8900747E0,3.413684E0,6.7005434E0,6.10884E0,1.7067938E0,5.86977E-2,2.0402918E0,0E0,1.5378013E0,0E0,7.046732E-1,0E0,0E0,3.7790694E0,3.3048801E0,0E0,3.914407E0,2.3137758E0,4.2718306E0,1.4062777E0,0E0,6.393346E0,6.63229E-1,0E0,0E0,0E0,0E0,1.1028214E0,1.4319303E0,0E0,3.7804306E-2,9.4179773E-1,0E0,0E0,2.4705474E0,0E0,3.1434264E0,3.5457587E0,1.9360442E0,2.0967116E0,0E0,0E0,0E0,0E0,0E0,0E0,0E0,0E0,0E0,0E0,0E0,0E0,0E0,0E0,0E0,0E0,0E0,0E0,0E0,0E0,0E0,0E0,0E0,0E0,0E0,0E0],"parents":[2147483647,0,0,1,1,2,2,3,3,4,4,5,5,6,6,7,7,8,8,9,9,10,10,11,11,12,12,13,13,14,14,15,15,16,16,17,17,18,18,19,19,21,21,23,23,26,26,27,27,29,29,30,30,31,31,32,32,34,34,35,35,40,40,41,41,43,43,44,44,47,47,49,49,50,50,51,51,52,52],"right_children":[2,4,6,8,10,12,14,16,18,20,22,24,26,28,30,32,34,36,38,40,-1,42,-1,44,-1,-1,46,48,-1,50,52,54,56,-1,58,60,-1,-1,-1,-1,62,64,-1,66,68,-1,-1,70,-1,72,74,76,78,-1,-1,-1,-1,-1,-1,-1,-1,-1,-1,-1,-1,-1,-1,-1,-1,-1,-1,-1,-1,-1,-1,-1,-1,-1,-1],"split_conditions":[1.0625E0,6.875E-1,1.06E-4,2.5E0,2.5E0,5E-1,1.73E0,4.1E1,1.2425E3,1.09375E-3,7.2925E-4,7.5E-5,2.5E0,1.15E1,2.3335E3,2.6999998E-1,5.4E1,1.0875E-3,4.25E-2,1.7950001E0,1.6939533E-1,8.55E-1,-2.812861E-1,5E-1,2.2691174E-1,-3.050016E-1,9.15E-5,5E-1,-8.439012E-2,2.875E-4,7.7755E3,5E-1,5E-1,-3.6438864E-1,5E-1,5E-1,1.3878702E-2,1.0995305E-1,2.605269E-1,7.727614E-2,8.55E-1,9.575E-5,3.0022943E-1,1.025E-5,4.5E0,2.3396468E-1,-2.1580201E-1,3.35E0,3.0556396E-1,5E-1,1.165E2,9E0,6.395E0,-9.357246E-3,1.9440635E-1,3.384652E-1,2.7497511E-2,-1.4011447E-1,1.566651E-1,-4.7509752E-2,-3.0724794E-1,-1.1940157E-1,-3.140133E-1,-1.7018236E-1,1.767793E-1,-1.5289018E-1,-3.825127E-2,1.8370682E-1,-8.967972E-2,1.9959505E-1,-2.3286696E-1,-3.9231643E-2,2.86075E-1,-6.540211E-2,8.2375176E-2,-2.870198E-1,3.6884535E-2,1.8254963E-1,-1.8149225E-1],"split_indices":[1,1,3,4,4,2,1,7,7,3,3,3,4,4,7,1,7,3,1,5,0,1,0,6,0,0,3,0,0,3,7,7,6,0,6,0,0,0,0,0,1,3,0,3,1,0,0,5,0,0,7,4,1,0,0,0,0,0,0,0,0,0,0,0,0,0,0,0,0,0,0,0,0,0,0,0,0,0,0],"split_type":[0,0,0,0,0,0,0,0,0,0,0,0,0,0,0,0,0,0,0,0,0,0,0,0,0,0,0,0,0,0,0,0,0,0,0,0,0,0,0,0,0,0,0,0,0,0,0,0,0,0,0,0,0,0,0,0,0,0,0,0,0,0,0,0,0,0,0,0,0,0,0,0,0,0,0,0,0,0,0],"sum_hessian":[2.6532016E2,1.470483E2,1.1827187E2,1.1687766E2,3.0170628E1,1.8358255E1,9.991361E1,9.76931E1,1.9184559E1,1.736985E1,1.28007765E1,7.231304E0,1.1126951E1,1.9653631E1,8.025999E1,6.818278E1,2.9510324E1,1.2904173E1,6.2803864E0,1.6263988E1,1.1058629E0,7.489362E0,5.3114142E0,5.3955564E0,1.835748E0,6.2522945E0,4.8746567E0,1.7517786E1,2.1358447E0,6.813889E1,1.2121096E1,5.8585426E1,9.597351E0,4.6141853E0,2.489614E1,1.0930117E1,1.974056E0,2.8354368E0,3.4449496E0,1.5321392E0,1.4731849E1,2.2854903E0,5.2038717E0,2.6886063E0,2.70695E0,2.8828976E0,1.9917588E0,2.7935915E0,1.4724195E1,1.1277241E1,5.686165E1,8.0920515E0,4.029044E0,4.8144207E1,1.0441217E1,7.8414884E0,1.7558626E0,1.4696494E1,1.0199645E1,1.4103501E0,9.519767E0,6.2275653E0,8.504283E0,1.1027509E0,1.1827395E0,1.4078904E0,1.280716E0,1.4016955E0,1.3052545E0,1.2606951E0,1.5328963E0,3.5354736E0,7.741767E0,3.0884262E1,2.5977386E1,6.2061687E0,1.8858826E0,2.6605506E0,1.3684934E0],"tree_param":{"num_deleted":"0","num_feature":"13","num_nodes":"79","size_leaf_vector":"0"}},{"base_weights":[1.2181399E-2,-2.6437255E-2,1.8100722E-1,-4.0752687E-2,7.758742E-1,4.8690474E-1,4.904959E-2,-2.1538556E-2,-6.6994846E-1,7.293918E-1,-2.3076943E-1,-3.2704715E-2,5.8521575E-1,2.393956E-3,-5.648396E-1,-5.634499E-2,-8.296468E-1,1.3744694E-1,9.01994E-1,1.3970052E-1,-6.111114E-1,2.4662457E-1,-3.1828618E-1,7.148001E-1,1.3544099E-1,-6.426489E-2,1.2856482E-1,-6.8899566E-1,1.398806E-1,-3.984809E-1,6.9864815E-1,4.6224326E-1,-7.431556E-1,-5.6665874E-1,7.2415024E-1,-4.0404227E-2,-7.386168E-1,-3.198977E-1,2.3167469E-1,-8.2124424E-1,-1.08417876E-1,1.7537943E-1,8.6333424E-1,-9.521525E-1,-4.0611103E-2],"categories":[],"categories_nodes":[],"categories_segments":[],"categories_sizes":[],"default_left":[true,true,true,true,false,true,true,true,true,true,true,true,true,true,true,false,false,true,false,false,false,true,true,false,false,true,true,true,false,false,false,true,false,true,false,false,false,false,false,false,false,false,false,false,false],"id":19,"left_children":[1,3,5,7,-1,9,11,13,15,17,19,21,23,25,27,-1,-1,29,-1,-1,-1,31,33,-1,-1,35,37,39,-1,-1,-1,41,-1,43,-1,-1,-1,-1,-1,-1,-1,-1,-1,-1,-1],"loss_changes":[1.6014034E0,2.3306603E0,1.8214862E0,2.3745818E0,0E0,2.546514E0,1.467884E0,2.5080988E0,5.2381253E-1,9.441986E-1,6.787104E-1,2.4417255E0,1.6113496E-1,1.5696574E0,8.08439E-1,0E0,0E0,1.343106E0,0E0,0E0,0E0,3.659967E0,4.316085E0,0E0,0E0,1.9354503E0,3.057129E0,4.5518565E-1,0E0,0E0,0E0,1.3876898E0,0E0,2.54557E0,0E0,0E0,0E0,0E0,0E0,0E0,0E0,0E0,0E0,0E0,0E0],"parents":[2147483647,0,0,1,1,2,2,3,3,5,5,6,6,7,7,8,8,9,9,10,10,11,11,12,12,13,13,14,14,17,17,21,21,22,22,25,25,26,26,27,27,31,31,33,33],"right_children":[2,4,6,8,-1,10,12,14,16,18,20,22,24,26,28,-1,-1,30,-1,-1,-1,32,34,-1,-1,36,38,40,-1,-1,-1,42,-1,44,-1,-1,-1,-1,-1,-1,-1,-1,-1,-1,-1],"split_conditions":[3.21E0,1.60825E-3,4.8125E-4,1.252E-3,2.3276226E-1,9.73E0,1.125E1,2.6675E0,5E-1,5E-1,2.75E-4,5E-1,5E-1,5E-1,1.167E3,-1.6903497E-2,-2.4889405E-1,2.6250002E-4,2.705982E-1,4.1910157E-2,-1.8333343E-1,1.25E1,9.5E0,2.1444005E-1,4.06323E-2,1.11875E-3,5E-1,8.7499997E-4,4.196418E-2,-1.19544275E-1,2.0959446E-1,4E0,-2.2294669E-1,9.1675E-4,2.1724509E-1,-1.2121269E-2,-2.2158505E-1,-9.596932E-2,6.9502406E-2,-2.4637328E-1,-3.2525364E-2,5.261383E-2,2.5900027E-1,-2.8564575E-1,-1.2183332E-2],"split_indices":[1,3,3,3,0,1,1,1,0,0,3,12,11,6,7,0,0,3,0,0,0,4,4,0,0,3,0,3,0,0,0,4,0,3,0,0,0,0,0,0,0,0,0,0,0],"split_type":[0,0,0,0,0,0,0,0,0,0,0,0,0,0,0,0,0,0,0,0,0,0,0,0,0,0,0,0,0,0,0,0,0,0,0,0,0,0,0,0,0,0,0,0,0],"sum_hessian":[2.438866E2,1.9917014E2,4.4716465E1,1.9661125E2,2.5588775E0,1.2665676E1,3.205079E1,1.9178871E2,4.8225365E0,9.454778E0,3.2108989E0,2.862506E1,3.4257295E0,1.8465042E2,7.138292E0,1.2753036E0,3.5472329E0,2.5400193E0,6.914758E0,1.9470668E0,1.263832E0,1.4539895E1,1.4085164E1,2.2020564E0,1.2236731E0,1.211401E2,6.351033E1,6.0880294E0,1.0502626E0,1.4475801E0,1.092439E0,1.2376681E1,2.1632142E0,1.174354E1,2.341625E0,1.1802396E2,3.116139E0,1.1479461E1,5.203087E1,4.620912E0,1.4671172E0,8.053793E0,4.322888E0,6.309704E0,5.433836E0],"tree_param":{"num_deleted":"0","num_feature":"13","num_nodes":"45","size_leaf_vector":"0"}},{"base_weights":[8.965168E-3,-2.1698225E-2,1.8299265E-1,9.64519E-3,-2.0639667E-1,7.015215E-1,7.2462805E-2,-1.7550297E-1,5.2202847E-2,-7.1869624E-1,-5.0886367E-2,1.9457276E-1,1.0375102E0,1.4752369E-1,-2.1058534E-1,2.5726888E-2,-5.5871123E-1,2.395709E-1,-1.0759043E-2,8.305434E-2,-9.9731725E-1,4.2966425E-1,-1.5300263E-1,6.823988E-1,-2.9086897E-1,-2.0648044E-1,2.594984E-1,3.3292636E-1,-6.93737E-1,-1.9021203E-1,7.2773886E-1,3.1616125E-1,-8.703909E-1,5.601394E-1,-2.2265205E-1,-2.6793388E-1,7.704598E-2,-1.836381E0,-1.5885034E-1,7.035373E-1,-2.0137966E-1,-2.25318E-1,2.3322074E-1,1.9092607E-1,-5.12596E-1,3.4489688E-1,-1.8664612E-1,6.0780686E-1,-1.707283E-1,-3.3625177E-1,5.0819606E-1,6.833712E-1,-1.5343693E-1,-9.8024297E-1,-1.91574E-1,-7.253458E-1,7.0742697E-1,-1.3349783E0,5.241275E-2,2.8791896E-1,-4.8107103E-1,7.319159E-1,-9.096449E-3,-5.926991E-1,2.728266E-1,7.1310826E-2,-3.5696688E-1,3.8861588E-1,-8.376308E-2,-2.0709997E-1,5.191997E-1,4.729858E-1,1.7037609E-1,-2.964408E-1,4.5660585E-2],"categories":[],"categories_nodes":[],"categories_segments":[],"categories_sizes":[],"default_left":[true,true,true,true,true,true,true,true,true,true,true,true,false,true,true,true,true,true,true,false,true,true,true,false,false,true,true,true,false,true,false,true,true,true,true,true,true,false,true,false,false,true,true,true,false,true,true,false,false,false,false,false,false,false,false,false,false,false,false,false,false,false,false,false,false,false,false,false,false,false,false,false,false,false,false],"id":20,"left_children":[1,3,5,7,9,11,13,15,17,19,21,23,-1,25,27,29,31,33,35,-1,37,39,41,-1,-1,43,45,47,-1,49,-1,51,53,55,57,59,61,-1,63,-1,-1,65,67,69,-1,71,73,-1,-1,-1,-1,-1,-1,-1,-1,-1,-1,-1,-1,-1,-1,-1,-1,-1,-1,-1,-1,-1,-1,-1,-1,-1,-1,-1,-1],"loss_changes":[1.2687361E0,1.1737094E0,1.9901558E0,1.38013E0,2.3063898E0,8.4428287E-1,6.7841405E-1,2.5396693E0,1.6806414E0,1.5956337E0,1.2256519E0,1.069709E0,0E0,1.0315254E0,2.0162237E0,3.5383856E0,3.361811E0,5.4322643E0,2.446427E0,0E0,3.298079E0,9.0299696E-1,6.1762106E-1,0E0,0E0,8.8682175E-1,7.9534733E-1,6.402563E-1,0E0,2.0012019E0,0E0,7.4408346E-1,4.5445204E-1,4.57159E0,4.7770166E0,3.404251E0,4.5681067E0,0E0,8.4470105E-1,0E0,0E0,7.107863E-1,2.1392393E-1,5.714392E-1,0E0,2.8723872E-1,1.0870513E-1,0E0,0E0,0E0,0E0,0E0,0E0,0E0,0E0,0E0,0E0,0E0,0E0,0E0,0E0,0E0,0E0,0E0,0E0,0E0,0E0,0E0,0E0,0E0,0E0,0E0,0E0,0E0,0E0],"parents":[2147483647,0,0,1,1,2,2,3,3,4,4,5,5,6,6,7,7,8,8,9,9,10,10,11,11,13,13,14,14,15,15,16,16,17,17,18,18,20,20,21,21,22,22,25,25,26,26,27,27,29,29,31,31,32,32,33,33,34,34,35,35,36,36,38,38,41,41,42,42,43,43,45,45,46,46],"right_children":[2,4,6,8,10,12,14,16,18,20,22,24,-1,26,28,30,32,34,36,-1,38,40,42,-1,-1,44,46,48,-1,50,-1,52,54,56,58,60,62,-1,64,-1,-1,66,68,70,-1,72,74,-1,-1,-1,-1,-1,-1,-1,-1,-1,-1,-1,-1,-1,-1,-1,-1,-1,-1,-1,-1,-1,-1,-1,-1,-1,-1,-1,-1],"split_conditions":[4.365E0,3.9450002E0,5E-1,6.2499996E-5,5E-1,3E0,5E-1,3.3249998E-1,2.27E-4,1.02E-4,2E-2,5E-1,3.1125307E-1,9.575E-5,2.77E-4,6.25E-2,3.125E-5,5E-1,3.8749998E-4,2.4916304E-2,2.145E-4,4.23E0,5.2075E0,2.0471965E-1,-8.726069E-2,3.125E-1,1.15425E-3,1.15E1,-2.081211E-1,5E-1,2.1832167E-1,2.375E0,4.5E0,2E-2,2.6999998E-1,5E-1,4.3324998E-4,-5.509143E-1,5E-1,2.110612E-1,-6.04139E-2,2.1649999E-4,1.235E3,4.83E0,-1.537788E-1,5.7499995E-4,1.36675E-3,1.8234207E-1,-5.121849E-2,-1.00875534E-1,1.5245882E-1,2.0501137E-1,-4.603108E-2,-2.940729E-1,-5.7472203E-2,-2.1760374E-1,2.122281E-1,-4.0049353E-1,1.5723825E-2,8.637569E-2,-1.4432131E-1,2.1957478E-1,-2.7289349E-3,-1.7780975E-1,8.184799E-2,2.1393249E-2,-1.0709007E-1,1.1658477E-1,-2.5128925E-2,-6.2129993E-2,1.5575993E-1,1.4189574E-1,5.111283E-2,-8.8932246E-2,1.36981765E-2],"split_indices":[5,5,0,3,0,7,10,1,3,3,1,11,0,3,3,1,3,2,3,0,3,5,1,0,0,1,3,7,0,6,0,1,4,1,1,0,3,0,7,0,0,3,7,5,0,3,3,0,0,0,0,0,0,0,0,0,0,0,0,0,0,0,0,0,0,0,0,0,0,0,0,0,0,0,0],"split_type":[0,0,0,0,0,0,0,0,0,0,0,0,0,0,0,0,0,0,0,0,0,0,0,0,0,0,0,0,0,0,0,0,0,0,0,0,0,0,0,0,0,0,0,0,0,0,0,0,0,0,0,0,0,0,0,0,0,0,0,0,0,0,0,0,0,0,0,0,0,0,0,0,0,0,0],"sum_hessian":[2.3601286E2,2.0140152E2,3.4611343E1,1.729924E2,2.8409117E1,5.1419606E0,2.9469381E1,3.1748007E1,1.412444E2,5.772188E0,2.2636929E1,2.6789675E0,2.4629931E0,2.3670942E1,5.7984395E0,2.1428411E1,1.0319596E1,3.4819668E1,1.06424736E2,1.6696289E0,4.1025596E0,3.4051197E0,1.9231808E1,1.1338354E0,1.545132E0,5.485316E0,1.8185627E1,2.8750913E0,2.9233482E0,1.6945133E1,4.483277E0,2.706941E0,7.6126556E0,2.0435242E1,1.4384425E1,2.656531E1,7.985942E1,1.4556792E0,2.6468804E0,2.29445E0,1.1106697E0,1.6549702E1,2.6821074E0,2.5504956E0,2.9348202E0,1.5454375E1,2.7312512E0,1.7261916E0,1.1488996E0,1.4443491E1,2.5016427E0,1.2636127E0,1.4433281E0,6.1701083E0,1.4425474E0,1.6972668E0,1.8737974E1,2.087901E0,1.2296524E1,7.2657285E0,1.9299582E1,8.412156E0,7.1447266E1,1.1340796E0,1.5128008E0,5.228121E0,1.1321581E1,1.6481527E0,1.0339546E0,1.3196126E0,1.230883E0,7.9265294E0,7.5278463E0,1.667207E0,1.0640442E0],"tree_param":{"num_deleted":"0","num_feature":"13","num_nodes":"75","size_leaf_vector":"0"}},{"base_weights":[7.202134E-3,5.8031473E-2,-1.1140587E-1,-1.7664185E-2,5.964551E-1,-4.384067E-1,2.6333556E-2,3.9171394E-2,-6.9629514E-1,-8.278869E-3,7.682272E-1,-1.10409416E-1,-1.0149066E0,7.09507E-1,-9.6984826E-2,-1.4483713E-2,3.048926E-1,-9.213274E-2,-9.387351E-1,-5.9266526E-1,6.264412E-1,9.9989426E-1,-4.036803E-2,-5.816261E-1,3.3690932E-1,1.5593052E-1,7.781964E-1,1.7875373E-2,-5.851586E-1,3.152775E-2,-1.1257324E0,9.273987E-1,-9.703736E-2,-6.2432986E-1,6.289058E-1,-2.5875878E-1,-1.1429503E0,-1.124612E0,1.408348E-1,-6.79702E-1,6.446725E-1,4.2452776E-1,-8.910209E-1,-7.494179E-1,7.182388E-1,2.3815052E-1,-4.5149943E-1,-1.006064E0,2.3445088E-1,-2.1449264E-2,3.918568E-1,1.0311643E0,1.4002514E-1,1.697078E-1,-9.400032E-1,-6.468549E-1,2.6305237E-1,-1.5073252E0,-3.386375E-1,8.462376E-1,4.9433284E-2,7.598565E-1,-4.4537273E-1,-8.259141E-1,-3.5717487E-2,5.3697425E-1,-9.0667896E-2],"categories":[],"categories_nodes":[],"categories_segments":[],"categories_sizes":[],"default_left":[true,true,true,true,true,true,true,true,true,true,true,true,false,true,true,true,true,true,true,true,false,false,true,true,true,false,false,true,true,true,false,true,true,false,false,true,true,false,false,false,false,false,false,false,true,true,true,false,true,false,false,false,false,false,false,false,false,false,false,false,false,false,false,false,false,false,false],"id":21,"left_children":[1,3,5,7,9,11,13,15,17,19,21,23,-1,25,27,29,31,33,35,37,-1,-1,39,41,43,-1,-1,45,47,49,-1,51,53,-1,-1,55,57,-1,-1,-1,-1,-1,-1,-1,59,61,63,-1,65,-1,-1,-1,-1,-1,-1,-1,-1,-1,-1,-1,-1,-1,-1,-1,-1,-1,-1],"loss_changes":[1.3864491E0,6.5678205E0,3.1198153E0,5.5054297E0,2.0693336E0,3.7661495E0,4.2390933E0,1.8863938E0,1.5289783E0,2.3677838E0,2.9396486E0,3.1879096E0,0E0,1.7103553E-1,2.4109457E0,5.6996684E0,5.6498885E0,2.0301206E0,7.8207874E-1,1.452331E0,0E0,0E0,2.3687558E0,2.6443129E0,3.8170648E0,0E0,0E0,3.791068E0,3.0591288E0,2.057584E0,0E0,5.756655E-1,3.399337E0,0E0,0E0,7.94981E-1,1.153193E0,0E0,0E0,0E0,0E0,0E0,0E0,0E0,5.034096E-1,9.218583E0,1.7957358E0,0E0,4.0156657E-1,0E0,0E0,0E0,0E0,0E0,0E0,0E0,0E0,0E0,0E0,0E0,0E0,0E0,0E0,0E0,0E0,0E0,0E0],"parents":[2147483647,0,0,1,1,2,2,3,3,4,4,5,5,6,6,7,7,8,8,9,9,10,10,11,11,13,13,14,14,15,15,16,16,17,17,18,18,19,19,22,22,23,23,24,24,27,27,28,28,29,29,31,31,32,32,35,35,36,36,44,44,45,45,46,46,48,48],"right_children":[2,4,6,8,10,12,14,16,18,20,22,24,-1,26,28,30,32,34,36,38,-1,-1,40,42,44,-1,-1,46,48,50,-1,52,54,-1,-1,56,58,-1,-1,-1,-1,-1,-1,-1,60,62,64,-1,66,-1,-1,-1,-1,-1,-1,-1,-1,-1,-1,-1,-1,-1,-1,-1,-1,-1,-1],"split_conditions":[3.805E2,1.27E2,9.8E2,4.1E1,5E-1,8.07E2,1.2545E3,9.5825E-4,5.625E-5,2.6999998E-1,9.5E0,1.5625E0,-3.04472E-1,2.525E0,5E-1,9.395E-4,6.875E-1,3.9500002E-5,2.625E0,3.255E0,1.8793236E-1,2.999683E-1,5E-1,4.5749998E-1,4.79E2,4.6779156E-2,2.3345892E-1,9.7500003E-4,1E-4,3.375E0,-3.3771974E-1,5E-1,5E-1,-1.8729897E-1,1.8867174E-1,8.5E1,6.25E-1,-3.373836E-1,4.225044E-2,-2.039106E-1,1.9340177E-1,1.2735833E-1,-2.6730627E-1,-2.2482538E-1,7.5E0,2.0625E0,3E0,-3.0181924E-1,3.125E-4,-6.4347796E-3,1.1755704E-1,3.093493E-1,4.2007543E-2,5.0912343E-2,-2.82001E-1,-1.9405647E-1,7.8915715E-2,-4.5219758E-1,-1.0159125E-1,2.538713E-1,1.4829986E-2,2.2795697E-1,-1.3361183E-1,-2.4777423E-1,-1.0715246E-2,1.6109228E-1,-2.720037E-2],"split_indices":[7,7,7,7,0,7,7,3,3,1,4,1,0,5,10,3,1,3,5,5,0,0,6,1,7,0,0,3,3,1,0,10,7,0,0,7,1,0,0,0,0,0,0,0,4,1,1,0,3,0,0,0,0,0,0,0,0,0,0,0,0,0,0,0,0,0,0],"split_type":[0,0,0,0,0,0,0,0,0,0,0,0,0,0,0,0,0,0,0,0,0,0,0,0,0,0,0,0,0,0,0,0,0,0,0,0,0,0,0,0,0,0,0,0,0,0,0,0,0,0,0,0,0,0,0,0,0,0,0,0,0,0,0,0,0,0,0],"sum_hessian":[2.2789992E2,1.5988997E2,6.800995E1,1.4103009E2,1.885988E1,1.9509789E1,4.850016E1,1.3100099E2,1.0029099E1,4.3825736E0,1.4477307E1,1.3194405E1,6.315385E0,6.6891847E0,4.1810974E1,1.0977952E2,2.1221468E1,3.2672095E0,6.76189E0,2.3162558E0,2.066318E0,1.1069307E1,3.4080002E0,6.2793403E0,6.915064E0,1.0993627E0,5.589822E0,3.46271E1,7.1838717E0,1.0634779E2,3.431722E0,7.813153E0,1.3408315E1,1.9569285E0,1.310281E0,2.085356E0,4.6765337E0,1.0335178E0,1.282738E0,1.7668391E0,1.641161E0,1.3892773E0,4.8900633E0,1.5458854E0,5.3691783E0,2.3902437E1,1.0724667E1,4.596087E0,2.5877845E0,9.35362E1,1.2811592E1,6.6298046E0,1.183348E0,1.0792007E1,2.6163073E0,1.0584797E0,1.0268763E0,2.616938E0,2.0595956E0,4.283993E0,1.0851856E0,1.3492485E1,1.0409951E1,5.1240296E0,5.6006374E0,1.0029311E0,1.5848534E0],"tree_param":{"num_deleted":"0","num_feature":"13","num_nodes":"67","size_leaf_vector":"0"}},{"base_weights":[1.9402371E-3,-5.4819067E-3,6.1602134E-1,7.4598542E-3,-3.8522232E-1,-8.169549E-3,4.9507275E-1,-6.437131E-1,2.3801887E-1,8.327503E-3,-5.68988E-1,8.3928525E-1,-2.3515034E-1,-4.8432898E-2,-8.002312E-1,-9.419773E-2,5.6738466E-2,-2.3940427E-2,-6.9831663E-1,-5.37412E-1,-1.3682199E-2,5.1025134E-1,1.360218E-2,-8.191135E-1,-1.950637E-1],"categories":[],"categories_nodes":[],"categories_segments":[],"categories_sizes":[],"default_left":[true,true,false,true,true,true,true,true,false,true,true,false,false,false,false,true,true,false,true,false,false,false,false,false,false],"id":22,"left_children":[1,3,-1,5,7,9,11,13,-1,15,17,-1,-1,-1,-1,19,21,-1,23,-1,-1,-1,-1,-1,-1],"loss_changes":[9.7976613E-1,1.0479772E0,0E0,1.5787854E0,1.2853767E0,1.8661692E0,1.8144557E0,4.4921422E-1,0E0,9.8030365E-1,3.8956487E-1,0E0,0E0,0E0,0E0,2.2543683E0,2.6155157E0,0E0,1.2125015E-1,0E0,0E0,0E0,0E0,0E0,0E0],"parents":[2147483647,0,0,1,1,3,3,4,4,5,5,6,6,7,7,9,9,10,10,15,15,16,16,18,18],"right_children":[2,4,-1,6,8,10,12,14,-1,16,18,-1,-1,-1,-1,20,22,-1,24,-1,-1,-1,-1,-1,-1],"split_conditions":[1.39375E1,1.25E1,1.848064E-1,1.4249999E-3,5E-1,1.252E-3,7.0565E3,5E-1,7.1405664E-2,2.8850002E0,1E0,2.5178558E-1,-7.054511E-2,-1.452987E-2,-2.4006937E-1,2E-2,3.025E0,-7.1821283E-3,5.4575E0,-1.612236E-1,-4.10466E-3,1.5307541E-1,4.080654E-3,-2.4573405E-1,-5.851911E-2],"split_indices":[1,4,0,3,6,3,7,11,0,5,1,0,0,0,0,1,5,0,1,0,0,0,0,0,0],"split_type":[0,0,0,0,0,0,0,0,0,0,0,0,0,0,0,0,0,0,0,0,0,0,0,0,0],"sum_hessian":[2.1322386E2,2.1165672E2,1.567134E0,2.0562912E2,6.027598E0,2.0019553E2,5.4335995E0,4.237314E0,1.7902838E0,1.9543185E2,4.763677E0,3.591353E0,1.8422465E0,1.1547875E0,3.0825264E0,6.2379055E1,1.330528E2,1.1408303E0,3.622847E0,8.717446E0,5.366161E1,1.0615719E1,1.2243707E2,2.4154286E0,1.2074183E0],"tree_param":{"num_deleted":"0","num_feature":"13","num_nodes":"25","size_leaf_vector":"0"}},{"base_weights":[8.268387E-4,2.3506452E-1,-1.8138414E-2,-1.593655E-2,4.314019E-1,-1.8321791E-1,3.0559616E-2,3.1642047E-1,-4.683852E-1,5.405762E-1,-1.2719847E-2,-3.7653E-1,6.90459E-2,2.3450994E-1,3.2889086E-3,4.6675825E-1,-1.04438595E-1,-8.85968E-1,2.3769417E-1,6.52296E-1,4.323171E-2,-2.6830122E-1,-1.0658766E0,2.6136178E-1,-1.3833417E-1,9.330381E-1,-5.8225073E-2,-6.254435E-1,3.1125998E-2,6.1260176E-1,1.6664398E-1,-1.4540371E-1,-6.1780494E-1,-1.8942842E-1,-1.3902086E0,-2.607492E-1,4.274916E-1,-6.9955814E-1,2.4622394E-2,-2.463728E-1,7.8553295E-1,1.1282686E-1,-8.244576E-1,8.4582336E-2,-1.6148043E-1,-3.3311802E-1,1.738132E-1,-2.1365912E-1,-7.0787233E-1,1.1326939E-1,-4.8349935E-1,6.393144E-1,2.6756823E-2,-3.3390677E-1,1.7182675E-1,-7.1924484E-1,6.347435E-2,2.3843418E-1,-1.2522367E-2,-2.7781156E-1,6.4881814E-1],"categories":[],"categories_nodes":[],"categories_segments":[],"categories_sizes":[],"default_left":[true,true,true,true,true,true,true,true,true,true,false,true,true,true,true,true,false,false,false,false,false,true,true,true,true,false,true,true,true,false,false,true,true,false,false,true,true,false,true,true,false,false,false,true,true,false,false,false,false,false,false,false,false,false,false,false,false,false,false,false,false],"id":23,"left_children":[1,3,5,7,9,11,13,15,17,19,-1,21,23,25,27,29,-1,-1,-1,-1,-1,31,33,35,37,-1,39,41,43,-1,-1,45,47,-1,-1,49,51,-1,53,55,-1,-1,-1,57,59,-1,-1,-1,-1,-1,-1,-1,-1,-1,-1,-1,-1,-1,-1,-1,-1],"loss_changes":[9.4485116E-1,7.9194725E-1,1.5876845E0,1.3446337E0,4.4200754E-1,2.219163E0,8.492302E-1,3.7672657E-1,1.3229277E0,3.7332606E-1,0E0,1.6252236E0,8.480318E-1,3.737173E0,2.3965316E0,7.308942E-2,0E0,0E0,0E0,0E0,0E0,9.1858447E-1,6.291578E-1,1.0576148E0,9.728073E-1,0E0,2.3577833E0,9.460318E-1,1.3625458E0,0E0,0E0,1.1770688E0,5.9874535E-2,0E0,0E0,3.2587877E-1,7.174789E-1,0E0,5.357175E-1,1.7904651E0,0E0,0E0,0E0,1.5448422E0,2.8955243E0,0E0,0E0,0E0,0E0,0E0,0E0,0E0,0E0,0E0,0E0,0E0,0E0,0E0,0E0,0E0,0E0],"parents":[2147483647,0,0,1,1,2,2,3,3,4,4,5,5,6,6,7,7,8,8,9,9,11,11,12,12,13,13,14,14,15,15,21,21,22,22,23,23,24,24,26,26,27,27,28,28,31,31,32,32,35,35,36,36,38,38,39,39,43,43,44,44],"right_children":[2,4,6,8,10,12,14,16,18,20,-1,22,24,26,28,30,-1,-1,-1,-1,-1,32,34,36,38,-1,40,42,44,-1,-1,46,48,-1,-1,50,52,-1,54,56,-1,-1,-1,58,60,-1,-1,-1,-1,-1,-1,-1,-1,-1,-1,-1,-1,-1,-1,-1,-1],"split_conditions":[1.875E0,1.385E0,2.755E0,1.165E0,3.5E0,1.0625E0,2.7E-5,1.355E0,5.3E1,7.7299995E-4,-3.8159543E-3,2.6950002E0,2.6675E0,5E-1,4.8E-5,6.9000006E-1,-3.133158E-2,-2.6579043E-1,7.1308255E-2,1.9568881E-1,1.2969513E-2,6.875E-1,5E-1,1.06E-4,5E-1,2.7991146E-1,5E-1,3.3249998E-1,5E-1,1.8378054E-1,4.9993195E-2,2.4250002E0,2.1950002E0,-5.682853E-2,-4.170626E-1,7.7000004E-5,4.335E2,-2.0986745E-1,4.0825E0,3.4250002E0,2.356599E-1,3.384806E-2,-2.4733728E-1,6.875E-1,3.375E0,-9.993541E-2,5.214396E-2,-6.409774E-2,-2.1236171E-1,3.3980817E-2,-1.4504981E-1,1.9179434E-1,8.027047E-3,-1.00172035E-1,5.1548027E-2,-2.1577346E-1,1.9042306E-2,7.153026E-2,-3.75671E-3,-8.334347E-2,1.9464545E-1],"split_indices":[5,5,5,5,4,1,3,1,7,3,0,5,1,11,3,5,0,0,0,0,0,1,7,3,0,0,7,1,10,0,0,5,5,0,0,3,7,0,1,5,0,0,0,1,1,0,0,0,0,0,0,0,0,0,0,0,0,0,0,0,0],"split_type":[0,0,0,0,0,0,0,0,0,0,0,0,0,0,0,0,0,0,0,0,0,0,0,0,0,0,0,0,0,0,0,0,0,0,0,0,0,0,0,0,0,0,0,0,0,0,0,0,0,0,0,0,0,0,0,0,0,0,0,0,0],"sum_hessian":[2.107307E2,1.493056E1,1.9580014E2,6.9563165E0,7.9742436E0,4.3973568E1,1.5182657E2,4.1837163E0,2.7726002E0,6.2264686E0,1.7477752E0,2.4616848E1,1.935672E1,1.7010471E1,1.348161E2,3.002215E0,1.1815014E0,1.5821368E0,1.1904635E0,4.829947E0,1.3965213E0,2.2477108E1,2.1397395E0,9.908072E0,9.448648E0,4.377503E0,1.2632968E1,4.805708E0,1.3001039E2,1.3196765E0,1.6825384E0,1.767722E1,4.7998886E0,1.0058016E0,1.1339378E0,2.254163E0,7.653909E0,1.3851762E0,8.063472E0,1.0908509E1,1.7244589E0,1.1123527E0,3.6933553E0,1.0220506E2,2.7805326E1,1.1104004E1,6.573216E0,1.4893162E0,3.3105726E0,1.0248458E0,1.2293172E0,4.6177015E0,3.0362077E0,1.9778713E0,6.085601E0,3.7951963E0,7.1133127E0,3.898389E1,6.322117E1,2.4889233E1,2.916093E0],"tree_param":{"num_deleted":"0","num_feature":"13","num_nodes":"61","size_leaf_vector":"0"}},{"base_weights":[-1.0058967E-3,3.7510306E-2,-9.816693E-2,-2.8999236E-3,7.600723E-1,-4.1444907E-1,2.6922159E-2,1.7283373E-2,-9.8734075E-1,2.0646233E-2,8.9662886E-1,-1.0815634E-1,-9.444155E-1,5.7987726E-1,-7.5300746E-2,-1.721428E-2,8.0711985E-1,-5.2961713E-1,3.138231E-1,2.1535362E-1,8.225725E-1,1.5184028E-2,-4.5972455E-1,2.521363E-2,-4.7183308E-1,2.8977242E-1,-8.36661E-1,-6.6337687E-1,6.7989916E-1,8.1180304E-1,-6.352468E-1,-2.0059118E-1,4.3097046E-1,-9.0213835E-1,2.2200106E-1,-1.4875466E-2,2.4147128E-1,1.4943893E-1,-6.526812E-1,1.1456519E-1,7.88605E-1,4.4538525E-1,-5.074814E-1,7.511256E-1,-4.7055644E-1,-4.2530897E-1,6.47811E-1],"categories":[],"categories_nodes":[],"categories_segments":[],"categories_sizes":[],"default_left":[true,true,true,true,true,true,true,true,false,false,false,true,false,true,true,true,false,true,true,true,false,true,true,true,true,false,false,false,true,false,false,true,true,false,true,false,false,false,false,false,false,false,false,false,false,false,false],"id":24,"left_children":[1,3,5,7,9,11,13,15,-1,-1,-1,17,-1,19,21,23,-1,25,27,29,-1,31,33,35,37,-1,-1,-1,39,-1,-1,41,43,-1,45,-1,-1,-1,-1,-1,-1,-1,-1,-1,-1,-1,-1],"loss_changes":[7.803289E-1,4.3628283E0,2.3529682E0,2.8470135E0,7.805505E-1,2.630822E0,2.4942846E0,3.8435264E0,0E0,0E0,0E0,2.264658E0,0E0,4.3145442E-1,1.3105495E0,2.6283288E0,0E0,1.8212286E0,2.7848105E0,2.5979176E0,0E0,2.894872E0,2.3634543E0,1.0874405E0,1.4041855E0,0E0,0E0,0E0,2.3166609E-1,0E0,0E0,4.4468017E0,3.5319698E0,0E0,1.2747378E0,0E0,0E0,0E0,0E0,0E0,0E0,0E0,0E0,0E0,0E0,0E0,0E0],"parents":[2147483647,0,0,1,1,2,2,3,3,4,4,5,5,6,6,7,7,11,11,13,13,14,14,15,15,17,17,18,18,19,19,21,21,22,22,23,23,24,24,28,28,31,31,32,32,34,34],"right_children":[2,4,6,8,10,12,14,16,-1,-1,-1,18,-1,20,22,24,-1,26,28,30,-1,32,34,36,38,-1,-1,-1,40,-1,-1,42,44,-1,46,-1,-1,-1,-1,-1,-1,-1,-1,-1,-1,-1,-1],"split_conditions":[3.805E2,2.49E2,9.8E2,2.325E2,5E-1,8.07E2,1.2545E3,1.64E2,-2.9620224E-1,6.19387E-3,2.6898867E-1,1.5625E0,-2.8332466E-1,2.7E-1,5E-1,4.1E1,2.4213596E-1,4.5749998E-1,4.79E2,2E-2,2.4677177E-1,3.2735E3,1E-4,9.5825E-4,8.2499996E-2,8.693173E-2,-2.5099832E-1,-1.9901307E-1,1.9175E0,2.4354093E-1,-1.9057405E-1,3.5E0,1.25E-3,-2.706415E-1,5.249E3,-4.46264E-3,7.2441384E-2,4.4831682E-2,-1.9580436E-1,3.4369558E-2,2.365815E-1,1.3361558E-1,