{"learner":{"attributes":{"scikit_learn":"{\"n_estimators\": 100, \"objective\": \"reg:squarederror\", \"max_depth\": null, \"learning_rate\": null, \"verbosity\": null, \"booster\": null, \"tree_method\": null, \"gamma\": null, \"min_child_weight\": null, \"max_delta_step\": null, \"subsample\": null, \"colsample_bytree\": null, \"colsample_bylevel\": null, \"colsample_bynode\": null, \"reg_alpha\": null, \"reg_lambda\": null, \"scale_pos_weight\": null, \"base_score\": null, \"missing\": NaN, \"num_parallel_tree\": null, \"kwargs\": {}, \"random_state\": null, \"n_jobs\": null, \"monotone_constraints\": null, \"interaction_constraints\": null, \"importance_type\": \"gain\", \"gpu_id\": null, \"validate_parameters\": null, \"n_features_in_\": 13, \"type\": \"XGBRegressor\"}"},"gradient_booster":{"model":{"gbtree_model_param":{"num_trees":"100","size_leaf_vector":"0"},"tree_info":[0,0,0,0,0,0,0,0,0,0,0,0,0,0,0,0,0,0,0,0,0,0,0,0,0,0,0,0,0,0,0,0,0,0,0,0,0,0,0,0,0,0,0,0,0,0,0,0,0,0,0,0,0,0,0,0,0,0,0,0,0,0,0,0,0,0,0,0,0,0,0,0,0,0,0,0,0,0,0,0,0,0,0,0,0,0,0,0,0,0,0,0,0,0,0,0,0,0,0,0],"trees":[{"base_weights":[3.2311886E1,2.9565136E1,4.6169502E1,3.8931274E1,2.8659184E1,3.662396E1,5.0839554E1,3.4934475E1,5.6E1,2.6748083E1,3.4982124E1,3.9245415E1,2.2994572E1,4.3940067E1,5.454686E1,3.7158817E1,2.173853E1,3.2030315E1,2.5923262E1,3.4462242E1,5.216E1,3.5923836E1,4.3382427E1,1.6545883E1,2.755421E1,4.5553616E1,2.901647E1,5.091177E1,5.778729E1,3.3616013E1,6.6528946E1,2.5950556E1,1.6E1,2.8101519E1,4.1300724E1,2.5316488E1,3.5847046E1,3.716944E1,3.1832024E1,4.8619286E1,3.506909E1,5.2607456E1,3.6545883E1,3.5351826E1,1.9781904E1,2.973976E1,2.0162369E1,2.4696842E1,4.551877E1,2.7880201E1,2.3424837E1,4.9361946E1,2.8384428E1,3.5877743E1,5.686588E1,3.0774065E1,4.9251766E1,4.6428238E1,2.1647058E1,5.972147E1,4.897185E1],"categories":[],"categories_nodes":[],"categories_segments":[],"categories_sizes":[],"default_left":[true,true,true,true,true,true,true,true,false,true,true,true,true,true,true,true,true,true,true,true,false,false,false,false,false,true,false,true,false,true,false,false,false,true,true,true,true,true,true,false,true,true,false,false,false,false,false,false,false,false,false,false,false,false,false,false,false,false,false,false,false],"id":0,"left_children":[1,3,5,7,9,11,13,15,-1,17,19,21,23,25,27,29,31,33,35,37,-1,-1,-1,-1,-1,39,-1,41,-1,43,-1,-1,-1,45,47,49,51,53,55,-1,57,59,-1,-1,-1,-1,-1,-1,-1,-1,-1,-1,-1,-1,-1,-1,-1,-1,-1,-1,-1],"loss_changes":[1.3802325E5,2.484075E4,2.506325E4,1.6258469E4,3.281425E4,6.3148125E3,7.9113125E3,5.620375E3,0E0,8.532625E3,3.9625625E3,7.5009375E2,5.732207E2,2.193875E3,9.7E1,1.7117344E4,4.065996E2,9.2559375E3,1.03165E4,3.295625E3,0E0,0E0,0E0,0E0,0E0,2.4734062E3,0E0,1.2442188E3,0E0,3.3349219E3,0E0,0E0,0E0,2.0536406E3,4.688828E3,7.88225E3,9.188828E3,5.6940938E3,4.4923125E3,0E0,4.0262383E3,2.38125E1,0E0,0E0,0E0,0E0,0E0,0E0,0E0,0E0,0E0,0E0,0E0,0E0,0E0,0E0,0E0,0E0,0E0,0E0,0E0],"parents":[2147483647,0,0,1,1,2,2,3,3,4,4,5,5,6,6,7,7,9,9,10,10,11,11,12,12,13,13,14,14,15,15,16,16,17,17,18,18,19,19,25,25,27,27,29,29,33,33,34,34,35,35,36,36,37,37,38,38,40,40,41,41],"right_children":[2,4,6,8,10,12,14,16,-1,18,20,22,24,26,28,30,32,34,36,38,-1,-1,-1,-1,-1,40,-1,42,-1,44,-1,-1,-1,46,48,50,52,54,56,-1,58,60,-1,-1,-1,-1,-1,-1,-1,-1,-1,-1,-1,-1,-1,-1,-1,-1,-1,-1,-1],"split_conditions":[6.165E0,2E-2,5.27E-4,1.05E1,3.02E0,5E-1,8.5825E0,1.055E3,1.6800001E1,1.4500001E-1,6.9255E3,9.23E0,4.375E-5,1.65425E-3,1.03125E-3,1.61675E-3,1.85E-3,1.05000004E-1,1.2125E-3,1.165E2,1.5648001E1,1.0777151E1,1.3014729E1,4.963765E0,8.266264E0,8.25E0,8.704942E0,1.3E1,1.7336187E1,8.48E-4,1.9958685E1,7.785167E0,4.8E0,6.4800004E-4,5E-1,1.7925E-4,5E-1,7.45E1,1.3E1,1.4585786E1,5E-1,7.3325E-4,1.0963765E1,1.0605548E1,5.9345713E0,8.921928E0,6.048711E0,7.409053E0,1.3655631E1,8.36406E0,7.0274515E0,1.4808584E1,8.515328E0,1.0763323E1,1.7059765E1,9.23222E0,1.4775531E1,1.3928472E1,6.4941177E0,1.7916441E1,1.4691556E1],"split_indices":[1,1,3,4,1,10,1,7,0,1,7,1,3,3,3,3,3,1,3,7,0,0,0,0,0,1,0,4,0,3,0,0,0,3,0,3,7,7,4,0,2,3,0,0,0,0,0,0,0,0,0,0,0,0,0,0,0,0,0,0,0],"split_type":[0,0,0,0,0,0,0,0,0,0,0,0,0,0,0,0,0,0,0,0,0,0,0,0,0,0,0,0,0,0,0,0,0,0,0,0,0,0,0,0,0,0,0,0,0,0,0,0,0,0,0,0,0,0,0,0,0,0,0,0,0],"sum_hessian":[3.661E3,3.058E3,6.03E2,2.66E2,2.792E3,2.01E2,4.02E2,2.18E2,4.8E1,2.148E3,6.44E2,1.67E2,3.4E1,1.45E2,2.57E2,1.85E2,3.3E1,2.85E2,1.863E3,6.28E2,1.6E1,9.8E1,6.9E1,1.6E1,1.8E1,1.29E2,1.6E1,1.29E2,1.28E2,1.67E2,1.8E1,1.7E1,1.6E1,2.03E2,8.2E1,1.759E3,1.04E2,3.03E2,3.25E2,9.7E1,3.2E1,1.13E2,1.6E1,1.47E2,2E1,1.66E2,3.7E1,1.8E1,6.4E1,7.41E2,1.018E3,3.5E1,6.9E1,2.87E2,1.6E1,3.09E2,1.6E1,1.6E1,1.6E1,3.3E1,8E1],"tree_param":{"num_deleted":"0","num_feature":"13","num_nodes":"61","size_leaf_vector":"0"}},{"base_weights":[2.271383E1,2.0696777E1,3.2278145E1,2.7498646E1,2.0031513E1,2.5993338E1,3.5847294E1,2.4678259E1,3.9542854E1,1.8659277E1,2.4187263E1,2.752922E1,1.64742E1,3.1057455E1,3.8418877E1,2.8392458E1,2.0219624E1,1.8286264E1,2.5300858E1,2.3812857E1,3.7432465E1,2.570298E1,3.0553623E1,1.1874104E1,1.9723013E1,3.2156826E1,2.0823584E1,3.668859E1,4.299206E1,2.4415394E1,4.7620716E1,7.6069827E0,2.2624367E1,1.9260595E1,1.4887595E1,3.4458164E1,2.0243618E1,3.6127945E1,2.3454134E1,2.3198221E1,2.9421183E1,2.6446245E1,3.517709E1,4.6431583E1,3.5551964E1,2.7511044E1,1.51413965E1,1.9137545E1,4.984594E1,2.702809E1,1.5757306E1,2.1948172E1,1.7420305E1,1.3480767E1,1.8841738E1,1.110936E1,3.6951675E1,2.3482777E1,1.5703923E1,1.641523E1,2.4051533E1,3.1265816E1,1.5534948E1,3.1547142E1,3.8570972E1],"categories":[],"categories_nodes":[],"categories_segments":[],"categories_sizes":[],"default_left":[true,true,true,true,true,true,true,true,false,true,true,true,true,true,true,true,true,true,true,true,false,true,false,false,false,true,false,true,false,true,true,false,true,true,true,true,true,false,true,false,false,true,false,false,true,false,false,false,false,false,false,false,false,false,false,false,false,false,false,false,false,false,false,false,false],"id":1,"left_children":[1,3,5,7,9,11,13,15,-1,17,19,21,23,25,27,29,31,33,35,37,-1,39,-1,-1,-1,41,-1,43,-1,45,47,-1,49,51,53,55,57,-1,59,-1,-1,61,-1,-1,63,-1,-1,-1,-1,-1,-1,-1,-1,-1,-1,-1,-1,-1,-1,-1,-1,-1,-1,-1,-1],"loss_changes":[6.997825E4,1.31465E4,1.33345625E4,8.0939688E3,1.5293625E4,2.9676094E3,3.77075E3,3.0526094E3,0E0,4.690375E3,2.4907188E3,3.1934375E2,2.8887695E2,9.73E2,4.6421875E2,7.7845547E3,2.9519023E3,6.2466875E3,4.304E3,2.0948438E3,0E0,5.375078E2,0E0,0E0,0E0,1.3118594E3,0E0,4.9764062E2,0E0,2.4256406E3,2.503164E2,0E0,2.1748047E3,7.184875E3,2.215875E3,1.7436484E3,6.8997266E2,0E0,2.3384688E3,0E0,0E0,2.091086E3,0E0,0E0,9.353281E2,0E0,0E0,0E0,0E0,0E0,0E0,0E0,0E0,0E0,0E0,0E0,0E0,0E0,0E0,0E0,0E0,0E0,0E0,0E0,0E0],"parents":[2147483647,0,0,1,1,2,2,3,3,4,4,5,5,6,6,7,7,9,9,10,10,11,11,12,12,13,13,14,14,15,15,16,16,17,17,18,18,19,19,21,21,25,25,27,27,29,29,30,30,32,32,33,33,34,34,35,35,36,36,38,38,41,41,44,44],"right_children":[2,4,6,8,10,12,14,16,-1,18,20,22,24,26,28,30,32,34,36,38,-1,40,-1,-1,-1,42,-1,44,-1,46,48,-1,50,52,54,56,58,-1,60,-1,-1,62,-1,-1,64,-1,-1,-1,-1,-1,-1,-1,-1,-1,-1,-1,-1,-1,-1,-1,-1,-1,-1,-1,-1],"split_conditions":[5.875E0,2E-2,5.27E-4,1.05E1,2.73E0,5E-1,8.5825E0,5E-1,1.1862857E1,1.1875001E-3,6.9255E3,9.23E0,4.375E-5,1.65425E-3,1.675E1,1.61675E-3,8.25E-6,6.6250004E-4,5E-1,2.875E0,1.122974E1,7E0,9.166087E0,3.5622313E0,5.916904E0,2.5E1,6.2470756E0,5.6874997E-4,1.2897619E1,5E-1,5E-1,2.282095E0,8.605E-4,7.925E-1,1.7075E0,5E-1,6.5E0,1.0838384E1,3.02E0,6.9594665E0,8.826355E0,4E0,1.0553127E1,1.3929476E1,5E-1,8.253313E0,4.542419E0,5.7412634E0,1.4953782E1,8.108427E0,4.727192E0,6.5844517E0,5.226092E0,4.0442305E0,5.6525216E0,3.332808E0,1.1085503E1,7.044833E0,4.7111773E0,4.924569E0,7.2154603E0,9.3797455E0,4.660485E0,9.464143E0,1.1571292E1],"split_indices":[1,1,3,4,1,10,1,7,0,3,7,1,3,3,1,3,3,3,7,1,0,4,0,0,0,7,0,3,0,10,0,0,3,1,1,0,4,0,1,0,0,4,0,0,11,0,0,0,0,0,0,0,0,0,0,0,0,0,0,0,0,0,0,0,0],"split_type":[0,0,0,0,0,0,0,0,0,0,0,0,0,0,0,0,0,0,0,0,0,0,0,0,0,0,0,0,0,0,0,0,0,0,0,0,0,0,0,0,0,0,0,0,0,0,0,0,0,0,0,0,0,0,0,0,0,0,0,0,0,0,0,0,0],"sum_hessian":[3.661E3,3.026E3,6.35E2,2.66E2,2.76E3,2.33E2,4.02E2,2.18E2,4.8E1,2.079E3,6.81E2,1.99E2,3.4E1,1.45E2,2.57E2,1.16E2,1.02E2,1.972E3,1.07E2,6.65E2,1.6E1,1.3E2,6.9E1,1.6E1,1.8E1,1.29E2,1.6E1,1.93E2,6.4E1,9.8E1,1.8E1,1.7E1,8.5E1,1.529E3,4.43E2,3.6E1,7.1E1,1.6E1,6.49E2,8.2E1,4.8E1,4.8E1,8.1E1,1.6E1,1.77E2,7.2E1,2.6E1,2E0,1.6E1,5E1,3.5E1,6.17E2,9.12E2,3.3E2,1.13E2,4E0,3.2E1,3.9E1,3.2E1,5.3E1,5.96E2,3.2E1,1.6E1,8.1E1,9.6E1],"tree_param":{"num_deleted":"0","num_feature":"13","num_nodes":"65","size_leaf_vector":"0"}},{"base_weights":[1.596945E1,1.4161422E1,2.138991E1,1.7871325E1,1.3223284E1,1.9653E1,2.6559975E1,1.6747192E1,2.6036024E1,1.2236499E1,1.5929507E1,1.872368E1,2.512212E1,2.2076323E1,2.8849878E1,1.5672979E1,2.3263176E1,2.0570698E1,3.071238E1,1.1827363E1,1.7949308E1,1.8262735E1,1.2672176E1,1.7319775E1,2.1194973E1,2.8452526E1,1.7800953E1,3.0605186E1,2.1858658E1,1.5033089E1,2.2116444E1,1.1549303E1,2.7330532E1,1.12199135E1,1.5866213E1,2.45104E1,1.4224884E1,1.5859491E1,2.5692047E1,8.488973E0,1.4088767E1,1.5009053E1,1.9337399E1,2.7089666E1,1.9983063E1,1.4054946E1,2.0499846E1,1.2016124E1,3.082786E1,1.605588E1,1.0413744E1,3.3831352E1,7.033231E0,1.4487846E1,7.45583E0,3.2334465E1,1.6009335E1,1.0994911E1,1.963457E1,3.1201443E1,1.2664196E1,8.443113E0,2.6202099E1,1.1438681E1,1.6838549E1,2.8461035E1,1.4908724E1,2.8097408E1,2.1341902E1,9.202981E0,5.931596E0,1.4904934E1,5.2423778E0,2.393815E1,1.2958263E1,1.6667822E1,2.7278376E1,1.1268066E1,2.0774248E1],"categories":[],"categories_nodes":[],"categories_segments":[],"categories_sizes":[],"default_left":[true,true,true,true,true,true,true,true,true,true,true,true,true,false,true,true,true,false,false,true,true,true,true,true,true,false,true,true,false,true,true,true,true,true,true,true,true,true,true,true,true,true,true,false,true,false,false,false,false,false,false,false,false,false,false,false,false,false,false,false,false,false,false,false,false,false,false,false,false,false,false,false,false,false,false,false,false,false,false],"id":2,"left_children":[1,3,5,7,9,11,13,15,17,19,21,23,25,-1,27,29,31,-1,-1,33,35,37,39,41,43,-1,45,47,-1,49,51,53,55,57,59,61,63,65,67,69,71,73,75,-1,77,-1,-1,-1,-1,-1,-1,-1,-1,-1,-1,-1,-1,-1,-1,-1,-1,-1,-1,-1,-1,-1,-1,-1,-1,-1,-1,-1,-1,-1,-1,-1,-1,-1,-1],"loss_changes":[3.5585875E4,9.3313125E3,7.6856875E3,4.6303438E3,5.67475E3,3.0264062E3,1.69375E3,3.0511719E3,1.0294844E3,3.5624688E3,4.2070312E3,1.6868281E3,1.8586172E3,0E0,1.1349609E3,1.4074766E3,2.8765312E3,0E0,0E0,3.5266094E3,2.2415898E3,5.6273438E3,1.3440977E3,1.495375E3,9.58875E2,0E0,4.5507812E1,1.0558594E2,0E0,1.6612266E3,6.123199E3,1.205293E2,2.2582188E3,2.2757188E3,9.180074E3,7.844707E2,3.1714258E2,2.6668164E3,2.4790234E2,6.4101074E1,1.2431445E3,3.0408438E3,3.806336E3,0E0,9.932578E2,0E0,0E0,0E0,0E0,0E0,0E0,0E0,0E0,0E0,0E0,0E0,0E0,0E0,0E0,0E0,0E0,0E0,0E0,0E0,0E0,0E0,0E0,0E0,0E0,0E0,0E0,0E0,0E0,0E0,0E0,0E0,0E0,0E0,0E0],"parents":[2147483647,0,0,1,1,2,2,3,3,4,4,5,5,6,6,7,7,8,8,9,9,10,10,11,11,12,12,14,14,15,15,16,16,19,19,20,20,21,21,22,22,23,23,24,24,26,26,27,27,29,29,30,30,31,31,32,32,33,33,34,34,35,35,36,36,37,37,38,38,39,39,40,40,41,41,42,42,44,44],"right_children":[2,4,6,8,10,12,14,16,18,20,22,24,26,-1,28,30,32,-1,-1,34,36,38,40,42,44,-1,46,48,-1,50,52,54,56,58,60,62,64,66,68,70,72,74,76,-1,78,-1,-1,-1,-1,-1,-1,-1,-1,-1,-1,-1,-1,-1,-1,-1,-1,-1,-1,-1,-1,-1,-1,-1,-1,-1,-1,-1,-1,-1,-1,-1,-1,-1,-1],"split_conditions":[4.875E0,1.4500001E-1,1.2875E1,1.05E1,2.48E0,5.85E3,5E-1,1.05000004E-1,1.2E-3,1.1875001E-3,5.0625E-4,6.5E0,2.12435E4,6.622897E0,1.518E3,1.6375E-3,5E-1,6.17121E0,9.213715E0,7.5E0,5E-1,4.5624998E-4,6.25E-4,6.27E0,5.25E0,8.535758E0,5E-1,5E-1,6.5575976E0,7.1249995E-4,5.1776E4,2.5E0,4.875E-4,1.65675E4,4.5749998E-1,5E-1,1.5625E0,1.25E-5,5E0,8.5E0,1.48955E4,1.00000005E-4,9.3125E-4,8.126901E0,5.355E0,4.216484E0,6.149954E0,3.6048372E0,9.248359E0,4.816764E0,3.1241233E0,1.0149406E1,2.1099694E0,4.346354E0,2.2367492E0,9.70034E0,4.8028007E0,3.2984736E0,5.890371E0,9.360434E0,3.799259E0,2.5329342E0,7.86063E0,3.4316044E0,5.0515647E0,8.538311E0,4.472617E0,8.429223E0,6.4025707E0,2.7608943E0,1.7794788E0,4.4714804E0,1.5727134E0,7.1814456E0,3.887479E0,5.0003467E0,8.183513E0,3.38042E0,6.2322745E0],"split_indices":[1,1,1,4,1,7,6,1,3,3,3,4,7,0,7,3,0,0,0,4,7,3,3,1,1,0,2,0,0,3,7,7,3,7,1,0,1,3,4,4,7,3,3,0,1,0,0,0,0,0,0,0,0,0,0,0,0,0,0,0,0,0,0,0,0,0,0,0,0,0,0,0,0,0,0,0,0,0,0],"split_type":[0,0,0,0,0,0,0,0,0,0,0,0,0,0,0,0,0,0,0,0,0,0,0,0,0,0,0,0,0,0,0,0,0,0,0,0,0,0,0,0,0,0,0,0,0,0,0,0,0,0,0,0,0,0,0,0,0,0,0,0,0,0,0,0,0,0,0,0,0,0,0,0,0,0,0,0,0,0,0],"sum_hessian":[3.661E3,2.748E3,9.13E2,5.51E2,2.197E3,6.87E2,2.26E2,4.87E2,6.4E1,1.614E3,5.83E2,5.91E2,9.6E1,8E1,1.46E2,4.21E2,6.6E1,3.2E1,3.2E1,1.509E3,1.05E2,3.37E2,2.46E2,3.82E2,2.09E2,6.4E1,3.2E1,1.14E2,3.2E1,3.86E2,3.5E1,1.8E1,4.8E1,1.315E3,1.94E2,3.6E1,6.9E1,2.57E2,8E1,6.4E1,1.82E2,1.82E2,2E2,3.2E1,1.77E2,1.6E1,1.6E1,2E0,1.12E2,3.14E2,7.2E1,1.9E1,1.6E1,9E0,9E0,3.2E1,1.6E1,1.283E3,3.2E1,3.2E1,1.62E2,4E0,3.2E1,3.6E1,3.3E1,1.6E1,2.41E2,4.8E1,3.2E1,4.8E1,1.6E1,1.66E2,1.6E1,3.2E1,1.5E2,1.52E2,4.8E1,1.6E1,1.61E2],"tree_param":{"num_deleted":"0","num_feature":"13","num_nodes":"79","size_leaf_vector":"0"}},{"base_weights":[1.1239579E1,9.962585E0,1.5068045E1,9.658448E0,1.6432344E1,1.3731959E1,1.8393927E1,1.0173854E1,7.9476557E0,1.9274351E1,8.509669E0,1.2368733E1,1.6288322E1,1.3340893E1,1.9509441E1,1.2328018E1,9.642984E0,5.596621E0,8.8299265E0,2.3029509E1,1.3374414E1,1.1306851E1,5.0473776E0,1.9012918E1,1.1771563E1,1.4803474E1,2.1319542E1,2.338771E1,1.8215954E1,1.0958446E1,1.6782873E1,8.695044E0,1.2077489E1,4.582957E0,1.3901842E1,1.2998848E1,7.792144E0,1.6903664E1,2.5696981E1,1.0871227E1,1.39540825E1,1.998423E1,1.3522313E1,1.3173978E1,1.8716228E1,1.174984E1,2.4414574E-1,1.4451441E1,1.9943357E1,8.15651E0,1.3616742E1,1.2888624E1,6.666953E0,2.2945807E0,4.8334637E0,2.3109867E1,1.200079E1,3.0298169E0,1.632637E1,6.154874E0,9.546616E0,8.323177E0,2.649772E1,9.049233E0,1.2452299E1,1.5834191E1,1.1175284E1,1.6201817E1,7.942024E0],"categories":[],"categories_nodes":[],"categories_segments":[],"categories_sizes":[],"default_left":[true,true,true,true,true,true,true,true,true,true,true,true,true,false,true,true,true,true,true,true,false,false,false,false,true,true,false,false,true,true,true,true,true,true,true,true,true,false,true,true,true,false,true,false,false,false,false,false,false,false,false,false,false,false,false,false,false,false,false,false,false,false,false,false,false,false,false,false,false],"id":3,"left_children":[1,3,5,7,9,11,13,15,17,19,21,23,25,-1,27,29,31,33,35,37,-1,-1,-1,-1,39,41,-1,-1,43,45,47,49,51,53,55,57,59,-1,61,63,65,-1,67,-1,-1,-1,-1,-1,-1,-1,-1,-1,-1,-1,-1,-1,-1,-1,-1,-1,-1,-1,-1,-1,-1,-1,-1,-1,-1],"loss_changes":[1.7753125E4,5.2505E3,3.8089375E3,2.236375E3,2.5829727E3,2.084625E3,1.1996328E3,2.1865781E3,1.2221016E3,1.6638047E3,2.7220825E2,1.4902422E3,1.3652812E3,0E0,6.274297E2,2.2260781E3,3.6381875E3,1.3674678E3,1.8196445E3,4.3167383E2,0E0,0E0,0E0,0E0,6.3233594E2,9.0458203E2,0E0,0E0,1.6205469E2,2.5833008E3,3.8231836E2,2.9926719E3,1.8977578E3,7.661719E1,3.7752197E1,2.8365107E3,9.696133E2,0E0,2.6637305E2,7.140781E2,4.134121E2,0E0,2.0394238E3,0E0,0E0,0E0,0E0,0E0,0E0,0E0,0E0,0E0,0E0,0E0,0E0,0E0,0E0,0E0,0E0,0E0,0E0,0E0,0E0,0E0,0E0,0E0,0E0,0E0,0E0],"parents":[2147483647,0,0,1,1,2,2,3,3,4,4,5,5,6,6,7,7,8,8,9,9,10,10,11,11,12,12,14,14,15,15,16,16,17,17,18,18,19,19,24,24,25,25,28,28,29,29,30,30,31,31,32,32,33,33,34,34,35,35,36,36,38,38,39,39,40,40,42,42],"right_children":[2,4,6,8,10,12,14,16,18,20,22,24,26,-1,28,30,32,34,36,38,-1,-1,-1,-1,40,42,-1,-1,44,46,48,50,52,54,56,58,60,-1,62,64,66,-1,68,-1,-1,-1,-1,-1,-1,-1,-1,-1,-1,-1,-1,-1,-1,-1,-1,-1,-1,-1,-1,-1,-1,-1,-1,-1,-1],"split_conditions":[4.875E0,1.38325E-3,1.2E1,7.1249995E-4,2.476E3,1.235E3,5E-1,1.4500001E-1,9.98E-4,6.25E-2,2.00625E-3,5.02E0,7.9375E0,4.002268E0,7.5E0,3.8749998E-4,2.395E0,3.355E0,1.01675E-3,5E-1,4.0123243E0,3.3920555E0,1.5142133E0,5.7038755E0,7.5E0,2.2415E3,6.395863E0,7.0163136E0,1.5E0,2.9175E-4,9E0,1.05E1,5E-1,2E-2,5E-1,1.19E2,1.15425E-3,5.0710993E0,5E-1,5E-1,6.7E1,5.9952693E0,1.25E-3,3.9521935E0,5.6148686E0,3.5249522E0,7.324372E-2,4.3354325E0,5.9830074E0,2.4469533E0,4.085023E0,3.8665874E0,2.000086E0,6.883742E-1,1.4500391E0,6.9329605E0,3.6002371E0,9.089451E-1,4.897911E0,1.8464622E0,2.8639848E0,2.4969532E0,7.9493165E0,2.71477E0,3.7356899E0,4.7502575E0,3.3525856E0,4.860545E0,2.3826075E0],"split_indices":[1,3,1,3,7,7,2,1,3,1,3,1,1,0,7,3,1,1,3,6,0,0,0,0,4,7,0,0,4,3,7,4,10,1,0,7,3,0,0,11,7,0,3,0,0,0,0,0,0,0,0,0,0,0,0,0,0,0,0,0,0,0,0,0,0,0,0,0,0],"split_type":[0,0,0,0,0,0,0,0,0,0,0,0,0,0,0,0,0,0,0,0,0,0,0,0,0,0,0,0,0,0,0,0,0,0,0,0,0,0,0,0,0,0,0,0,0,0,0,0,0,0,0,0,0,0,0,0,0,0,0,0,0,0,0,0,0,0,0,0,0],"sum_hessian":[3.661E3,2.748E3,9.13E2,2.627E3,1.21E2,6.55E2,2.58E2,2.015E3,6.12E2,8.8E1,3.3E1,4.31E2,2.24E2,4.9E1,2.09E2,3.94E2,1.621E3,1.69E2,4.43E2,5.2E1,3.6E1,1.7E1,1.6E1,3.3E1,3.98E2,1.76E2,4.8E1,4.8E1,1.61E2,3.04E2,9E1,1.17E3,4.51E2,1.52E2,1.7E1,8.6E1,3.57E2,1.8E1,3.4E1,2.86E2,1.12E2,3.2E1,1.44E2,1.7E1,1.44E2,2.83E2,2.1E1,5.5E1,3.5E1,1.057E3,1.13E2,3.91E2,6E1,1.6E1,1.36E2,1E0,1.6E1,2.2E1,6.4E1,1.87E2,1.7E2,2E0,3.2E1,1.36E2,1.5E2,6.4E1,4.8E1,9.6E1,4.8E1],"tree_param":{"num_deleted":"0","num_feature":"13","num_nodes":"69","size_leaf_vector":"0"}},{"base_weights":[7.904412E0,7.183511E0,1.1323063E1,6.942088E0,1.0833726E1,9.950479E0,1.4079728E1,6.511922E0,8.068927E0,1.2469255E1,6.135701E0,7.206149E0,1.09840355E1,6.8358603E0,1.4644836E1,7.377051E0,5.526562E0,1.2495604E1,7.5317554E0,1.6311365E1,9.773048E0,7.211972E0,3.6222355E0,8.301801E0,4.308088E0,1.1358301E1,3.8873236E0,1.5028144E1,9.792473E0,6.917448E0,1.4553562E1,5.108968E0,9.804528E0,1.5281432E1,1.5866958E0,6.534732E0,8.685463E0,1.22429905E1,1.828635E1,7.7817845E0,1.7046085E1,6.3578377E0,9.392233E0,1.26013E0,6.808467E0,1.3899425E1,1.0778237E1,1.6209093E1,1.3428389E1,7.5958104E0,4.481329E0,1.0502681E1,1.8163425E1,7.7009077E0,3.9928818E0,1.5558074E1,5.8540463E0,1.796039E1,1.2231814E1,7.632273E0,2.6487396E0,2.2446081E1,7.8900003E0,6.6585426E0,1.8789291E1,3.9237347E0,8.915217E0,1.1484477E1,5.5827904E0,1.8769936E1,1.0912111E1,9.477589E0,1.2190687E1],"categories":[],"categories_nodes":[],"categories_segments":[],"categories_sizes":[],"default_left":[true,true,true,true,true,true,true,true,true,true,true,true,true,false,true,true,true,true,true,true,true,false,false,true,true,true,false,true,false,true,true,true,true,true,false,true,true,false,true,true,false,false,false,false,true,true,true,false,false,false,false,false,false,false,false,false,false,false,false,false,false,false,false,false,false,false,false,false,false,false,false,false,false],"id":4,"left_children":[1,3,5,7,9,11,13,15,17,19,21,23,25,-1,27,29,31,33,35,37,39,-1,-1,41,43,45,-1,47,-1,49,51,53,55,57,-1,59,61,-1,63,65,-1,-1,-1,-1,67,69,71,-1,-1,-1,-1,-1,-1,-1,-1,-1,-1,-1,-1,-1,-1,-1,-1,-1,-1,-1,-1,-1,-1,-1,-1,-1,-1],"loss_changes":[8.9436875E3,2.5923281E3,2.2663672E3,1.3250469E3,1.3526719E3,1.1348359E3,7.554492E2,1.7170078E3,1.7630156E3,1.2597891E3,1.0913501E2,3.452666E2,7.765664E2,0E0,2.1180469E2,3.5110156E3,1.6791973E3,2.4981523E3,7.4728516E2,2.1804395E2,1.0694014E3,0E0,0E0,1.2258496E2,2.5815717E2,2.8207422E2,0E0,1.1673047E2,0E0,1.6697578E3,7.5973926E2,2.5265117E3,1.8409106E3,3.1951855E2,0E0,1.5962324E3,3.336582E3,0E0,7.9575195E1,2.5799927E2,0E0,0E0,0E0,0E0,4.477881E1,5.372178E2,3.3087695E2,0E0,0E0,0E0,0E0,0E0,0E0,0E0,0E0,0E0,0E0,0E0,0E0,0E0,0E0,0E0,0E0,0E0,0E0,0E0,0E0,0E0,0E0,0E0,0E0,0E0,0E0],"parents":[2147483647,0,0,1,1,2,2,3,3,4,4,5,5,6,6,7,7,8,8,9,9,10,10,11,11,12,12,14,14,15,15,16,16,17,17,18,18,19,19,20,20,23,23,24,24,25,25,27,27,29,29,30,30,31,31,32,32,33,33,35,35,36,36,38,38,39,39,44,44,45,45,46,46],"right_children":[2,4,6,8,10,12,14,16,18,20,22,24,26,-1,28,30,32,34,36,38,40,-1,-1,42,44,46,-1,48,-1,50,52,54,56,58,-1,60,62,-1,64,66,-1,-1,-1,-1,68,70,72,-1,-1,-1,-1,-1,-1,-1,-1,-1,-1,-1,-1,-1,-1,-1,-1,-1,-1,-1,-1,-1,-1,-1,-1,-1,-1],"split_conditions":[5.875E0,1.3875E-3,9.2074997E-4,2.48E0,2.2415E3,5E-1,7.5E0,9.8E-1,8.75E-5,3.55E-1,2.00625E-3,5E-1,8.75E-4,2.0507581E0,5E-1,1.05E1,1.1750001E-3,2E0,3.5E0,5E-1,5.4375E0,2.1635919E0,1.0866708E0,8.2075E0,4.375E-5,2.5E0,1.1661972E0,1E1,2.937742E0,8.3125E-4,1.875E-1,5E-1,5E-1,3.375E0,4.7600874E-1,9.5E-4,4.5E0,3.6728973E0,5E-1,1.4895E-3,5.113826E0,1.9073514E0,2.8176699E0,3.7803903E-1,5E-1,1.34375E1,1.235E3,4.862728E0,4.028517E0,2.2787433E0,1.3443987E0,3.1508043E0,5.449028E0,2.3102725E0,1.1978645E0,4.6674223E0,1.756214E0,5.3881173E0,3.6695445E0,2.2896821E0,7.946219E-1,6.7338247E0,2.367E0,1.9975629E0,5.6367874E0,1.1771204E0,2.6745653E0,3.4453433E0,1.6748372E0,5.630981E0,3.2736335E0,2.8432767E0,3.6572063E0],"split_indices":[1,3,3,1,7,2,1,1,3,1,3,10,3,0,10,4,3,4,4,6,1,0,0,1,3,4,0,4,0,3,1,2,7,1,0,3,4,0,0,3,0,0,0,0,0,1,7,0,0,0,0,0,0,0,0,0,0,0,0,0,0,0,0,0,0,0,0,0,0,0,0,0,0],"split_type":[0,0,0,0,0,0,0,0,0,0,0,0,0,0,0,0,0,0,0,0,0,0,0,0,0,0,0,0,0,0,0,0,0,0,0,0,0,0,0,0,0,0,0,0,0,0,0,0,0,0,0,0,0,0,0,0,0,0,0,0,0,0,0,0,0,0,0,0,0,0,0,0,0],"sum_hessian":[3.661E3,3.026E3,6.35E2,2.841E3,1.85E2,4.27E2,2.08E2,2.061E3,7.8E2,1.36E2,4.9E1,1.19E2,3.08E2,1.6E1,1.92E2,1.094E3,9.67E2,8.2E1,6.98E2,5.4E1,8.2E1,3.3E1,1.6E1,8.5E1,3.4E1,2.92E2,1.6E1,1.76E2,1.6E1,1.03E3,6.4E1,8.83E2,8.4E1,6.5E1,1.7E1,3.78E2,3.2E2,2E1,3.4E1,6.6E1,1.6E1,3.3E1,5.2E1,1.6E1,1.8E1,5E1,2.42E2,9.6E1,8E1,8.04E2,2.26E2,3.2E1,3.2E1,2.64E2,6.19E2,3.3E1,5.1E1,3.2E1,3.3E1,2.94E2,8.4E1,1.6E1,3.04E2,2E0,3.2E1,1.6E1,5E1,2E0,1.6E1,1.7E1,3.3E1,1.3E2,1.12E2],"tree_param":{"num_deleted":"0","num_feature":"13","num_nodes":"73","size_leaf_vector":"0"}},{"base_weights":[5.562599E0,4.8956184E0,7.5625644E0,7.392942E0,4.6251063E0,6.6253295E0,9.026481E0,8.9946785E0,5.6614084E0,3.9631164E0,5.4377193E0,6.0069904E0,8.32591E0,1.1145454E1,7.7620664E0,1.2729047E1,6.3346877E0,3.6280842E0,8.779798E0,2.8304267E0,5.595525E0,6.7475896E0,3.4142785E0,8.642746E0,5.630502E0,4.9000926E0,8.706924E0,1.2579731E1,1.01225E1,5.0977087E0,1.0357733E1,1.6416637E1,7.842724E0,-4.398275E0,7.886464E0,2.3911688E0,9.914166E0,1.0468833E1,4.0281906E0,-2.9672232E0,3.2391784E0,1.2379666E1,4.907488E0,7.6681213E0,3.480745E0,1.1300569E0,4.8398466E0,1.0464287E-1,8.8148575E0,3.255468E0,6.326415E0,9.602122E0,7.012877E0,1.077622E1,7.027541E0,3.5145848E0,8.8290825E0,9.027344E0,1.1201292E1,2.1320253E1,-3.441507E0,-2.090569E0,1.3224501E1,8.527028E0,2.4550705E0,1.6600395E0,1.1417615E1,1.8624233E1,6.6374063E0,5.475318E0,2.4550705E0,-6.500412E-1,-4.3111525E0,3.9909806E0,2.106592E-1,1.9488779E0,1.276564E1,1.6134937E1,4.511985E0,9.619234E0,5.4834204E0,-4.429966E0,4.458367E0,-7.3306054E-1,2.4101377E0,-1.1616215E0,5.6803956E0,4.4470963E0,-1.4270988E0,7.2266135E0,4.19077E0,8.464547E0,1.106922E1,2.6788535E0,4.6490164E0,1.2233071E1,4.905735E0],"categories":[],"categories_nodes":[],"categories_segments":[],"categories_sizes":[],"default_left":[true,true,true,true,true,true,true,true,true,true,true,true,true,true,true,true,true,true,true,true,true,true,true,true,true,false,true,false,true,true,true,true,true,false,true,true,true,false,true,true,true,true,true,true,true,true,true,false,false,true,true,true,false,false,false,true,true,false,false,false,false,false,false,false,false,false,false,false,false,false,false,false,false,false,false,false,false,false,false,false,false,false,false,false,false,false,false,false,false,false,false,false,false,false,false,false,false],"id":5,"left_children":[1,3,5,7,9,11,13,15,17,19,21,23,25,27,29,31,33,35,37,39,41,43,45,47,49,-1,51,-1,53,55,57,59,61,-1,63,65,67,-1,69,71,73,75,77,79,81,83,85,-1,-1,87,89,91,-1,-1,-1,93,95,-1,-1,-1,-1,-1,-1,-1,-1,-1,-1,-1,-1,-1,-1,-1,-1,-1,-1,-1,-1,-1,-1,-1,-1,-1,-1,-1,-1,-1,-1,-1,-1,-1,-1,-1,-1,-1,-1,-1,-1],"loss_changes":[4.8478594E3,1.8229062E3,1.1942344E3,6.895918E2,1.3141641E3,5.3989844E2,8.6194727E2,1.2802393E3,7.9877734E2,2.5210059E3,2.9242578E3,3.631543E2,1.4921289E2,6.339746E1,1.50325E3,8.802988E2,1.4004099E3,6.0609717E2,3.6713696E2,1.9338887E3,2.5578477E3,2.0001836E3,1.4240522E3,7.255298E1,5.8433496E2,0E0,1.3132324E2,0E0,8.815234E1,6.364861E2,2.5697266E1,3.0920518E3,1.4175745E3,0E0,2.2956494E2,4.3641165E2,2.4741382E2,0E0,2.0705276E1,1.6536053E2,1.7272866E3,1.8044775E2,2.196292E3,2.1851191E3,1.179803E3,4.0720673E2,1.3686206E3,0E0,0E0,4.8063617E2,5.1186133E2,4.4825684E1,0E0,0E0,0E0,6.434039E1,3.807041E2,0E0,0E0,0E0,0E0,0E0,0E0,0E0,0E0,0E0,0E0,0E0,0E0,0E0,0E0,0E0,0E0,0E0,0E0,0E0,0E0,0E0,0E0,0E0,0E0,0E0,0E0,0E0,0E0,0E0,0E0,0E0,0E0,0E0,0E0,0E0,0E0,0E0,0E0,0E0,0E0],"parents":[2147483647,0,0,1,1,2,2,3,3,4,4,5,5,6,6,7,7,8,8,9,9,10,10,11,11,12,12,13,13,14,14,15,15,16,16,17,17,18,18,19,19,20,20,21,21,22,22,23,23,24,24,26,26,28,28,29,29,30,30,31,31,32,32,34,34,35,35,36,36,38,38,39,39,40,40,41,41,42,42,43,43,44,44,45,45,46,46,49,49,50,50,51,51,55,55,56,56],"right_children":[2,4,6,8,10,12,14,16,18,20,22,24,26,28,30,32,34,36,38,40,42,44,46,48,50,-1,52,-1,54,56,58,60,62,-1,64,66,68,-1,70,72,74,76,78,80,82,84,86,-1,-1,88,90,92,-1,-1,-1,94,96,-1,-1,-1,-1,-1,-1,-1,-1,-1,-1,-1,-1,-1,-1,-1,-1,-1,-1,-1,-1,-1,-1,-1,-1,-1,-1,-1,-1,-1,-1,-1,-1,-1,-1,-1,-1,-1,-1,-1,-1],"split_conditions":[4.875E0,2E-2,9.3750004E-4,3.275E0,5E-1,1.2E1,1.3250001E-3,5E-1,2.235E2,1.73E0,1.645E0,5.1875E0,1.45E-5,6.5825E0,7.75E0,2.7E-5,8.25E-6,4.74E0,7.306E3,1.875E-5,1.125E-4,5E-1,2.02E-4,5E-1,5.875E0,1.4700278E0,7.3325E-4,3.7739193E0,5E-1,1.25E1,5.075E2,5E-1,5E-1,-1.3194826E0,1.9E-3,1.5625E-3,4.8050003E0,3.14065E0,1.85E-3,5E-1,1.3975E0,5E-1,1.7925E0,2.395E2,8.2499996E-2,9.175E-5,1.875E0,3.139286E-2,2.6444573E0,5E-1,8.395E0,5.27E-4,2.1038632E0,3.2328663E0,2.1082625E0,1.4895E-3,6.25E0,2.7082033E0,3.3603878E0,6.396076E0,-1.0324522E0,-6.2717074E-1,3.9673502E0,2.5581086E0,7.365212E-1,4.980119E-1,3.4252846E0,5.5872703E0,1.991222E0,1.6425954E0,7.365212E-1,-1.9501238E-1,-1.2933458E0,1.1972942E0,6.319776E-2,5.846634E-1,3.8296921E0,4.8404813E0,1.3535955E0,2.8857703E0,1.6450262E0,-1.3289899E0,1.3375101E0,-2.1991818E-1,7.230413E-1,-3.4848645E-1,1.7041187E0,1.334129E0,-4.2812964E-1,2.1679842E0,1.2572311E0,2.5393643E0,3.320766E0,8.036561E-1,1.3947049E0,3.6699216E0,1.4717206E0],"split_indices":[1,1,3,5,6,1,3,7,7,1,1,1,3,1,1,3,3,5,7,3,3,12,3,0,1,0,3,0,10,4,7,10,10,0,3,3,5,0,3,10,1,0,1,7,1,3,1,0,0,11,1,3,0,0,0,3,1,0,0,0,0,0,0,0,0,0,0,0,0,0,0,0,0,0,0,0,0,0,0,0,0,0,0,0,0,0,0,0,0,0,0,0,0,0,0,0,0],"split_type":[0,0,0,0,0,0,0,0,0,0,0,0,0,0,0,0,0,0,0,0,0,0,0,0,0,0,0,0,0,0,0,0,0,0,0,0,0,0,0,0,0,0,0,0,0,0,0,0,0,0,0,0,0,0,0,0,0,0,0,0,0,0,0,0,0,0,0,0,0,0,0,0,0,0,0,0,0,0,0,0,0,0,0,0,0,0,0,0,0,0,0,0,0,0,0,0,0],"sum_hessian":[3.661E3,2.748E3,9.13E2,2.66E2,2.482E3,5.6E2,3.53E2,1.36E2,1.3E2,1.371E3,1.111E3,4.14E2,1.46E2,1.29E2,2.24E2,5.5E1,8.1E1,8E1,5E1,8.11E2,5.6E2,6.73E2,4.38E2,4.9E1,3.65E2,1.6E1,1.3E2,4.9E1,8E1,1.12E2,1.12E2,3E1,2.5E1,1E1,7.1E1,6.8E1,1.2E1,3.6E1,1.4E1,5.3E1,7.58E2,5E1,5.1E2,5.24E2,1.49E2,1.69E2,2.69E2,1E0,4.8E1,8.4E1,2.81E2,8.2E1,4.8E1,6.4E1,1.6E1,8E1,3.2E1,4.8E1,6.4E1,2.4E1,6E0,9E0,1.6E1,6.3E1,8E0,6.4E1,4E0,2E0,1E1,6E0,8E0,2E1,3.3E1,6.07E2,1.51E2,2E0,4.8E1,1.6E1,4.94E2,2.75E2,2.49E2,1.6E1,1.33E2,6.9E1,1E2,3.3E1,2.36E2,6.7E1,1.7E1,1.96E2,8.5E1,5E1,3.2E1,4.8E1,3.2E1,1.6E1,1.6E1],"tree_param":{"num_deleted":"0","num_feature":"13","num_nodes":"97","size_leaf_vector":"0"}},{"base_weights":[3.9166057E0,3.4431129E0,5.336426E0,5.2788057E0,3.2443318E0,5.0908575E0,8.465609E0,1.0904282E1,4.971316E0,3.3025582E0,-1.1786203E0,4.1641927E0,5.5484695E0,9.980979E0,6.693705E0,4.4954085E0,2.0259396E1,3.6548457E0,6.0785317E0,3.1132796E0,4.8199787E0,-4.7015738E-1,-1.8177526E0,3.6619177E0,5.807864E0,5.2667427E0,7.170331E0,1.0656073E0,6.0327077E0,2.4552782E1,9.212877E0,5.9294767E0,-8.379642E-2,6.939699E0,3.0359616E0,2.3982048E0,3.9655035E0,6.605172E0,2.4992278E0,6.0955715E0,3.2023106E0,6.6527877E0,4.786945E0,5.6845303E0,4.2450185E0,7.718007E0,4.654491E0,-3.7829866E0,1.7602303E1,9.328427E0,-2.0129106E0,-3.8064945E0,4.150351E0,5.659288E0,9.484708E0,3.927604E0,1.898844E0,1.09461E0,3.560979E0,3.520939E0,7.470272E0,7.7613835E0,-2.4333663E0,1.9956124E-1,5.780393E0,8.894634E-2,6.2748947E0,-1.2174162E0,3.6205258E0,5.3049183E0,8.967339E0,3.1544511E0,6.317263E0],"categories":[],"categories_nodes":[],"categories_segments":[],"categories_sizes":[],"default_left":[true,true,true,true,true,true,true,true,true,true,true,true,true,false,false,true,true,true,true,true,true,false,false,true,true,true,true,false,false,false,true,true,true,true,true,true,true,true,true,true,true,false,false,true,true,false,false,false,false,false,false,false,false,false,false,false,false,false,false,false,false,false,false,false,false,false,false,false,false,false,false,false,false],"id":6,"left_children":[1,3,5,7,9,11,13,15,17,19,21,23,25,-1,-1,27,29,31,33,35,37,-1,-1,39,41,43,45,-1,-1,-1,47,49,51,53,55,57,59,61,63,65,67,-1,-1,69,71,-1,-1,-1,-1,-1,-1,-1,-1,-1,-1,-1,-1,-1,-1,-1,-1,-1,-1,-1,-1,-1,-1,-1,-1,-1,-1,-1,-1],"loss_changes":[2.443496E3,9.859883E2,6.592461E2,4.0764258E2,6.4334766E2,3.3733984E2,1.0772119E2,6.883502E2,3.4947607E2,6.88959E2,1.4087822E1,2.1402148E2,2.2085352E2,0E0,0E0,4.1025177E1,1.0933105E1,1.01247644E3,3.3789355E2,1.320209E3,1.1020991E3,0E0,0E0,2.2767407E2,2.4222168E1,1.833252E2,7.568359E1,0E0,0E0,0E0,3.9367276E2,2.0164648E3,7.4087115E2,2.9174072E2,2.4986969E1,1.7983726E3,1.5224443E3,1.607356E3,8.967712E2,3.606433E1,3.5190637E2,0E0,0E0,3.7862695E2,3.0776147E2,0E0,0E0,0E0,0E0,0E0,0E0,0E0,0E0,0E0,0E0,0E0,0E0,0E0,0E0,0E0,0E0,0E0,0E0,0E0,0E0,0E0,0E0,0E0,0E0,0E0,0E0,0E0,0E0],"parents":[2147483647,0,0,1,1,2,2,3,3,4,4,5,5,6,6,7,7,8,8,9,9,10,10,11,11,12,12,15,15,16,16,17,17,18,18,19,19,20,20,23,23,24,24,25,25,26,26,30,30,31,31,32,32,33,33,34,34,35,35,36,36,37,37,38,38,39,39,40,40,43,43,44,44],"right_children":[2,4,6,8,10,12,14,16,18,20,22,24,26,-1,-1,28,30,32,34,36,38,-1,-1,40,42,44,46,-1,-1,-1,48,50,52,54,56,58,60,62,64,66,68,-1,-1,70,72,-1,-1,-1,-1,-1,-1,-1,-1,-1,-1,-1,-1,-1,-1,-1,-1,-1,-1,-1,-1,-1,-1,-1,-1,-1,-1,-1,-1],"split_conditions":[4.875E0,2E-2,1.675E1,1.81E0,4.665E0,5.02E-4,1.2E1,5E-1,3.6449998E-4,3.21E0,8.9375E-4,7E0,5.85E3,2.9942937E0,2.0081117E0,1.285E0,1.285E0,5E-1,7.306E3,5E-1,5E-1,-1.4104722E-1,-5.453258E-1,5.1875E0,3.52E-4,1.3250001E-3,3.1151E4,3.196822E-1,1.8098124E0,7.3658347E0,5E-1,5E-1,5E-1,5E-1,1.85E-3,4.3E1,5E-1,1.0665E-3,8.5E0,5E-1,5.375E0,1.9958364E0,1.4360836E0,1.225E-3,1.25E1,2.3154023E0,1.3963473E0,-1.134896E0,5.280691E0,2.7985282E0,-6.038732E-1,-1.1419483E0,1.2451054E0,1.6977865E0,2.8454125E0,1.1782812E0,5.696532E-1,3.28383E-1,1.0682937E0,1.0562818E0,2.2410817E0,2.3284152E0,-7.300099E-1,5.9868373E-2,1.734118E0,2.6683904E-2,1.8824685E0,-3.6522487E-1,1.0861578E0,1.5914756E0,2.6902018E0,9.463354E-1,1.895179E0],"split_indices":[1,1,1,5,1,3,4,8,3,1,3,4,7,0,0,5,5,7,7,6,6,0,0,1,3,3,7,0,0,0,0,10,10,6,3,7,10,3,4,0,1,0,0,3,4,0,0,0,0,0,0,0,0,0,0,0,0,0,0,0,0,0,0,0,0,0,0,0,0,0,0,0,0],"split_type":[0,0,0,0,0,0,0,0,0,0,0,0,0,0,0,0,0,0,0,0,0,0,0,0,0,0,0,0,0,0,0,0,0,0,0,0,0,0,0,0,0,0,0,0,0,0,0,0,0,0,0,0,0,0,0,0,0,0,0,0,0,0,0,0,0,0,0,0,0,0,0,0,0],"sum_hessian":[3.661E3,2.748E3,9.13E2,2.66E2,2.482E3,8.49E2,6.4E1,1.2E1,2.54E2,2.45E3,3.2E1,2.84E2,5.65E2,3.2E1,3.2E1,8E0,4E0,1.18E2,1.36E2,2.181E3,2.69E2,1.6E1,1.6E1,2.2E2,6.4E1,4.85E2,8E1,3E0,5E0,2E0,2E0,7.3E1,4.5E1,1.05E2,3.1E1,1.188E3,9.93E2,1.51E2,1.18E2,3.3E1,1.87E2,3.2E1,3.2E1,3.41E2,1.44E2,6.4E1,1.6E1,1E0,1E0,5.1E1,2.2E1,2.4E1,2.1E1,7.2E1,3.3E1,1.6E1,1.5E1,5.61E2,6.27E2,8.83E2,1.1E2,1.34E2,1.7E1,7E1,4.8E1,1E0,3.2E1,1.6E1,1.71E2,3.08E2,3.3E1,9.6E1,4.8E1],"tree_param":{"num_deleted":"0","num_feature":"13","num_nodes":"73","size_leaf_vector":"0"}},{"base_weights":[2.755695E0,2.4209573E0,3.7594576E0,2.31509E0,4.6816E0,3.2451391E0,4.563902E0,2.5506492E0,1.5366191E0,5.5521774E0,2.1654305E0,3.4765277E0,7.564149E-1,5.7520404E0,3.8571382E0,2.3458965E0,5.710122E0,1.9703207E0,-2.0877006E0,6.2777667E0,4.2326016E0,2.8186328E0,1.3848501E0,2.9681969E0,4.178551E0,2.23405E0,-2.7712734E-2,1.358556E1,5.586001E0,2.4266925E0,5.25345E0,2.5488937E0,-7.051271E-1,9.317018E0,1.4644077E-1,1.6111857E0,5.364932E0,-5.4913014E-1,-2.6102836E0,6.3720284E0,5.4668427E-1,1.0165548E0,4.297292E0,3.233112E0,9.283164E-1,5.528006E0,3.521418E0,-1.6238582E-1,1.0859052E-1,5.843555E0,3.5454352E0,1.5526983E0,4.498415E0,6.058205E0,4.5659657E0,2.306463E0,5.9072433E0,1.241088E1,-1.511383E0,1.0588495E1,4.4309764E0,-1.3254843E0,9.002676E-1,2.4461446E0,1.010842E-1,2.7561927E0,1.0573738E1,4.8282185E0,7.1835513E0,2.7323902E0,4.2493634E0,-1.3012139E0,2.7770014E0,7.1554694E0,3.5850756E0,1.5696309E0,4.491191E0,3.8598273E0,6.1309757E0,9.645772E-1,2.3789175E0,6.995329E0,1.7368882E0],"categories":[],"categories_nodes":[],"categories_segments":[],"categories_sizes":[],"default_left":[true,true,true,true,true,true,true,true,true,true,true,true,true,true,true,true,true,true,true,true,true,false,false,true,true,false,true,false,true,true,true,true,true,true,true,true,true,false,false,true,false,false,false,true,true,true,true,false,false,true,false,true,true,false,false,false,false,false,false,false,false,false,false,false,false,false,false,false,false,false,false,false,false,false,false,false,false,false,false,false,false,false,false],"id":7,"left_children":[1,3,5,7,9,11,13,15,17,19,21,23,25,27,29,31,33,35,37,39,41,-1,-1,43,45,-1,47,-1,49,51,53,55,57,59,61,63,65,-1,-1,67,-1,-1,-1,69,71,73,75,-1,-1,77,-1,79,81,-1,-1,-1,-1,-1,-1,-1,-1,-1,-1,-1,-1,-1,-1,-1,-1,-1,-1,-1,-1,-1,-1,-1,-1,-1,-1,-1,-1,-1,-1],"loss_changes":[1.2213203E3,6.470762E2,3.633496E2,4.7799316E2,2.552207E2,3.204292E2,2.750786E2,1.2907764E3,9.676719E2,5.960083E1,1.2922562E1,1.706665E2,5.683599E1,9.319873E1,4.366548E2,1.1754639E3,2.4468848E3,6.5943604E2,5.163263E1,2.6768799E1,2.913269E0,0E0,0E0,1.5965747E2,1.6941577E2,0E0,6.233942E-1,0E0,4.7078613E1,1.9762146E2,3.485669E1,1.4331504E3,1.2771658E3,4.1280713E2,5.556255E1,6.264065E2,6.7745447E2,0E0,0E0,3.4222412E1,0E0,0E0,0E0,1.2374585E2,1.5199463E2,1.8936646E2,2.6929785E2,0E0,0E0,4.076416E1,0E0,3.7064606E1,2.1539465E2,0E0,0E0,0E0,0E0,0E0,0E0,0E0,0E0,0E0,0E0,0E0,0E0,0E0,0E0,0E0,0E0,0E0,0E0,0E0,0E0,0E0,0E0,0E0,0E0,0E0,0E0,0E0,0E0,0E0,0E0],"parents":[2147483647,0,0,1,1,2,2,3,3,4,4,5,5,6,6,7,7,8,8,9,9,10,10,11,11,12,12,13,13,14,14,15,15,16,16,17,17,18,18,19,19,20,20,23,23,24,24,26,26,28,28,29,29,30,30,31,31,32,32,33,33,34,34,35,35,36,36,39,39,43,43,44,44,45,45,46,46,49,49,51,51,52,52],"right_children":[2,4,6,8,10,12,14,16,18,20,22,24,26,28,30,32,34,36,38,40,42,-1,-1,44,46,-1,48,-1,50,52,54,56,58,60,62,64,66,-1,-1,68,-1,-1,-1,70,72,74,76,-1,-1,78,-1,80,82,-1,-1,-1,-1,-1,-1,-1,-1,-1,-1,-1,-1,-1,-1,-1,-1,-1,-1,-1,-1,-1,-1,-1,-1,-1,-1,-1,-1,-1,-1],"split_conditions":[4.875E0,1.38325E-3,9.3750004E-4,7.1249995E-4,8.382E3,8.75E-4,1.3250001E-3,6.1875E-4,1.407E3,3.55E-1,1.85E-3,5.0824997E-4,5.4575E0,5E-1,7.75E0,5.27E-4,9.455E2,7.14E2,5E-1,2.57725E-3,1.0625E0,8.455899E-1,4.1545507E-1,5E-1,4.5E0,6.70215E-1,7.0825E0,4.0756683E0,5E-1,1.25E1,1.1E1,4.8525003E-4,5E-1,3.875E0,1.5425E0,2.395E2,1.6675E0,-1.6473904E-1,-7.830851E-1,5E-1,1.6400528E-1,3.0496645E-1,1.2891877E0,8.25E0,4.375E-5,1.075E3,1.13E3,-4.8715748E-2,3.2577157E-2,9.5200003E-4,1.0636306E0,1.4895E-3,6.25E0,1.8174616E0,1.3697897E0,6.9193894E-1,1.772173E0,3.7232642E0,-4.5341495E-1,3.1765487E0,1.329293E0,-3.976453E-1,2.700803E-1,7.338434E-1,3.0325262E-2,8.2685786E-1,3.1721215E0,1.4484656E0,2.1550655E0,8.197171E-1,1.2748091E0,-3.9036417E-1,8.3310044E-1,2.146641E0,1.0755228E0,4.7088927E-1,1.3473573E0,1.1579483E0,1.8392928E0,2.8937316E-1,7.1367526E-1,2.0985987E0,5.210665E-1],"split_indices":[1,3,3,3,7,3,3,3,7,1,3,3,1,0,1,3,7,7,2,3,1,0,0,10,4,0,1,0,10,4,4,3,0,1,1,7,1,0,0,6,0,0,0,1,3,7,7,0,0,3,0,3,1,0,0,0,0,0,0,0,0,0,0,0,0,0,0,0,0,0,0,0,0,0,0,0,0,0,0,0,0,0,0],"split_type":[0,0,0,0,0,0,0,0,0,0,0,0,0,0,0,0,0,0,0,0,0,0,0,0,0,0,0,0,0,0,0,0,0,0,0,0,0,0,0,0,0,0,0,0,0,0,0,0,0,0,0,0,0,0,0,0,0,0,0,0,0,0,0,0,0,0,0,0,0,0,0,0,0,0,0,0,0,0,0,0,0,0,0],"sum_hessian":[3.661E3,2.748E3,9.13E2,2.627E3,1.21E2,5.6E2,3.53E2,2.015E3,6.12E2,8.9E1,3.2E1,5.12E2,4.8E1,1.29E2,2.24E2,1.894E3,1.21E2,5.47E2,6.5E1,5.5E1,3.4E1,1.6E1,1.6E1,3E2,2.12E2,1.6E1,3.2E1,1E0,1.28E2,1.12E2,1.12E2,1.776E3,1.18E2,7.3E1,4.8E1,4.96E2,5.1E1,1.7E1,4.8E1,5.4E1,1E0,1E0,3.3E1,2.65E2,3.5E1,6.7E1,1.45E2,1.6E1,1.6E1,1.12E2,1.6E1,8E1,3.2E1,4.8E1,6.4E1,1.658E3,1.18E2,6E0,1.12E2,5.7E1,1.6E1,1.6E1,3.2E1,3.19E2,1.77E2,3.5E1,1.6E1,2.1E1,3.3E1,1.8E2,8.5E1,1.6E1,1.9E1,3.5E1,3.2E1,4.9E1,9.6E1,1.6E1,9.6E1,4.8E1,3.2E1,1.6E1,1.6E1],"tree_param":{"num_deleted":"0","num_feature":"13","num_nodes":"83","size_leaf_vector":"0"}},{"base_weights":[1.9409277E0,1.7021457E0,2.6569788E0,1.743081E0,-1.7197719E0,2.518391E0,4.428405E0,1.6521428E0,3.3564973E0,-2.005335E0,-1.3330455E0,5.952277E0,2.436946E0,5.304449E0,3.4181666E0,1.6177455E0,6.7307396E0,3.8576171E0,1.5540147E0,1.3252283E1,2.3985403E0,1.4228085E0,2.6193137E0,2.7330976E0,1.4581852E0,1.6658746E0,4.1793723E0,2.022783E0,9.938338E-1,1.530138E1,1.5034008E0,1.8712997E-1,7.8802834E0,3.6545928E0,6.4887357E-1,2.3374014E0,3.1035297E0,1.3240344E-2,4.887517E0,-5.7563096E-1,1.6979837E0,6.1794796E0,9.530023E-1,3.0452657E0,4.6908517E0,1.3435202E0,-2.172433E0,9.034316E0,2.209093E0,-3.6669075E-1,2.6295648E0,2.7736642E0,1.5397776E0,3.2221398E0,1.2464725E0],"categories":[],"categories_nodes":[],"categories_segments":[],"categories_sizes":[],"default_left":[true,true,true,true,true,true,true,true,true,false,false,true,true,false,false,true,false,true,true,true,true,true,true,true,true,true,true,false,false,false,false,true,true,false,true,true,true,false,false,false,false,false,false,false,false,false,false,false,false,false,false,false,false,false,false],"id":8,"left_children":[1,3,5,7,9,11,13,15,17,-1,-1,19,21,-1,-1,23,-1,25,27,29,31,33,35,37,39,41,43,-1,-1,-1,-1,45,47,-1,49,51,53,-1,-1,-1,-1,-1,-1,-1,-1,-1,-1,-1,-1,-1,-1,-1,-1,-1,-1],"loss_changes":[6.2160547E2,3.880703E2,2.1323291E2,3.930957E2,9.7114563E-1,2.232168E2,3.939441E1,4.3876367E2,1.24074585E2,0E0,0E0,4.611176E2,1.5014795E2,0E0,0E0,4.5125146E2,0E0,7.202063E1,6.655327E0,1.2144348E2,1.6823872E2,2.2044464E2,8.884668E1,1.8691836E3,1.093439E3,4.5592922E1,4.1982056E1,0E0,0E0,0E0,0E0,3.2933037E1,6.221298E0,0E0,1.960816E2,1.5196948E2,5.2371826E1,0E0,0E0,0E0,0E0,0E0,0E0,0E0,0E0,0E0,0E0,0E0,0E0,0E0,0E0,0E0,0E0,0E0,0E0],"parents":[2147483647,0,0,1,1,2,2,3,3,4,4,5,5,6,6,7,7,8,8,11,11,12,12,15,15,17,17,18,18,19,19,20,20,21,21,22,22,23,23,24,24,25,25,26,26,31,31,32,32,34,34,35,35,36,36],"right_children":[2,4,6,8,10,12,14,16,18,-1,-1,20,22,-1,-1,24,-1,26,28,30,32,34,36,38,40,42,44,-1,-1,-1,-1,46,48,-1,50,52,54,-1,-1,-1,-1,-1,-1,-1,-1,-1,-1,-1,-1,-1,-1,-1,-1,-1,-1],"split_conditions":[4.875E0,4.665E0,1.675E1,1.252E-3,8.9375E-4,5E-1,1.2E1,3.8363E4,8.382E3,-6.016005E-1,-3.9991367E-1,5E-1,2.8550002E-4,1.5913348E0,1.02545E0,4.8E-5,2.019222E0,5E-1,1.85E-3,1.6874999E-3,2.75E1,5.1875E0,1.296E3,5E-1,8.1E-5,1.575E0,5E-1,6.0683495E-1,2.9815015E-1,4.590414E0,4.5102027E-1,5E-1,1.16675E1,1.0963778E0,2E0,1.51E2,1.55E1,3.9721034E-3,1.4662552E0,-1.7268929E-1,5.093951E-1,1.8538439E0,2.8590068E-1,9.1357976E-1,1.4072555E0,4.0305606E-1,-6.517299E-1,2.710295E0,6.6272795E-1,-1.10007234E-1,7.8886944E-1,8.320993E-1,4.619333E-1,9.6664196E-1,3.7394175E-1],"split_indices":[1,1,1,3,3,0,4,7,7,0,0,6,3,0,0,3,0,0,3,3,7,1,7,11,3,5,6,0,0,0,0,2,1,0,4,7,4,0,0,0,0,0,0,0,0,0,0,0,0,0,0,0,0,0,0],"split_type":[0,0,0,0,0,0,0,0,0,0,0,0,0,0,0,0,0,0,0,0,0,0,0,0,0,0,0,0,0,0,0,0,0,0,0,0,0,0,0,0,0,0,0,0,0,0,0,0,0,0,0,0,0,0,0],"sum_hessian":[3.661E3,2.748E3,9.13E2,2.716E3,3.2E1,8.49E2,6.4E1,2.573E3,1.43E2,1.6E1,1.6E1,1.8E1,8.31E2,3.2E1,3.2E1,2.557E3,1.6E1,1.11E2,3.2E1,5E0,1.3E1,1.28E2,7.03E2,3.18E2,2.239E3,1.5E1,9.6E1,1.6E1,1.6E1,4E0,1E0,1E1,3E0,3.2E1,9.6E1,4.48E2,2.55E2,1.41E2,1.77E2,2.36E2,2.003E3,1E0,1.4E1,3.2E1,6.4E1,7E0,3E0,2E0,1E0,6.4E1,3.2E1,2.88E2,1.6E2,2.39E2,1.6E1],"tree_param":{"num_deleted":"0","num_feature":"13","num_nodes":"55","size_leaf_vector":"0"}},{"base_weights":[1.3650343E0,1.0815663E0,1.7742705E0,1.2512257E0,-7.7478206E-1,1.9296701E0,3.3400494E-1,1.7688653E0,7.848466E-1,-1.1764358E0,3.1928244E0,2.827631E0,1.5516889E0,5.1736817E0,-3.814049E-1,1.1553282E0,6.1171355E0,-1.5129858E0,1.2738575E0,4.1800256E0,-1.3687484E0,3.5369377E0,6.424897E-1,1.5096882E-1,1.8821429E0,6.969911E0,-1.2497418E0,-3.3924654E0,6.4690846E-1,2.4262687E-2,3.0149832E0,3.213703E0,6.5832434E0,4.4112606E0,-2.3867059E0,1.7071996E0,-2.4051279E-2,6.372039E-1,5.7921357E0,-2.0121377E0,1.4291942E-1,5.783598E0,1.7479274E0,-1.2764264E0,2.6266167E0,-5.042118E-1,3.0370312E0,1.0495581E1,1.6857051E0,7.9151483E0,-3.1317043E0,-4.2220445E0,5.3197346E0,-1.6275222E0,-4.9578514E0,-4.2687055E-1,1.7074853E0,1.0746449E0,-1.699566E0,1.0236278E0,4.488875E0,8.40868E-1,3.3038187E0,9.235972E0,5.960597E0,-2.0468307E0,7.768233E0,8.034686E-1,-2.7442663E0,1.3915157E0,7.538664E0,-6.8834896E0,6.6894275E-1,-4.990959E-2,1.0057154E0,1.9499187E0,8.659393E0,-2.5249672E0,-6.924004E-1,1.421121E0,-5.19879E-1,5.5844445E0,1.6035921E1,3.5469036E0,1.2685785E0,-1.9224598E0,1.47714615E-2,2.0611608E0,2.8383179E0,1.0803981E0,-9.430924E-1,2.2662318E0,3.5962846E0,5.432923E0,1.4236126E0,-5.865116E-1,8.614239E0,8.054228E-1,-6.1663413E0,-7.542198E-1,2.3368207E-1,2.3402495E0,1.3297739E0],"categories":[],"categories_nodes":[],"categories_segments":[],"categories_sizes":[],"default_left":[true,true,true,true,true,true,true,true,true,true,false,true,true,true,true,true,true,true,true,true,true,true,true,true,true,true,true,true,true,true,true,true,true,true,true,true,true,true,true,true,true,true,true,true,true,true,true,false,true,true,false,true,false,false,false,true,true,false,false,false,false,false,false,false,false,false,false,false,false,false,false,false,false,false,false,false,false,false,false,false,false,false,false,false,false,false,false,false,false,false,false,false,false,false,false,false,false,false,false,false,false,false,false],"id":9,"left_children":[1,3,5,7,9,11,13,15,17,19,-1,21,23,25,27,29,31,33,35,37,39,41,43,45,47,49,51,53,55,57,59,61,63,65,67,69,71,73,75,77,79,81,83,85,87,89,91,-1,93,95,-1,97,-1,-1,-1,99,101,-1,-1,-1,-1,-1,-1,-1,-1,-1,-1,-1,-1,-1,-1,-1,-1,-1,-1,-1,-1,-1,-1,-1,-1,-1,-1,-1,-1,-1,-1,-1,-1,-1,-1,-1,-1,-1,-1,-1,-1,-1,-1,-1,-1,-1,-1],"loss_changes":[4.2289258E2,6.8314453E2,3.344087E2,4.77823E2,2.937921E2,4.541587E2,5.109391E2,2.5006892E3,1.1772808E3,1.7672052E2,0E0,6.1615186E2,4.4083447E2,2.2793143E2,4.0161908E2,1.7352247E3,1.3582715E2,9.6293677E2,4.854254E2,3.0577728E1,1.5687473E2,1.1996995E3,3.8028265E2,3.4756458E2,1.2868433E3,1.6801428E2,1.20092514E2,8.3104004E1,1.11194916E2,9.3251544E2,9.111382E2,1.0708618E0,1.0846777E2,5.362115E2,1.8585449E2,1.1805712E3,1.036125E3,8.0982256E-1,2.7181396E1,7.47301E1,4.2251118E1,1.8200586E2,1.4123547E2,4.2570404E1,1.5472412E-2,1.053371E2,6.506439E0,0E0,7.337644E2,8.8260315E1,0E0,4.4066063E1,0E0,0E0,0E0,1.07715845E1,8.599106E0,0E0,0E0,0E0,0E0,0E0,0E0,0E0,0E0,0E0,0E0,0E0,0E0,0E0,0E0,0E0,0E0,0E0,0E0,0E0,0E0,0E0,0E0,0E0,0E0,0E0,0E0,0E0,0E0,0E0,0E0,0E0,0E0,0E0,0E0,0E0,0E0,0E0,0E0,0E0,0E0,0E0,0E0,0E0,0E0,0E0,0E0],"parents":[2147483647,0,0,1,1,2,2,3,3,4,4,5,5,6,6,7,7,8,8,9,9,11,11,12,12,13,13,14,14,15,15,16,16,17,17,18,18,19,19,20,20,21,21,22,22,23,23,24,24,25,25,26,26,27,27,28,28,29,29,30,30,31,31,32,32,33,33,34,34,35,35,36,36,37,37,38,38,39,39,40,40,41,41,42,42,43,43,44,44,45,45,46,46,48,48,49,49,51,51,55,55,56,56],"right_children":[2,4,6,8,10,12,14,16,18,20,-1,22,24,26,28,30,32,34,36,38,40,42,44,46,48,50,52,54,56,58,60,62,64,66,68,70,72,74,76,78,80,82,84,86,88,90,92,-1,94,96,-1,98,-1,-1,-1,100,102,-1,-1,-1,-1,-1,-1,-1,-1,-1,-1,-1,-1,-1,-1,-1,-1,-1,-1,-1,-1,-1,-1,-1,-1,-1,-1,-1,-1,-1,-1,-1,-1,-1,-1,-1,-1,-1,-1,-1,-1,-1,-1,-1,-1,-1,-1],"split_conditions":[2.48E0,2.0625E0,5E-1,2.3125E-4,1.227E-3,1.5E0,5E-1,6.5E0,3.02E-4,5E-1,9.5784736E-1,9.5E-4,3.5E0,4.095E0,3.6675E0,8.95E-5,1.875E-1,5E-1,9.8E2,5E-1,5.5E0,4.79E0,6.875E0,6.395E0,4.5E0,4.03E2,7.625E0,2.7925E0,5.0625E-4,5.2E-5,5E-1,5E-1,3.3249998E-1,1.05000004E-1,2E-2,7.14E2,1.029E3,2.1875E0,3.3325E-4,2.3125E0,6.5E0,7.7499996E-4,5E-1,3.5E0,8.25E0,1.75E-4,2.5E1,3.1486742E0,2.5425E0,1.795E0,-9.3951136E-1,2.875E0,1.5959204E0,-4.882567E-1,-1.4873555E0,1.05E1,5.125E0,3.2239348E-1,-5.098698E-1,3.0708835E-1,1.3466625E0,2.5226042E-1,9.911457E-1,2.7707918E0,1.7881792E0,-6.140492E-1,2.3304698E0,2.4104059E-1,-8.232799E-1,4.1745475E-1,2.2615993E0,-2.065047E0,2.0068283E-1,-1.4972878E-2,3.0171463E-1,5.8497566E-1,2.5978181E0,-7.574902E-1,-2.0772013E-1,4.2633632E-1,-1.559637E-1,1.6753334E0,4.8107767E0,1.0640712E0,3.8057357E-1,-5.76738E-1,4.4314386E-3,6.1834824E-1,8.514954E-1,3.2411945E-1,-2.8292772E-1,6.7986953E-1,1.0788854E0,1.629877E0,4.270838E-1,-1.7595349E-1,2.5842717E0,2.4162684E-1,-1.8499025E0,-2.2626594E-1,7.010462E-2,7.020749E-1,3.989322E-1],"split_indices":[1,1,10,3,3,4,0,4,3,0,0,3,4,5,1,3,1,0,7,8,4,1,1,1,4,7,1,1,3,3,6,0,1,1,1,7,7,1,3,1,4,3,11,1,1,3,7,0,1,5,0,1,0,0,0,1,1,0,0,0,0,0,0,0,0,0,0,0,0,0,0,0,0,0,0,0,0,0,0,0,0,0,0,0,0,0,0,0,0,0,0,0,0,0,0,0,0,0,0,0,0,0,0],"split_type":[0,0,0,0,0,0,0,0,0,0,0,0,0,0,0,0,0,0,0,0,0,0,0,0,0,0,0,0,0,0,0,0,0,0,0,0,0,0,0,0,0,0,0,0,0,0,0,0,0,0,0,0,0,0,0,0,0,0,0,0,0,0,0,0,0,0,0,0,0,0,0,0,0,0,0,0,0,0,0,0,0,0,0,0,0,0,0,0,0,0,0,0,0,0,0,0,0,0,0,0,0,0,0],"sum_hessian":[3.661E3,2.165E3,1.496E3,1.984E3,1.81E2,1.35E3,1.46E2,9.39E2,1.045E3,1.65E2,1.6E1,3.98E2,9.52E2,1.8E1,1.28E2,8.24E2,1.15E2,1.83E2,8.62E2,5E0,1.6E2,3E2,9.8E1,1.82E2,7.7E2,1.4E1,4E0,3.2E1,9.6E1,5.13E2,3.11E2,1.7E1,9.8E1,2.3E1,1.6E2,6.46E2,2.16E2,2E0,3E0,1.12E2,4.8E1,1.32E2,1.68E2,5E1,4.8E1,1.49E2,3.3E1,1.6E1,7.54E2,1.3E1,1E0,3E0,1E0,1.6E1,1.6E1,4.8E1,4.8E1,3.19E2,1.94E2,1.33E2,1.78E2,1E0,1.6E1,1.6E1,8.2E1,8E0,1.5E1,1.6E1,1.44E2,6.14E2,3.2E1,1.9E1,1.97E2,1E0,1E0,2E0,1E0,8E1,3.2E1,1.6E1,3.2E1,1.31E2,1E0,3.4E1,1.34E2,3.3E1,1.7E1,1.6E1,3.2E1,3.2E1,1.17E2,1.6E1,1.7E1,4.8E1,7.06E2,1E0,1.2E1,1E0,2E0,3.2E1,1.6E1,1.6E1,3.2E1],"tree_param":{"num_deleted":"0","num_feature":"13","num_nodes":"103","size_leaf_vector":"0"}},{"base_weights":[9.635005E-1,8.83951E-1,2.0052886E0,7.840836E-1,1.6559715E0,2.1591585E0,8.860844E-1,8.671869E-1,-2.237833E0,8.810357E-1,2.414551E0,1.1566793E0,2.4286237E0,-2.2653736E-1,1.9465835E0,8.3234996E-1,6.4684024E0,-1.3312764E0,-3.5161188E0,1.4823209E0,-9.285291E-1,3.158641E0,1.786348E-1,-1.0477638E-1,1.1845616E0,4.196966E0,2.2158363E0,7.220253E-1,1.6670712E0,1.8761749E0,6.62817E0,-1.9169654E0,-1.160404E-1,-2.614448E0,-4.210959E0,5.3006256E-1,2.6608264E0,-1.7704672E0,7.604406E-1,3.9980826E0,1.3981647E0,-1.6220452E0,1.0737208E0,1.8553995E0,2.7196288E0,4.831854E-1,1.2058659E0,5.5255337E0,1.2202958E0,8.1218207E-1,-5.96405E-1,1.262766E0,3.0915651E0,-1.1826602E0,-2.254129E0,2.7262459E0,5.2402377E0,-3.7216365E-1,2.2677834E0,4.4197124E-1,1.6794721E0,1.9708636E0,1.196106E0,3.3471956E0,2.009649E0],"categories":[],"categories_nodes":[],"categories_segments":[],"categories_sizes":[],"default_left":[true,true,true,true,true,true,true,true,true,true,true,true,true,false,false,true,true,true,true,true,true,true,true,false,false,false,true,true,true,false,false,false,false,false,false,true,true,true,false,true,true,false,true,true,true,false,false,false,false,false,false,false,false,false,false,false,false,false,false,false,false,false,false,false,false],"id":10,"left_children":[1,3,5,7,9,11,13,15,17,19,21,23,25,-1,-1,27,29,31,33,35,37,39,41,-1,-1,-1,43,45,47,-1,-1,-1,-1,-1,-1,49,51,53,-1,55,57,-1,59,61,63,-1,-1,-1,-1,-1,-1,-1,-1,-1,-1,-1,-1,-1,-1,-1,-1,-1,-1,-1,-1],"loss_changes":[3.0171118E2,2.6114868E2,4.2689697E1,7.5935205E2,2.2654651E2,5.851111E1,3.937881E1,5.675156E2,8.9185E1,2.124609E2,3.255255E2,1.8827286E0,5.7678345E1,0E0,0E0,2.6760803E2,7.70813E-1,3.465332E1,9.665741E0,1.6243689E2,7.102472E1,2.1164905E2,8.2329796E1,0E0,0E0,0E0,2.4189209E1,2.975631E2,5.793717E2,0E0,0E0,0E0,0E0,0E0,0E0,2.6543865E1,3.5238983E1,6.7160187E0,0E0,1.4211572E2,7.6280014E1,0E0,1.2268948E1,5.0267334E0,2.223465E1,0E0,0E0,0E0,0E0,0E0,0E0,0E0,0E0,0E0,0E0,0E0,0E0,0E0,0E0,0E0,0E0,0E0,0E0,0E0,0E0],"parents":[2147483647,0,0,1,1,2,2,3,3,4,4,5,5,6,6,7,7,8,8,9,9,10,10,11,11,12,12,15,15,16,16,17,17,18,18,19,19,20,20,21,21,22,22,26,26,27,27,28,28,35,35,36,36,37,37,39,39,40,40,42,42,43,43,44,44],"right_children":[2,4,6,8,10,12,14,16,18,20,22,24,26,-1,-1,28,30,32,34,36,38,40,42,-1,-1,-1,44,46,48,-1,-1,-1,-1,-1,-1,50,52,54,-1,56,58,-1,60,62,64,-1,-1,-1,-1,-1,-1,-1,-1,-1,-1,-1,-1,-1,-1,-1,-1,-1,-1,-1,-1],"split_conditions":[1.2E1,3.2735E3,1.852E3,2.8785E3,5E-1,5E-1,1.45E1,2.6175E3,9E0,1.416E4,5E-1,5E-1,1.5E0,-6.796121E-2,5.839751E-1,1.1875001E-3,5E-1,3.2925E0,1.5E0,7.955E3,4.605E0,4.27E0,3E-4,-3.1432915E-2,3.553685E-1,1.25909E0,1.65E1,2.48E0,1.229E-3,5.628525E-1,1.9884511E0,-5.7508963E-1,-3.4812123E-2,-7.843345E-1,-1.2632878E0,6.8795E3,2E-2,1.48E0,2.2813219E-1,5.7885E3,7.0425E0,-4.8661357E-1,3.25E0,1.525E1,1.2E1,1.4495564E-1,3.6175978E-1,1.6576601E0,3.6608875E-1,2.4365462E-1,-1.7892152E-1,3.788298E-1,9.2746955E-1,-3.5479808E-1,-6.762387E-1,8.178738E-1,1.5720714E0,-1.116491E-1,6.8033504E-1,1.3259138E-1,5.0384164E-1,5.912591E-1,3.588318E-1,1.0041587E0,6.028947E-1],"split_indices":[1,7,7,7,6,2,1,7,4,7,10,0,4,0,0,3,0,1,1,7,1,1,3,0,0,0,1,1,3,0,0,0,0,0,0,7,1,1,0,7,1,0,1,1,4,0,0,0,0,0,0,0,0,0,0,0,0,0,0,0,0,0,0,0,0],"split_type":[0,0,0,0,0,0,0,0,0,0,0,0,0,0,0,0,0,0,0,0,0,0,0,0,0,0,0,0,0,0,0,0,0,0,0,0,0,0,0,0,0,0,0,0,0,0,0,0,0,0,0,0,0,0,0,0,0,0,0,0,0,0,0,0,0],"sum_hessian":[3.661E3,3.403E3,2.58E2,3.015E3,3.88E2,2.26E2,3.2E1,2.935E3,8E1,1.93E2,1.95E2,4.9E1,1.77E2,1.6E1,1.6E1,2.918E3,1.7E1,4.8E1,3.2E1,1.45E2,4.8E1,1.46E2,4.9E1,1E0,4.8E1,1.7E1,1.6E2,2.579E3,3.39E2,1E0,1.6E1,3.2E1,1.6E1,1.6E1,1.6E1,8.1E1,6.4E1,3.2E1,1.6E1,9.8E1,4.8E1,1.6E1,3.3E1,9.6E1,6.4E1,1.728E3,8.51E2,3.4E1,3.05E2,6.5E1,1.6E1,1.6E1,4.8E1,1.6E1,1.6E1,5E1,4.8E1,1.6E1,3.2E1,1.7E1,1.6E1,8E1,1.6E1,3.2E1,3.2E1],"tree_param":{"num_deleted":"0","num_feature":"13","num_nodes":"65","size_leaf_vector":"0"}},{"base_weights":[6.773881E-1,5.58337E-1,1.1733184E0,9.080247E-1,2.2581142E-1,3.513319E0,7.135993E-1,5.366423E-1,1.7564003E0,-4.7740534E-1,9.0772974E-1,4.116779E0,1.8707756E0,-3.5906988E-1,1.3657321E0,6.5123063E-1,-5.4321003E0,5.5477157E0,1.382356E0,-1.207052E0,1.1887949E0,2.0433543E0,-4.395757E-1,-2.4798107E-1,4.281498E0,2.2345474E0,1.3969584E0,2.190158E0,-1.0627596E0,1.9983886E0,1.2264258E0,1.3419933E0,5.2417866E-3,-5.6297264E0,-9.374132E-1,-5.194984E0,7.2803183E0,-3.4493506E0,1.5023937E0,-9.932807E-1,-4.3316984E0,1.7265058E0,-5.5867057E0,4.293073E0,1.1753321E0,-9.6482146E-1,6.845287E-1,6.209304E-1,-1.4273577E0,1.6155233E0,3.176792E0,-6.737212E-1,-4.684667E0,1.5575761E0,3.151414E0,-7.236041E-1,1.3368897E0,5.475609E-1,5.2093177E0,4.379652E0,-1.1799158E-1,-9.921958E-1,-7.0483294E0,4.9940543E0,9.035106E0,-4.2710094E0,-1.08476005E-1,4.7436104E0,1.1400429E0,-1.4959371E0,1.0223515E0,-2.8141031E0,-5.5944877E0,3.6292431E0,2.7388582E-2,3.2450023E0,1.0205664E1,-3.077304E-1,1.7935578E0,2.041023E0,-1.4348121E0,3.408399E-1,1.5073853E0,5.7353873E-2,-2.3459206E0,7.859203E-1,1.5440267E0],"categories":[],"categories_nodes":[],"categories_segments":[],"categories_sizes":[],"default_left":[true,true,true,true,true,true,true,true,true,true,true,true,true,true,true,true,true,true,true,true,true,true,true,true,false,false,false,true,true,true,true,true,true,false,false,true,true,true,true,true,true,true,false,true,true,true,true,false,false,false,false,true,false,false,false,false,true,false,false,false,false,false,false,false,false,false,false,false,false,false,false,false,false,false,false,false,false,false,false,false,false,false,false,false,false,false,false],"id":11,"left_children":[1,3,5,7,9,11,13,15,17,19,21,23,25,27,29,31,33,35,37,39,41,43,45,47,-1,-1,-1,49,51,53,55,57,59,-1,-1,61,63,65,67,69,71,73,-1,75,77,79,81,-1,-1,-1,-1,83,-1,-1,-1,-1,85,-1,-1,-1,-1,-1,-1,-1,-1,-1,-1,-1,-1,-1,-1,-1,-1,-1,-1,-1,-1,-1,-1,-1,-1,-1,-1,-1,-1,-1,-1],"loss_changes":[2.1555322E2,3.434026E2,7.591188E2,4.5276074E2,7.274105E2,1.07278564E2,4.1530737E2,6.895374E2,6.134675E2,9.095907E2,1.1790239E3,6.1454468E1,2.5663528E0,4.0594733E2,3.007019E1,4.3952463E2,1.1599731E1,7.6372144E2,2.3717688E2,3.4303638E2,8.4030896E2,8.112273E2,2.0908263E2,4.985385E0,0E0,0E0,0E0,2.2648575E1,2.462477E2,2.8128845E1,6.666684E1,1.4595758E3,2.7544415E2,0E0,0E0,3.974199E1,9.128308E1,2.698729E1,4.53805E2,4.959566E2,4.7497803E1,6.85291E2,0E0,6.8571313E2,2.783627E2,3.433937E2,3.1443367E1,0E0,0E0,0E0,0E0,1.9695758E2,0E0,0E0,0E0,0E0,3.176892E1,0E0,0E0,0E0,0E0,0E0,0E0,0E0,0E0,0E0,0E0,0E0,0E0,0E0,0E0,0E0,0E0,0E0,0E0,0E0,0E0,0E0,0E0,0E0,0E0,0E0,0E0,0E0,0E0,0E0,0E0],"parents":[2147483647,0,0,1,1,2,2,3,3,4,4,5,5,6,6,7,7,8,8,9,9,10,10,11,11,12,12,13,13,14,14,15,15,16,16,17,17,18,18,19,19,20,20,21,21,22,22,23,23,27,27,28,28,29,29,30,30,31,31,32,32,35,35,36,36,37,37,38,38,39,39,40,40,41,41,43,43,44,44,45,45,46,46,51,51,56,56],"right_children":[2,4,6,8,10,12,14,16,18,20,22,24,26,28,30,32,34,36,38,40,42,44,46,48,-1,-1,-1,50,52,54,56,58,60,-1,-1,62,64,66,68,70,72,74,-1,76,78,80,82,-1,-1,-1,-1,84,-1,-1,-1,-1,86,-1,-1,-1,-1,-1,-1,-1,-1,-1,-1,-1,-1,-1,-1,-1,-1,-1,-1,-1,-1,-1,-1,-1,-1,-1,-1,-1,-1,-1,-1],"split_conditions":[7.5E0,5E-1,2.2275001E-4,4.3E1,4.895E-4,1.8E1,3.335E0,3.35E1,3.9500002E-5,8.3E2,4.055E2,5E-1,7.5625E0,5E-1,5.25E0,2.52E-4,3.125E-1,3.3249998E-1,9.35E1,6.84E2,3.75E-4,6.5825E-4,4.875E0,7.5E-1,1.2844495E0,6.7036426E-1,4.1908753E-1,5E-1,3.085E0,4.8325E0,5.355E0,1.52E-4,1.4300001E0,-1.688918E0,-2.8122398E-1,1.72E2,6.875E-1,6.25E-1,5E-1,4.72E2,1.375E0,4.5E0,-1.6760118E0,6.355E-4,1.125E0,1.5E0,6.9255E3,1.8627912E-1,-4.282073E-1,4.8465702E-1,9.530376E-1,1.457E3,-1.4054002E0,4.6727285E-1,9.454242E-1,-2.1708123E-1,6.1875E-4,1.6426827E-1,1.5627954E0,1.3138957E0,-3.5397477E-2,-2.9765874E-1,-2.1144989E0,1.4982164E0,2.7105317E0,-1.2813029E0,-3.2542802E-2,1.4230832E0,3.4201288E-1,-4.4878116E-1,3.0670547E-1,-8.4423095E-1,-1.6783464E0,1.088773E0,8.216575E-3,9.735007E-1,3.0616992E0,-9.231912E-2,5.3806734E-1,6.1230695E-1,-4.3044364E-1,1.0225197E-1,4.5221558E-1,1.7206162E-2,-7.037762E-1,2.3577611E-1,4.6320805E-1],"split_indices":[4,2,3,7,3,4,1,7,3,7,7,0,1,1,1,3,1,1,7,7,3,3,1,1,0,0,0,6,1,1,1,3,5,0,0,7,1,1,0,7,1,4,0,3,1,4,7,0,0,0,0,7,0,0,0,0,3,0,0,0,0,0,0,0,0,0,0,0,0,0,0,0,0,0,0,0,0,0,0,0,0,0,0,0,0,0,0],"split_type":[0,0,0,0,0,0,0,0,0,0,0,0,0,0,0,0,0,0,0,0,0,0,0,0,0,0,0,0,0,0,0,0,0,0,0,0,0,0,0,0,0,0,0,0,0,0,0,0,0,0,0,0,0,0,0,0,0,0,0,0,0,0,0,0,0,0,0,0,0,0,0,0,0,0,0,0,0,0,0,0,0,0,0,0,0,0,0],"sum_hessian":[3.661E3,2.954E3,7.07E2,1.439E3,1.515E3,1.15E2,5.92E2,1.002E3,4.37E2,7.46E2,7.69E2,8.3E1,3.2E1,2.24E2,3.68E2,9.84E2,1.8E1,3.8E1,3.99E2,5.19E2,2.27E2,4.17E2,3.52E2,3E0,8E1,1.6E1,1.6E1,4.8E1,1.76E2,6.4E1,3.04E2,4.75E2,5.09E2,1.7E1,1E0,5E0,3.3E1,9E0,3.9E2,4.87E2,3.2E1,2.11E2,1.6E1,1.15E2,3.02E2,2.4E2,1.12E2,2E0,1E0,3.2E1,1.6E1,1.6E2,1.6E1,4.8E1,1.6E1,1.6E1,2.88E2,3.95E2,8E1,1.3E1,4.96E2,2E0,3E0,1.6E1,1.7E1,7E0,2E0,3.8E1,3.52E2,3.9E2,9.7E1,1.6E1,1.6E1,9.9E1,1.12E2,9.9E1,1.6E1,8.9E1,2.13E2,3.2E1,2.08E2,8E1,3.2E1,1.12E2,4.8E1,8E1,2.08E2],"tree_param":{"num_deleted":"0","num_feature":"13","num_nodes":"87","size_leaf_vector":"0"}},{"base_weights":[4.7652796E-1,1.449762E0,4.3743014E-1,5.906069E0,8.3210623E-1,3.4179106E-1,8.330306E-1,-3.5192823E0,8.177164E0,6.535354E0,5.895579E-1,1.17837116E-1,5.469144E-1,2.4934766E0,5.1104355E-1,-5.0584564E0,5.4911995E-1,2.418313E0,1.3590542E1,1.9069533E0,1.2524479E1,4.7744355E-1,7.021641E0,4.418317E-1,-6.350057E-1,1.2786077E0,3.2776073E-1,2.9192088E0,1.351225E0,-2.3206311E-1,9.688313E-1,7.3047547E0,-4.2796007E-1,1.6301086E1,-1.3363628E0,-9.52446E-1,3.1775684E0,-2.6547077E0,5.5302835E-1,1.1912309E0,-2.3216324E-1,1.6920866E0,-9.4911236E-1,3.6240976E0,9.4597715E-1,-6.101484E-1,4.63838E-1,-6.781718E-1,3.0201437E0,1.6036161E0,9.986079E-1,-7.4309725E-1,1.566507E0,2.3383677E0,9.0173036E-1,3.0086865E0,-4.867502E0,1.8417913E1,2.8584766E0,1.5438359E0,1.5019913E-1,3.8264287E-1,4.9261675E0,-3.8927727E0,3.419234E-1,3.994528E0,-2.153586E0,-1.8059196E0,6.829871E-1,-2.4137468E0,5.3439264E0,-4.492442E0,1.4137608E0,-2.2269387E0,7.3133063E-1,1.740341E0,2.085936E-1,1.9599628E-1,-1.213254E0,3.1884656E0,2.1686177E0,-4.7281423E-1,-3.348806E0,2.2798157E0,1.1515751E0,2.3361918E-1,1.0892293E0],"categories":[],"categories_nodes":[],"categories_segments":[],"categories_sizes":[],"default_left":[true,true,true,true,true,true,true,true,true,true,true,true,true,true,true,false,false,true,true,true,false,true,false,true,true,true,true,true,true,true,true,false,true,true,false,false,false,false,true,true,true,true,true,true,true,true,true,true,true,false,false,true,true,false,true,false,false,false,false,false,false,false,false,false,false,false,false,false,false,false,false,false,false,false,false,false,false,false,false,false,false,false,false,false,false,false,false],"id":12,"left_children":[1,3,5,7,9,11,13,15,17,19,21,23,25,27,29,-1,-1,31,33,35,-1,37,-1,39,41,43,45,47,49,51,53,-1,55,57,-1,-1,-1,-1,59,61,63,65,67,69,71,73,75,77,79,-1,-1,81,83,-1,85,-1,-1,-1,-1,-1,-1,-1,-1,-1,-1,-1,-1,-1,-1,-1,-1,-1,-1,-1,-1,-1,-1,-1,-1,-1,-1,-1,-1,-1,-1,-1,-1],"loss_changes":[1.3870978E2,3.831829E2,1.3296967E2,3.9267755E2,1.6906117E2,1.303081E2,3.649555E2,2.7825619E1,4.0358154E2,1.1471678E2,8.390416E1,3.3151987E2,2.3706412E2,5.0034058E1,1.9583125E2,0E0,0E0,1.1439133E2,3.0500452E2,1.7559246E1,0E0,2.9877302E1,0E0,4.8011328E2,3.0056665E2,2.626137E2,1.4590671E2,3.1096313E1,1.2465363E0,2.0337283E2,3.0606842E1,0E0,1.06187614E2,1.18086914E2,0E0,0E0,0E0,0E0,4.6865013E1,1.3571265E3,1.0541859E3,4.424699E2,5.060539E2,4.490293E2,7.6955237E2,3.1611777E2,3.2447974E2,1.6410487E0,4.265259E0,0E0,0E0,1.19552605E2,1.1877373E1,0E0,4.2462646E1,0E0,0E0,0E0,0E0,0E0,0E0,0E0,0E0,0E0,0E0,0E0,0E0,0E0,0E0,0E0,0E0,0E0,0E0,0E0,0E0,0E0,0E0,0E0,0E0,0E0,0E0,0E0,0E0,0E0,0E0,0E0,0E0],"parents":[2147483647,0,0,1,1,2,2,3,3,4,4,5,5,6,6,7,7,8,8,9,9,10,10,11,11,12,12,13,13,14,14,17,17,18,18,19,19,21,21,23,23,24,24,25,25,26,26,27,27,28,28,29,29,30,30,32,32,33,33,38,38,39,39,40,40,41,41,42,42,43,43,44,44,45,45,46,46,47,47,48,48,51,51,52,52,54,54],"right_children":[2,4,6,8,10,12,14,16,18,20,22,24,26,28,30,-1,-1,32,34,36,-1,38,-1,40,42,44,46,48,50,52,54,-1,56,58,-1,-1,-1,-1,60,62,64,66,68,70,72,74,76,78,80,-1,-1,82,84,-1,86,-1,-1,-1,-1,-1,-1,-1,-1,-1,-1,-1,-1,-1,-1,-1,-1,-1,-1,-1,-1,-1,-1,-1,-1,-1,-1,-1,-1,-1,-1,-1,-1],"split_conditions":[1.525E0,5E-1,7.5E0,3.125E-5,1.4499999E-5,3.02E-4,2.2275001E-4,5E-1,1.255E0,5E-1,1.51E0,1.7300001E-4,5.02E-4,1.8E1,3.335E0,-1.517537E0,1.6473599E-1,2.2999999E-1,2.25E0,7.5E-1,3.7573438E0,2.275E-5,2.1064923E0,5E-1,5E-1,1.4500001E-1,5.7725003E-4,5E-1,7.5625E0,1.325E-3,3.52E-4,2.1914265E0,4.0425E-4,1.425E0,-4.0090886E-1,-2.8573382E-1,9.5327055E-1,-7.9641235E-1,1.625E-4,1.04E-4,1.85E1,2.05E1,4.3E2,5E-1,4.5749998E-1,5E-1,7.165E-4,7.5E-1,1.23E-4,4.8108485E-1,2.9958236E-1,2.6475E0,1.5E-3,7.015103E-1,6.1875E-4,9.02606E-1,-1.4602507E0,5.5253744E0,8.5754305E-1,4.6315077E-1,4.505974E-2,1.1479286E-1,1.4778503E0,-1.1678319E0,1.0257702E-1,1.1983584E0,-6.460758E-1,-5.4177594E-1,2.0489614E-1,-7.241241E-1,1.603178E0,-1.3477327E0,4.2412826E-1,-6.6808164E-1,2.193992E-1,5.221023E-1,6.257808E-2,5.8798887E-2,-3.639762E-1,9.565397E-1,6.5058535E-1,-1.4184427E-1,-1.0046418E0,6.839447E-1,3.4547254E-1,7.008576E-2,3.2676882E-1],"split_indices":[5,0,4,3,3,3,3,2,5,8,5,3,3,4,1,0,0,1,1,1,0,3,0,7,0,1,3,0,1,3,3,0,3,5,0,0,0,0,3,3,7,7,7,0,1,6,3,1,3,0,0,1,3,0,3,0,0,0,0,0,0,0,0,0,0,0,0,0,0,0,0,0,0,0,0,0,0,0,0,0,0,0,0,0,0,0,0],"split_type":[0,0,0,0,0,0,0,0,0,0,0,0,0,0,0,0,0,0,0,0,0,0,0,0,0,0,0,0,0,0,0,0,0,0,0,0,0,0,0,0,0,0,0,0,0,0,0,0,0,0,0,0,0,0,0,0,0,0,0,0,0,0,0,0,0,0,0,0,0,0,0,0,0,0,0,0,0,0,0,0,0,0,0,0,0,0,0],"sum_hessian":[3.661E3,1.4E2,3.521E3,1.6E1,1.24E2,2.837E3,6.84E2,3E0,1.3E1,4E0,1.2E2,1.357E3,1.48E3,1.1E2,5.74E2,2E0,1E0,7E0,6E0,3E0,1E0,1.19E2,1E0,9.49E2,4.08E2,3.4E2,1.14E3,7.9E1,3.1E1,2.19E2,3.55E2,2E0,5E0,5E0,1E0,1E0,2E0,2E0,1.17E2,4.49E2,5E2,4.8E1,3.6E2,4.1E1,2.99E2,1.44E2,9.96E2,2E0,7.7E1,1.6E1,1.5E1,1.71E2,4.8E1,1.5E1,3.4E2,3E0,2E0,4E0,1E0,3.3E1,8.4E1,3.7E2,7.9E1,6.7E1,4.33E2,3E1,1.8E1,2.36E2,1.24E2,9E0,3.2E1,2.3E1,2.76E2,6.5E1,7.9E1,1.65E2,8.31E2,1E0,1E0,6.2E1,1.5E1,1.56E2,1.5E1,1.6E1,3.2E1,7.5E1,2.65E2],"tree_param":{"num_deleted":"0","num_feature":"13","num_nodes":"87","size_leaf_vector":"0"}},{"base_weights":[3.3804932E-1,9.824848E-1,2.87283E-1,2.036761E0,-1.6113445E-1,-6.6587293E-1,3.4808993E-1,1.5789033E0,9.336819E0,-4.2991337E-1,1.12708845E1,-1.8907106E0,1.655171E0,3.0438688E0,2.7605596E-1,5.3892155E0,1.1529621E0,1.7273603E1,1.1200272E0,-1.8617091E0,1.3055283E0,1.6953163E1,-4.6836853E-2,-3.3015056E0,-7.022079E-1,-3.6834526E0,2.2046356E0,-1.502595E0,4.3260064E0,1.4621675E0,2.0099388E-1,9.4848657E-1,1.2304684E1,-3.7490602E0,1.7323446E0,5.0457344E0,1.9667648E1,-6.53883E-1,1.7269754E0,-5.7807956E0,-8.66465E-1,2.3267002E0,8.611129E-1,1.0825939E0,-3.3926172E0,-2.865793E0,1.6611817E0,-5.559339E0,6.7084247E-1,2.714727E0,6.0468787E-1,1.1974328E0,-4.052363E0,1.1848996E1,1.6277037E0,-3.4758499E0,1.9502393E0,-2.591569E0,2.474668E-1,-9.498143E-1,2.0559394E0,4.4041667E0,1.610364E1,-1.0572352E1,4.5821995E-1,3.5449398E0,6.5645856E-1,-4.5481682E-1,-6.630557E0,9.3426913E-1,-2.518268E0,2.8482254E0,1.5466527E0,1.19168E0,2.4946141E-1,-4.611667E0,-2.7603657E0,-4.371543E0,-8.662213E-1,5.1519885E0,-1.389063E0,1.9139776E0,3.0449698E0,2.433598E0,-2.4981525E0,2.6155524E0,-3.8563246E-1,1.0685698E1,-5.028803E0,3.4537082E0,3.1297722E-1,-1.9673849E0,-3.7169752E0,7.3109406E-1,1.0896121E-1],"categories":[],"categories_nodes":[],"categories_segments":[],"categories_sizes":[],"default_left":[true,true,true,true,true,true,true,true,true,true,true,true,true,true,true,true,true,true,true,true,true,false,false,true,true,true,true,true,true,true,true,true,true,true,true,false,false,false,false,true,true,true,true,false,true,true,true,false,false,true,false,true,false,false,true,true,true,true,true,false,false,false,false,false,false,false,false,false,false,false,false,false,false,false,false,false,false,false,false,false,false,false,false,false,false,false,false,false,false,false,false,false,false,false,false],"id":13,"left_children":[1,3,5,7,9,11,13,15,17,19,21,23,25,27,29,31,33,35,37,39,41,-1,-1,43,45,47,49,51,53,55,57,59,61,63,65,-1,-1,-1,-1,67,69,71,73,-1,75,77,79,-1,-1,81,-1,83,-1,-1,85,87,89,91,93,-1,-1,-1,-1,-1,-1,-1,-1,-1,-1,-1,-1,-1,-1,-1,-1,-1,-1,-1,-1,-1,-1,-1,-1,-1,-1,-1,-1,-1,-1,-1,-1,-1,-1,-1,-1],"loss_changes":[1.1952225E2,3.2224762E2,1.970588E2,4.4985004E2,4.0122192E2,5.830815E2,6.1920105E2,2.080184E2,5.0237238E2,3.1799988E2,1.9372537E2,2.2236395E2,2.1639096E2,4.9032318E2,2.766847E2,3.875555E2,3.4731226E2,1.785852E1,6.5125985E0,2.6802246E2,2.4318275E1,0E0,0E0,2.8038757E1,3.831518E2,6.0906586E1,5.140619E1,1.3565688E2,1.3001681E3,4.5264853E2,3.8050317E2,2.0873268E1,7.914551E1,3.78042E2,2.082886E2,0E0,0E0,0E0,0E0,6.0345734E1,1.7189685E2,2.5106277E0,8.194778E0,0E0,3.3514893E1,1.136366E2,3.9047772E2,0E0,0E0,7.1296387E0,0E0,5.1763042E1,0E0,0E0,9.846335E1,4.2760394E2,4.149248E2,2.6405365E1,1.9283739E2,0E0,0E0,0E0,0E0,0E0,0E0,0E0,0E0,0E0,0E0,0E0,0E0,0E0,0E0,0E0,0E0,0E0,0E0,0E0,0E0,0E0,0E0,0E0,0E0,0E0,0E0,0E0,0E0,0E0,0E0,0E0,0E0,0E0,0E0,0E0,0E0],"parents":[2147483647,0,0,1,1,2,2,3,3,4,4,5,5,6,6,7,7,8,8,9,9,10,10,11,11,12,12,13,13,14,14,15,15,16,16,17,17,18,18,19,19,20,20,23,23,24,24,25,25,26,26,27,27,28,28,29,29,30,30,31,31,32,32,33,33,34,34,39,39,40,40,41,41,42,42,44,44,45,45,46,46,49,49,51,51,54,54,55,55,56,56,57,57,58,58],"right_children":[2,4,6,8,10,12,14,16,18,20,22,24,26,28,30,32,34,36,38,40,42,-1,-1,44,46,48,50,52,54,56,58,60,62,64,66,-1,-1,-1,-1,68,70,72,74,-1,76,78,80,-1,-1,82,-1,84,-1,-1,86,88,90,92,94,-1,-1,-1,-1,-1,-1,-1,-1,-1,-1,-1,-1,-1,-1,-1,-1,-1,-1,-1,-1,-1,-1,-1,-1,-1,-1,-1,-1,-1,-1,-1,-1,-1,-1,-1,-1],"split_conditions":[2E-2,3.29E0,1.05000004E-1,3.2350001E0,6.24E0,2.395E2,1.4500001E-1,1.81E0,5.625E-5,1.05E1,6.4449997E0,6.25E-2,5E-1,5E-1,5E-1,5E-1,2.135E0,5E-1,1.8325E-4,3.4250002E0,7.0000003E-4,5.085949E0,-1.40510565E-2,1.025E-5,5E-1,6.02E-4,8.8974996E-4,5E-1,1.79E-4,4.8E-5,2.2999999E-1,1.285E0,5E-1,1.875E-4,5E-1,1.5137204E0,5.900295E0,-1.961649E-1,5.1809263E-1,5E-1,5E-1,5E-1,1.5499999E-3,3.247782E-1,6.875E-5,6.0625E-4,3.55E-5,-1.6678017E0,2.0125274E-1,1.29E-4,1.8140636E-1,5.4575E-4,-1.215709E0,3.554699E0,4.875E-4,1.5899999E0,5E-1,1.875E-1,1.48E-4,-2.849443E-1,6.1678183E-1,1.3212501E0,4.831092E0,-3.171706E0,1.3746598E-1,1.0634819E0,1.9693758E-1,-1.3644505E-1,-1.9891672E0,2.8028074E-1,-7.5548047E-1,8.5446763E-1,4.639958E-1,3.57504E-1,7.483843E-2,-1.3835002E0,-8.2810974E-1,-1.3114629E0,-2.5986642E-1,1.5455966E0,-4.1671893E-1,5.741933E-1,9.1349095E-1,7.300794E-1,-7.494458E-1,7.8466576E-1,-1.1568974E-1,3.2057095E0,-1.5086409E0,1.0361125E0,9.389317E-2,-5.902155E-1,-1.1150926E0,2.1932822E-1,3.2688364E-2],"split_indices":[1,5,1,5,5,7,1,5,3,7,5,1,0,0,0,8,5,0,3,5,3,0,0,3,6,3,3,11,3,3,1,5,0,3,7,0,0,0,0,0,8,10,3,0,3,3,3,0,0,3,0,3,0,0,3,5,6,1,3,0,0,0,0,0,0,0,0,0,0,0,0,0,0,0,0,0,0,0,0,0,0,0,0,0,0,0,0,0,0,0,0,0,0,0,0],"split_type":[0,0,0,0,0,0,0,0,0,0,0,0,0,0,0,0,0,0,0,0,0,0,0,0,0,0,0,0,0,0,0,0,0,0,0,0,0,0,0,0,0,0,0,0,0,0,0,0,0,0,0,0,0,0,0,0,0,0,0,0,0,0,0,0,0,0,0,0,0,0,0,0,0,0,0,0,0,0,0,0,0,0,0,0,0,0,0,0,0,0,0,0,0,0,0],"sum_hessian":[3.661E3,2.66E2,3.395E3,1.38E2,1.28E2,2.03E2,3.192E3,1.31E2,7E0,1.26E2,2E0,1.33E2,7E1,8.2E1,3.11E3,1.2E1,1.19E2,3E0,4E0,6.9E1,5.7E1,1E0,1E0,6E1,7.3E1,6E0,6.4E1,1.8E1,6.4E1,1.84E2,2.926E3,8E0,4E0,1.2E1,1.07E2,1E0,2E0,1E0,3E0,1.3E1,5.6E1,1.6E1,4.1E1,1E0,5.9E1,3.8E1,3.5E1,4E0,2E0,4.8E1,1.6E1,9E0,9E0,1.6E1,4.8E1,1.6E1,1.68E2,4.7E1,2.879E3,3E0,5E0,2E0,2E0,4E0,8E0,3.9E1,6.8E1,2E0,1.1E1,2.7E1,2.9E1,8E0,8E0,2.6E1,1.5E1,1.8E1,4.1E1,2.1E1,1.7E1,1.6E1,1.9E1,1.6E1,3.2E1,7E0,2E0,3.2E1,1.6E1,1E0,1.5E1,8.7E1,8.1E1,3.2E1,1.5E1,6.4E2,2.239E3],"tree_param":{"num_deleted":"0","num_feature":"13","num_nodes":"95","size_leaf_vector":"0"}},{"base_weights":[2.4179676E-1,1.7106596E-1,5.8990926E-1,1.8766094E-2,4.195736E-1,1.7525692E0,1.9689661E-1,1.23804905E-1,-1.2086926E0,5.738997E-1,-8.1469864E-1,2.7986197E0,7.4945295E-1,-3.2438052E-1,6.620509E-1,3.104393E-1,-7.5943214E-1,3.6733966E0,-1.3687047E0,9.772035E-1,1.4856443E-1,-1.5166662E0,1.1139191E0,1.6595476E0,6.65425E0,-1.2282606E0,1.2551711E0,-7.021564E-1,5.2483004E-1,1.1488103E0,2.2968927E-1,1.8626621E-1,2.0443351E0,-1.0306584E0,1.4247371E0,6.2340245E0,-1.1169688E-1,-1.6629909E0,-3.195213E-1,1.6499944E0,1.5048352E-1,-1.3511455E-1,2.0246122E0,-2.2907984E0,-3.463533E-1,9.063452E0,3.574792E-1,1.4420588E0,7.2456913E0,1.7948128E0,6.7749393E-1,-2.950481E0,-3.3914906E-1,1.9015398E0,4.3203512E-1,8.869498E-1,2.606185E0,-5.631825E-1,7.2606915E-1,5.35705E-1,-2.270092E-1,3.6612663E0,-1.0118707E0,-1.5459783E0,1.7594436E-1,4.4322295E0,-1.4948244E0,7.477608E-1,-9.153061E-1,-1.9591011E0,-8.857813E-1,3.8056418E-1,-1.0008115E0,2.9450636E0,8.1129843E-1,1.2851676E0,-7.397576E-1,-1.8162221E0,2.4669167E-1,6.5539136E0,4.4415742E-1,-1.2682571E0,-4.119087E0,-8.859969E-1,1.0080051E1,1.072498E1,2.8701973E0,6.461146E-1,4.781566E-2,-9.120222E-1,1.9410962E0,3.20194E-1,9.9494123E-1,-4.439072E0,-2.0939061E-1,-6.2965393E-1,2.9551556E0,3.788129E-2,5.599653E-1,-1.8967209E0,9.638989E-1,-8.5409814E-1,-3.7861946E-1,1.8661247E0,4.1673046E-1],"categories":[],"categories_nodes":[],"categories_segments":[],"categories_sizes":[],"default_left":[true,true,true,true,true,true,true,true,true,true,true,true,true,true,true,true,true,true,true,true,true,true,true,true,false,false,true,true,true,true,true,true,true,true,true,false,true,true,true,true,true,true,true,true,true,true,true,true,false,false,true,false,true,true,true,true,false,true,true,false,false,false,false,false,false,false,false,false,false,false,false,false,false,false,false,false,false,false,false,false,false,false,false,false,false,false,false,false,false,false,false,false,false,false,false,false,false,false,false,false,false,false,false,false,false],"id":14,"left_children":[1,3,5,7,9,11,13,15,17,19,21,23,25,27,29,31,33,35,37,39,41,43,45,47,-1,-1,49,51,53,55,57,59,61,63,65,-1,67,69,71,73,75,77,79,81,83,85,87,89,-1,-1,91,-1,93,95,97,99,-1,101,103,-1,-1,-1,-1,-1,-1,-1,-1,-1,-1,-1,-1,-1,-1,-1,-1,-1,-1,-1,-1,-1,-1,-1,-1,-1,-1,-1,-1,-1,-1,-1,-1,-1,-1,-1,-1,-1,-1,-1,-1,-1,-1,-1,-1,-1,-1],"loss_changes":[9.006587E1,1.1523831E2,2.8204388E2,2.436999E2,2.2085338E2,1.6159497E2,1.12480354E2,2.8722638E2,1.2142561E2,1.763688E2,1.7633313E2,3.2273688E2,8.2555084E1,7.062619E1,5.1297867E1,3.092252E2,1.8155927E2,4.9157402E1,4.423886E1,2.9343042E2,2.674356E2,8.52744E1,2.0722704E2,6.2446686E1,0E0,0E0,1.9047035E1,1.2305543E2,7.8655815E0,4.157576E1,5.1966003E1,1.9407022E2,4.781055E2,1.687761E2,3.051644E2,0E0,2.7564342E0,2.4270477E1,1.6120598E1,3.1368585E2,2.4136461E2,2.809397E2,4.6954053E2,1.01337494E2,2.2836604E2,8.798218E-2,2.9186406E0,7.108201E1,0E0,0E0,3.4244146E0,0E0,6.9294464E1,1.252835E1,3.256359E0,2.3034142E1,0E0,2.4149284E0,2.778806E1,0E0,0E0,0E0,0E0,0E0,0E0,0E0,0E0,0E0,0E0,0E0,0E0,0E0,0E0,0E0,0E0,0E0,0E0,0E0,0E0,0E0,0E0,0E0,0E0,0E0,0E0,0E0,0E0,0E0,0E0,0E0,0E0,0E0,0E0,0E0,0E0,0E0,0E0,0E0,0E0,0E0,0E0,0E0,0E0,0E0,0E0],"parents":[2147483647,0,0,1,1,2,2,3,3,4,4,5,5,6,6,7,7,8,8,9,9,10,10,11,11,12,12,13,13,14,14,15,15,16,16,17,17,18,18,19,19,20,20,21,21,22,22,23,23,26,26,27,27,28,28,29,29,30,30,31,31,32,32,33,33,34,34,36,36,37,37,38,38,39,39,40,40,41,41,42,42,43,43,44,44,45,45,46,46,47,47,50,50,52,52,53,53,54,54,55,55,57,57,58,58],"right_children":[2,4,6,8,10,12,14,16,18,20,22,24,26,28,30,32,34,36,38,40,42,44,46,48,-1,-1,50,52,54,56,58,60,62,64,66,-1,68,70,72,74,76,78,80,82,84,86,88,90,-1,-1,92,-1,94,96,98,100,-1,102,104,-1,-1,-1,-1,-1,-1,-1,-1,-1,-1,-1,-1,-1,-1,-1,-1,-1,-1,-1,-1,-1,-1,-1,-1,-1,-1,-1,-1,-1,-1,-1,-1,-1,-1,-1,-1,-1,-1,-1,-1,-1,-1,-1,-1,-1,-1],"split_conditions":[1.1085E-3,2.48E0,5E-1,2.0625E0,5E-1,5.02E0,6.485E2,8.3125E-4,5E-1,5.02E-4,5.0625E-4,3.5E0,5.1025E0,1.3875E-3,2.2415E3,5.8550003E-4,1.7075E0,2.27E0,5.5E0,5E-1,1.00625E-3,5E-1,5E-1,4.5E0,1.9962751E0,-3.684782E-1,1.175E1,5E-1,5E-1,2.114E3,5.85E3,5E-1,6.5E2,1.04175E-3,1.875E0,1.8702074E0,2.3525E0,2.3125E0,2.27E0,4.125E0,1.5E0,3.335E0,2.75E0,2.645E-4,2.455E2,4.25E0,5.125E0,5E-1,2.1737075E0,5.3844386E-1,1.55E1,-8.851443E-1,5E-1,5E-1,1.5499999E-3,5E-1,7.818555E-1,4.5E3,1.3250001E-3,1.607115E-1,-6.810276E-2,1.09838E0,-3.0356124E-1,-4.6379352E-1,5.278331E-2,1.3296689E0,-4.4844735E-1,2.2432823E-1,-2.7459183E-1,-5.8773035E-1,-2.657344E-1,1.1416926E-1,-3.0024344E-1,8.835191E-1,2.4338953E-1,3.855503E-1,-2.2192729E-1,-5.448666E-1,7.40075E-2,1.9661741E0,1.3324723E-1,-3.8047716E-1,-1.2357262E0,-2.6579908E-1,3.0240157E0,3.2174942E0,8.6105925E-1,1.9383438E-1,1.4344698E-2,-2.7360666E-1,5.8232886E-1,9.6058205E-2,2.984824E-1,-1.3317217E0,-6.2817186E-2,-1.888962E-1,8.8654673E-1,1.1364387E-2,1.679896E-1,-5.690163E-1,2.8916967E-1,-2.5622946E-1,-1.13585845E-1,5.5983746E-1,1.2501915E-1],"split_indices":[3,1,7,1,10,1,7,3,0,3,3,4,1,3,7,3,1,1,4,6,3,6,0,1,0,0,1,11,0,7,7,2,7,3,1,0,1,1,1,1,4,1,1,3,7,1,1,0,0,0,1,0,0,2,3,0,0,7,3,0,0,0,0,0,0,0,0,0,0,0,0,0,0,0,0,0,0,0,0,0,0,0,0,0,0,0,0,0,0,0,0,0,0,0,0,0,0,0,0,0,0,0,0,0,0],"split_type":[0,0,0,0,0,0,0,0,0,0,0,0,0,0,0,0,0,0,0,0,0,0,0,0,0,0,0,0,0,0,0,0,0,0,0,0,0,0,0,0,0,0,0,0,0,0,0,0,0,0,0,0,0,0,0,0,0,0,0,0,0,0,0,0,0,0,0,0,0,0,0,0,0,0,0,0,0,0,0,0,0,0,0,0,0,0,0,0,0,0,0,0,0,0,0,0,0,0,0,0,0,0,0,0,0],"sum_hessian":[3.661E3,3.044E3,6.17E2,1.888E3,1.156E3,1.55E2,4.62E2,1.74E3,1.48E2,1.028E3,1.28E2,7.5E1,8E1,2.18E2,2.44E2,1.437E3,3.03E2,4E0,1.44E2,5.27E2,5.01E2,9.4E1,3.4E1,5.9E1,1.6E1,1.6E1,6.4E1,1.51E2,6.7E1,1.14E2,1.3E2,1.342E3,9.5E1,2.7E2,3.3E1,2E0,2E0,1.12E2,3.2E1,2.9E2,2.37E2,4.36E2,6.5E1,5.6E1,3.8E1,2E0,3.2E1,5.8E1,1E0,3.2E1,3.2E1,2E1,1.31E2,3E0,6.4E1,9.8E1,1.6E1,5E1,8E1,7.27E2,6.15E2,6.2E1,3.3E1,1.89E2,8.1E1,1.6E1,1.7E1,1E0,1E0,8E1,3.2E1,1.6E1,1.6E1,1.13E2,1.77E2,1.04E2,1.33E2,8E1,3.56E2,1.6E1,4.9E1,3.7E1,1.9E1,3.7E1,1E0,1E0,1E0,1.6E1,1.6E1,1E1,4.8E1,1.6E1,1.6E1,3E0,1.28E2,1E0,2E0,1.6E1,4.8E1,2E0,9.6E1,1.8E1,3.2E1,1.6E1,6.4E1],"tree_param":{"num_deleted":"0","num_feature":"13","num_nodes":"105","size_leaf_vector":"0"}},{"base_weights":[1.7333816E-1,2.9021889E-2,3.5322872E-1,1.9623013E-1,-1.3021425E0,1.1839932E0,1.5644953E-1,1.8198402E-1,6.57217E0,-5.1680756E0,-9.645761E-1,1.4948039E0,-1.489066E0,7.5344384E-1,-1.7274764E-1,-3.79737E-2,6.1046046E-1,1.4329832E1,-7.903283E-1,1.20101E0,-1.2637149E0,9.656492E-1,3.9096024E0,-2.1335454E0,-7.569946E-1,6.0354835E-1,4.7033978E0,-6.083039E-1,4.4344312E-1,2.9179294E-2,-2.9390688E0,5.286392E0,4.1889367E-1,-1.20168686E-1,-1.0653238E0,4.0741577E0,3.2291976E-1,-1.5813109E0,2.4707037E-1,1.3688358E-2,2.2574563E0,6.560659E0,2.469086E0,-3.1508127E-1,-7.9491097E-1,1.566929E0,2.109588E-1,-4.0135493E0,-4.7987506E-1,1.0539738E0,3.4390396E-1,5.961499E-1,-1.6331208E-1,-3.2713332E0,2.849903E0,6.040835E0,-6.032895E0,-2.8173761E0,5.317121E-1,1.6299915E0,8.147494E0,5.5750504E0,-2.184393E-1,-1.22309E0,-4.375131E0,-1.3360584E-1,6.1321306E-1,1.390768E0,-4.684264E-1,4.4977007E0,1.1031303E0,-2.5521479E0,2.6985822E0,3.9241725E-1,5.0429816E0,-7.456629E-1,7.22273E-1,2.151432E-1,-4.2749515E0,1.9428283E0,-6.564736E-1,1.3564315E0,4.048516E-1,-1.7297165E-1,5.284507E-1],"categories":[],"categories_nodes":[],"categories_segments":[],"categories_sizes":[],"default_left":[true,true,true,true,true,true,true,true,true,false,true,true,true,true,true,true,true,false,true,true,true,true,true,false,true,true,false,true,true,true,true,true,true,false,false,true,true,true,true,true,true,false,true,false,false,true,true,true,true,true,true,false,false,false,false,false,false,false,false,false,false,false,false,false,false,false,false,false,false,false,false,false,false,false,false,false,false,false,false,false,false,false,false,false,false],"id":15,"left_children":[1,3,5,7,9,11,13,15,17,-1,19,21,23,25,27,29,31,-1,33,35,37,39,41,-1,43,45,-1,47,49,51,53,55,57,-1,-1,59,61,63,65,67,69,-1,71,-1,-1,73,75,77,79,81,83,-1,-1,-1,-1,-1,-1,-1,-1,-1,-1,-1,-1,-1,-1,-1,-1,-1,-1,-1,-1,-1,-1,-1,-1,-1,-1,-1,-1,-1,-1,-1,-1,-1,-1],"loss_changes":[9.5059425E1,4.52764E2,2.662826E2,1.6293805E2,2.9125204E2,2.6144022E2,2.5935168E2,1.7004422E2,2.3978838E2,0E0,1.3755798E2,3.5400928E2,1.3954475E1,2.7484695E2,2.2866605E2,2.325027E2,5.4598645E2,0E0,4.2485416E-1,6.4279335E1,8.915726E1,2.840413E2,1.7474573E2,0E0,3.4386635E-2,1.7100002E2,0E0,2.1630257E2,2.1089943E1,1.27460175E2,6.1256668E1,2.4139783E2,2.1654831E2,0E0,0E0,4.6455116E1,6.092687E1,1.4777197E2,4.681528E0,8.961547E1,2.4846378E2,0E0,4.606726E1,0E0,0E0,5.328501E2,1.5852895E2,2.0816711E1,2.0749713E2,9.071114E0,2.9184666E1,0E0,0E0,0E0,0E0,0E0,0E0,0E0,0E0,0E0,0E0,0E0,0E0,0E0,0E0,0E0,0E0,0E0,0E0,0E0,0E0,0E0,0E0,0E0,0E0,0E0,0E0,0E0,0E0,0E0,0E0,0E0,0E0,0E0,0E0],"parents":[2147483647,0,0,1,1,2,2,3,3,4,4,5,5,6,6,7,7,8,8,10,10,11,11,12,12,13,13,14,14,15,15,16,16,18,18,19,19,20,20,21,21,22,22,24,24,25,25,27,27,28,28,29,29,30,30,31,31,32,32,35,35,36,36,37,37,38,38,39,39,40,40,42,42,45,45,46,46,47,47,48,48,49,49,50,50],"right_children":[2,4,6,8,10,12,14,16,18,-1,20,22,24,26,28,30,32,-1,34,36,38,40,42,-1,44,46,-1,48,50,52,54,56,58,-1,-1,60,62,64,66,68,70,-1,72,-1,-1,74,76,78,80,82,84,-1,-1,-1,-1,-1,-1,-1,-1,-1,-1,-1,-1,-1,-1,-1,-1,-1,-1,-1,-1,-1,-1,-1,-1,-1,-1,-1,-1,-1,-1,-1,-1,-1,-1],"split_conditions":[2.5E0,1.5E0,9.8E-1,6.355E0,6.45E-5,5.565E3,2.03E2,9.9E1,6.4449997E0,-1.5504228E0,5.425E-1,1.4915E3,4.375E-1,1.82E2,4.25E0,5.15E1,1.3E2,4.2989497E0,7.5E-1,2.8E1,1.352E3,5E-1,1.7665E3,-6.4006364E-1,1.55E0,4.5E0,1.4110193E0,7.9000005E-5,5.1675E0,2.7350001E0,1.8355001E-3,4.1049998E-4,3.125E-5,-3.6050607E-2,-3.1959715E-1,1.05E1,9.775E-5,8.05E2,9.4375E0,5E-1,4E0,1.9681977E0,5E-1,-9.452438E-2,-2.384733E-1,3.5E0,6.5E0,5E-1,1.02E-4,9.5E0,6E-4,1.7884499E-1,-4.8993625E-2,-9.814E-1,8.54971E-1,1.8122505E0,-1.8098686E0,-8.452129E-1,1.5951364E-1,4.889975E-1,2.4442484E0,1.6725152E0,-6.553179E-2,-3.6692703E-1,-1.3125393E0,-4.0081754E-2,1.8396392E-1,4.1723043E-1,-1.4052793E-1,1.3493103E0,3.309391E-1,-7.656444E-1,8.0957466E-1,1.1772518E-1,1.5128945E0,-2.2369888E-1,2.1668191E-1,6.4542964E-2,-1.2824855E0,5.828485E-1,-1.9694208E-1,4.0692946E-1,1.2145548E-1,-5.18915E-2,1.5853523E-1],"split_indices":[4,4,1,5,3,7,7,7,5,0,1,7,1,7,1,7,7,0,1,7,7,6,7,0,5,4,0,3,1,5,3,3,3,0,0,7,3,7,1,11,4,0,0,0,0,4,4,0,3,4,3,0,0,0,0,0,0,0,0,0,0,0,0,0,0,0,0,0,0,0,0,0,0,0,0,0,0,0,0,0,0,0,0,0,0],"split_type":[0,0,0,0,0,0,0,0,0,0,0,0,0,0,0,0,0,0,0,0,0,0,0,0,0,0,0,0,0,0,0,0,0,0,0,0,0,0,0,0,0,0,0,0,0,0,0,0,0,0,0,0,0,0,0,0,0,0,0,0,0,0,0,0,0,0,0,0,0,0,0,0,0,0,0,0,0,0,0,0,0,0,0,0,0],"sum_hessian":[3.661E3,2.032E3,1.629E3,1.806E3,2.26E2,3.11E2,1.318E3,1.803E3,3E0,1.7E1,2.09E2,2.79E2,3.2E1,4.68E2,8.5E2,1.192E3,6.11E2,1E0,2E0,2.5E1,1.84E2,2.3E2,4.9E1,1.6E1,1.6E1,4.52E2,1.6E1,4.98E2,3.52E2,1.166E3,2.6E1,2.3E1,5.88E2,1E0,1E0,5E0,2E1,1.52E2,3.2E1,1.33E2,9.7E1,1.6E1,3.3E1,2E0,1.4E1,1.3E2,3.22E2,1.7E1,4.81E2,4.8E1,3.04E2,2.95E2,8.71E2,2.5E1,1E0,2.2E1,1E0,1.9E1,5.69E2,4E0,1E0,1E0,1.9E1,1.36E2,1.6E1,1.6E1,1.6E1,3.4E1,9.9E1,3.2E1,6.5E1,1E0,3.2E1,9.8E1,3.2E1,1.12E2,2.1E2,1E0,1.6E1,3.2E1,4.49E2,3.2E1,1.6E1,8E1,2.24E2],"tree_param":{"num_deleted":"0","num_feature":"13","num_nodes":"85","size_leaf_vector":"0"}},{"base_weights":[1.24217786E-1,1.19431056E-1,3.6013446E0,1.1661494E-2,2.536562E-1,1.2180357E1,-1.5884976E0,1.270117E-1,-9.050938E-1,1.0363144E0,1.2554602E-1,-1.0214424E-1,-2.0499008E0,-1.110561E-1,3.6309996E-1,-3.7037876E0,-6.6089576E-1,4.0197015E-1,2.6306295E0,-4.486463E-1,3.2232314E-1,4.0903322E-2,-1.0978669E0,2.0838444E0,2.4295016E-1,1.0153317E0,-8.929013E-1,9.123381E-1,-7.9012287E-1,3.4409664E0,1.7405769E0,-6.327822E-1,7.2545135E-1,8.5770243E-1,-1.5610685E-2,3.8391232E-1,-3.926991E-1,-2.0436702E0,5.7058405E-2,8.196379E0,9.6430224E-1,2.2853693E-2,1.077198E0,3.340784E0,3.0256763E-1,1.6330253E-1,-1.1404375E0,-1.531132E0,1.3186046E0,-3.0679057E0,3.7200743E-1,4.7082386E0,1.9712843E0,-8.718131E-1,6.5821534E-1,1.6188586E0,2.4322787E-1,1.7062174E0,-6.048132E-2,-1.0084307E0,1.2776549E-1],"categories":[],"categories_nodes":[],"categories_segments":[],"categories_sizes":[],"default_left":[true,true,true,true,true,false,true,true,true,true,true,false,false,true,true,false,true,true,true,true,true,true,true,true,true,true,true,true,true,true,false,true,true,true,true,false,false,false,false,false,false,false,false,false,false,false,false,false,false,false,false,false,false,false,false,false,false,false,false,false,false],"id":16,"left_children":[1,3,5,7,9,-1,11,13,15,17,19,-1,-1,21,23,-1,25,27,29,31,33,35,37,39,41,43,45,47,49,51,-1,53,55,57,59,-1,-1,-1,-1,-1,-1,-1,-1,-1,-1,-1,-1,-1,-1,-1,-1,-1,-1,-1,-1,-1,-1,-1,-1,-1,-1],"loss_changes":[6.0520443E1,5.291143E1,2.4196707E2,2.1478323E2,1.6320401E2,0E0,2.5338469E0,1.0143416E2,1.5269202E2,2.305405E2,1.5844066E2,0E0,0E0,1.3485463E2,1.8680661E2,0E0,8.257433E1,1.0110786E2,4.089148E1,7.785634E1,1.8889677E2,1.16159805E2,1.3119646E2,3.9584744E2,1.5568091E2,4.208416E1,4.8554245E1,1.17172165E2,1.334953E2,5.2180786E1,0E0,9.623623E1,2.0716524E1,3.1485666E2,9.13731E1,0E0,0E0,0E0,0E0,0E0,0E0,0E0,0E0,0E0,0E0,0E0,0E0,0E0,0E0,0E0,0E0,0E0,0E0,0E0,0E0,0E0,0E0,0E0,0E0,0E0,0E0],"parents":[2147483647,0,0,1,1,2,2,3,3,4,4,6,6,7,7,8,8,9,9,10,10,13,13,14,14,16,16,17,17,18,18,19,19,20,20,21,21,22,22,23,23,24,24,25,25,26,26,27,27,28,28,29,29,31,31,32,32,33,33,34,34],"right_children":[2,4,6,8,10,-1,12,14,16,18,20,-1,-1,22,24,-1,26,28,30,32,34,36,38,40,42,44,46,48,50,52,-1,54,56,58,60,-1,-1,-1,-1,-1,-1,-1,-1,-1,-1,-1,-1,-1,-1,-1,-1,-1,-1,-1,-1,-1,-1,-1,-1,-1,-1],"split_conditions":[6.355E0,2.5E0,6.4449997E0,1.5E0,1.02E-4,3.6541073E0,4.25E-2,1.2925E0,6.45E-5,8.5249994E-5,3.625E-4,-3.0643273E-2,-6.1497027E-1,5E-1,5E-1,-1.1111363E0,5.425E-1,1.605E0,8.55E-1,1.35E1,2.105E2,1.4500001E-1,5.75E-4,2.3600001E0,8.305E2,2.8E1,5E-1,3.5E0,2.1875E0,9.575E-5,5.221731E-1,4.375E0,1.75E-4,5.02E0,4.5E0,1.15173705E-1,-1.17809735E-1,-6.1310107E-1,1.7117523E-2,2.4589138E0,2.892907E-1,6.856108E-3,3.2315943E-1,1.0022353E0,9.077029E-2,4.899076E-2,-3.4213126E-1,-4.5933962E-1,3.955814E-1,-9.203717E-1,1.1160223E-1,1.4124717E0,5.913853E-1,-2.6154396E-1,1.9746462E-1,4.856576E-1,7.2968364E-2,5.1186526E-1,-1.8144397E-2,-3.0252922E-1,3.832965E-2],"split_indices":[5,4,5,4,3,0,1,1,3,3,3,0,0,2,0,0,1,1,1,4,7,1,3,5,7,7,11,4,1,3,0,1,3,1,4,0,0,0,0,0,0,0,0,0,0,0,0,0,0,0,0,0,0,0,0,0,0,0,0,0,0],"split_type":[0,0,0,0,0,0,0,0,0,0,0,0,0,0,0,0,0,0,0,0,0,0,0,0,0,0,0,0,0,0,0,0,0,0,0,0,0,0,0,0,0,0,0,0,0,0,0,0,0,0,0,0,0,0,0,0,0,0,0,0,0],"sum_hessian":[3.661E3,3.657E3,4E0,2.029E3,1.628E3,1E0,3E0,1.803E3,2.26E2,2.28E2,1.4E3,1E0,2E0,8.98E2,9.05E2,1.7E1,2.09E2,1.64E2,6.4E1,3.57E2,1.043E3,7.79E2,1.19E2,5.8E1,8.47E2,2.5E1,1.84E2,1.15E2,4.9E1,3.2E1,3.2E1,3.09E2,4.8E1,4.03E2,6.4E2,4.35E2,3.44E2,6.5E1,5.4E1,8E0,5E1,6.71E2,1.76E2,5E0,2E1,3.5E1,1.49E2,1.6E1,9.9E1,1.6E1,3.3E1,1.6E1,1.6E1,2.61E2,4.8E1,1.6E1,3.2E1,2.09E2,1.94E2,8E1,5.6E2],"tree_param":{"num_deleted":"0","num_feature":"13","num_nodes":"61","size_leaf_vector":"0"}},{"base_weights":[8.901521E-2,8.484431E-2,3.1226406E0,6.963587E-2,7.555972E-1,1.0353304E1,-1.2733512E0,1.6197753E-1,-5.2811593E-2,1.099225E0,2.2246481E-1,-8.682251E-2,-1.6399199E0,7.983154E-2,1.053657E0,-7.626465E-1,6.4281315E-2,7.000679E-1,1.2715417E0,3.3133113E-1,1.0051233E-1,1.064662E0,4.3756906E-2,1.5663664E0,-2.286811E-1,3.6474395E0,-9.700064E-1,8.5116094E-1,-5.3362105E-2,1.854477E-1,8.3613396E-2,4.0103212E-1,2.8120623E0,6.72867E-2,-1.2613082E0,-3.041078E0,1.7068949E0,-4.5831323E-1,2.4403493E-1,-2.126984E0,1.7830088E1,-1.2157359E0,1.8768059E0,1.0052528E1,7.385651E-1,-4.4071415E-1,1.12986736E-1],"categories":[],"categories_nodes":[],"categories_segments":[],"categories_sizes":[],"default_left":[true,true,true,true,true,false,true,true,true,true,true,false,false,true,true,true,true,false,false,false,true,true,true,true,true,true,true,true,true,false,false,false,false,false,false,false,false,false,false,false,false,false,false,false,false,false,false],"id":17,"left_children":[1,3,5,7,9,-1,11,13,15,17,19,-1,-1,21,23,25,27,-1,-1,-1,29,31,33,35,37,39,41,43,45,-1,-1,-1,-1,-1,-1,-1,-1,-1,-1,-1,-1,-1,-1,-1,-1,-1,-1],"loss_changes":[4.607013E1,3.726304E1,1.7211307E2,4.046501E1,1.4594597E1,0E0,1.5973959E0,1.4934158E2,1.27965515E2,2.4801216E0,4.0482235E-1,0E0,0E0,6.635412E1,1.1344246E2,2.0289357E2,1.2242456E2,0E0,0E0,0E0,8.894503E-3,7.540765E1,5.5481937E1,8.4830475E1,5.539383E0,8.568905E2,1.484868E2,1.7077376E2,7.4215126E1,0E0,0E0,0E0,0E0,0E0,0E0,0E0,0E0,0E0,0E0,0E0,0E0,0E0,0E0,0E0,0E0,0E0,0E0],"parents":[2147483647,0,0,1,1,2,2,3,3,4,4,6,6,7,7,8,8,9,9,10,10,13,13,14,14,15,15,16,16,20,20,21,21,22,22,23,23,24,24,25,25,26,26,27,27,28,28],"right_children":[2,4,6,8,10,-1,12,14,16,18,20,-1,-1,22,24,26,28,-1,-1,-1,30,32,34,36,38,40,42,44,46,-1,-1,-1,-1,-1,-1,-1,-1,-1,-1,-1,-1,-1,-1,-1,-1,-1,-1],"split_conditions":[6.355E0,1.575E1,6.4449997E0,5.0624995E-4,1.2E1,3.1059914E0,4.25E-2,4.4799998E-4,6.1875E-4,1.675E1,2.325E1,-2.6046755E-2,-4.91976E-1,1.455E0,6.04E0,5E-1,7.165E-4,2.1002038E-1,3.8146254E-1,9.939934E-2,1.275E0,1.345E0,4.3324998E-4,1.05E-1,5.02E-4,3.68E0,1.15E1,2E-2,9.98E-4,5.563431E-2,2.508402E-2,1.2030964E-1,8.436187E-1,2.018601E-2,-3.783925E-1,-9.123235E-1,5.120685E-1,-1.3749397E-1,7.3210485E-2,-6.380952E-1,5.3490267E0,-3.647208E-1,5.630418E-1,3.0157588E0,2.2156954E-1,-1.3221425E-1,3.389602E-2],"split_indices":[5,1,5,3,4,0,1,3,3,1,1,0,0,5,1,0,3,0,0,0,5,5,3,1,3,5,1,1,3,0,0,0,0,0,0,0,0,0,0,0,0,0,0,0,0,0,0],"split_type":[0,0,0,0,0,0,0,0,0,0,0,0,0,0,0,0,0,0,0,0,0,0,0,0,0,0,0,0,0,0,0,0,0,0,0,0,0,0,0,0,0,0,0,0,0,0,0],"sum_hessian":[3.661E3,3.657E3,4E0,3.577E3,8E1,1E0,3E0,2.039E3,1.538E3,4.8E1,3.2E1,1E0,2E0,1.868E3,1.71E2,2.17E2,1.321E3,1.6E1,3.2E1,1.6E1,1.6E1,6.5E1,1.803E3,1.22E2,4.9E1,9E0,2.08E2,1.71E2,1.15E3,1E0,1.5E1,4.8E1,1.7E1,1.772E3,3.1E1,3E0,1.19E2,3.3E1,1.6E1,7E0,2E0,1.92E2,1.6E1,1E0,1.7E2,3.45E2,8.05E2],"tree_param":{"num_deleted":"0","num_feature":"13","num_nodes":"47","size_leaf_vector":"0"}},{"base_weights":[6.546422E-2,5.105738E-1,4.391614E-2,-1.4387277E0,1.8051026E0,-2.3267817E0,6.926949E-2,-2.8728504E0,3.0326314E0,3.1718235E0,-4.332248E0,8.795195E0,-2.8800364E0,1.7861453E0,4.406766E-2,-3.7967753E0,-9.167268E-1,5.7782884E0,1.096594E0,-4.493115E0,-7.183256E-1,-5.91549E0,-2.3157456E0,9.0770584E-1,3.4379568E0,-2.7876905E-1,8.097903E-2,-4.212141E0,-2.6496458E0,7.863678E0,1.3234397E0,1.133148E-1,9.530132E0,-1.9792467E0,-7.879904E0,-2.7994697E0,-1.7242556E0,-3.953411E0,1.1748128E0,-1.65165E0,3.9140072E-1,1.952296E0,2.9441942E-2,5.398199E0,1.6645954E1,2.1605773E0,-1.3317108E-2,2.284404E0,-2.1616108E0,1.1949565E1,-7.379913E-2,1.3519251E0,9.285938E-1,-2.356635E0,1.4356344E0,-9.38237E-2,7.94601E-1,3.2722805E0,-8.577568E-1,8.8991314E-1,-2.5884578E-2],"categories":[],"categories_nodes":[],"categories_segments":[],"categories_sizes":[],"default_left":[true,true,true,true,true,true,true,true,false,true,true,false,true,true,true,true,false,true,true,false,false,true,true,true,false,true,true,false,false,true,true,true,true,false,false,false,false,false,true,true,true,true,true,false,false,false,false,false,false,false,false,false,false,false,false,false,false,false,false,false,false],"id":18,"left_children":[1,3,5,7,9,11,13,15,-1,17,19,-1,21,23,25,27,-1,29,31,-1,-1,33,35,37,-1,39,41,-1,-1,43,45,47,49,-1,-1,-1,-1,-1,51,53,55,57,59,-1,-1,-1,-1,-1,-1,-1,-1,-1,-1,-1,-1,-1,-1,-1,-1,-1,-1],"loss_changes":[3.5100754E1,4.2905618E2,2.1016855E2,4.4476074E2,8.693219E2,2.5300206E2,1.495435E2,9.04996E1,0E0,4.4802057E2,7.8182983E0,0E0,4.7964844E1,6.943016E1,4.0645397E1,5.5160522E0,0E0,3.3332642E2,3.9696118E2,0E0,0E0,2.306578E1,4.328781E0,4.8791405E1,0E0,3.2266858E2,2.9505573E2,0E0,0E0,4.514547E2,1.4576414E1,2.2225693E2,1.17062164E2,0E0,0E0,0E0,0E0,0E0,1.8368912E-1,2.5367953E2,4.6246216E1,3.069634E2,1.4184393E2,0E0,0E0,0E0,0E0,0E0,0E0,0E0,0E0,0E0,0E0,0E0,0E0,0E0,0E0,0E0,0E0,0E0,0E0],"parents":[2147483647,0,0,1,1,2,2,3,3,4,4,5,5,6,6,7,7,9,9,10,10,12,12,13,13,14,14,15,15,17,17,18,18,21,21,22,22,23,23,25,25,26,26,29,29,30,30,31,31,32,32,38,38,39,39,40,40,41,41,42,42],"right_children":[2,4,6,8,10,12,14,16,-1,18,20,-1,22,24,26,28,-1,30,32,-1,-1,34,36,38,-1,40,42,-1,-1,44,46,48,50,-1,-1,-1,-1,-1,52,54,56,58,60,-1,-1,-1,-1,-1,-1,-1,-1,-1,-1,-1,-1,-1,-1,-1,-1,-1,-1],"split_conditions":[1.4499999E-5,5E-1,1.875E-5,1.25E0,5E-1,2E-2,2.3E-5,7.5E-1,9.0978944E-1,3.275E0,6.25E-2,2.6385584E0,5E-1,2.075E-5,1.05000004E-1,5E-1,-2.7501807E-1,1.25E0,4.705E0,-1.3479345E0,-2.1549769E-1,5E-1,1.23E0,5E-1,1.0313871E0,3E0,1.4500001E-1,-1.2636423E0,-7.948938E-1,3.05E0,8.75E0,5E-1,6.4449997E0,-5.93774E-1,-2.3639712E0,-8.3984095E-1,-5.172767E-1,-1.1860234E0,2.6875E0,1.1730001E-3,5E-1,5E-1,5E-1,1.6194597E0,4.9937863E0,6.481732E-1,-3.9951326E-3,6.853212E-1,-6.484833E-1,3.5848696E0,-2.2139741E-2,4.0557757E-1,2.7857816E-1,-7.0699054E-1,4.3069032E-1,-2.814711E-2,2.3838031E-1,9.8168415E-1,-2.5732705E-1,2.6697394E-1,-7.7653737E-3],"split_indices":[3,11,3,1,7,1,3,1,0,5,1,0,0,3,1,9,0,1,5,0,0,6,1,0,0,7,1,0,0,5,1,8,5,0,0,0,0,0,1,3,11,7,0,0,0,0,0,0,0,0,0,0,0,0,0,0,0,0,0,0,0],"split_type":[0,0,0,0,0,0,0,0,0,0,0,0,0,0,0,0,0,0,0,0,0,0,0,0,0,0,0,0,0,0,0,0,0,0,0,0,0,0,0,0,0,0,0,0,0,0,0,0,0,0,0,0,0,0,0,0,0,0,0,0,0],"sum_hessian":[3.661E3,1.68E2,3.493E3,6.7E1,1.01E2,3.6E1,3.457E3,5.1E1,1.6E1,8.3E1,1.8E1,1E0,3.5E1,4.9E1,3.408E3,3.4E1,1.7E1,3.6E1,4.7E1,1.7E1,1E0,4E0,3.1E1,3.3E1,1.6E1,3.49E2,3.059E3,2.3E1,1.1E1,2.4E1,1.2E1,4.3E1,4E0,2E0,2E0,1.5E1,1.6E1,1E0,3.2E1,1.14E2,2.35E2,8.1E1,2.978E3,2E1,4E0,7E0,5E0,2.2E1,2.1E1,3E0,1E0,1.6E1,1.6E1,9.3E1,2.1E1,1.07E2,1.28E2,5.5E1,2.6E1,1.79E2,2.799E3],"tree_param":{"num_deleted":"0","num_feature":"13","num_nodes":"61","size_leaf_vector":"0"}},{"base_weights":[4.791149E-2,-3.9078277E-2,1.5637915E-1,3.486594E-2,-6.2752813E-1,6.705702E-1,7.1853586E-2,-2.1532789E-1,1.4768621E-1,-1.3783263E0,-7.673917E-2,2.9230443E-1,2.0618722E0,-3.2441863E-1,2.0767121E-1,1.1735616E-1,-1.5681014E0,2.798378E0,6.425034E-2,2.569515E0,-1.623477E0,4.5498276E0,-1.4678797E-1,1.1189011E0,-1.876463E-1,3.3553863E0,1.3330356E0,-9.08476E-1,-3.710252E-2,1.100396E0,1.1506857E-1,-8.987859E-2,2.5145655E0,4.502849E0,-1.7208055E0,6.344862E0,-3.7472144E-1,-3.181484E0,1.0219017E-1,-1.337552E-1,5.31737E0,8.9591944E-1,-1.7496092E0,-6.8388957E-1,3.9253768E-1,-1.6463579E0,1.2293147E0,-7.659624E-1,5.644421E-1,-1.6427183E0,1.5898187E-1,4.4622204E-1,-7.592155E-1,3.8168533E0,4.8315376E-1,-9.0404373E-1,2.1014704E-1,-1.8276186E0,1.4647162E-1,8.6557436E-1,4.115469E0,-6.0457015E0,-1.5834645E0,-1.6888113E-1,-2.2457638E0,-7.108218E0,-8.999683E-1,7.5683656E0,8.3345346E-2,3.4060922E-1,-7.7842426E-1,1.6191826E0,6.3568726E0,-9.03605E-1,4.0470085E0,-2.145358E0,-1.0696081E0,1.290339E-1,-2.858854E0,6.700148E-1,9.475714E-2,-2.047926E0,-4.2161083E-1,8.141804E-2,1.2459784E0,2.804814E-1,-1.7591001E0,9.7020406E-1,3.5123077E-1,1.2597631E0,-1.7466112E0,-2.8741086E-1,1.016157E0,-9.0193585E-2,8.711701E-1,-3.7629384E-1,-1.126643E0,1.1728836E0,2.9532972E-1,4.471862E-1,-1.243534E0,8.917052E-1,9.088972E-2],"categories":[],"categories_nodes":[],"categories_segments":[],"categories_sizes":[],"default_left":[true,true,true,true,true,true,true,true,true,true,true,true,true,true,true,true,true,true,true,true,true,false,true,true,true,false,false,true,true,true,true,true,true,false,true,false,true,true,true,true,true,true,true,true,true,true,true,true,true,true,true,true,true,false,true,true,true,false,false,false,false,false,false,false,false,false,false,false,false,false,false,false,false,false,false,false,false,false,false,false,false,false,false,false,false,false,false,false,false,false,false,false,false,false,false,false,false,false,false,false,false,false,false],"id":19,"left_children":[1,3,5,7,9,11,13,15,17,19,21,23,25,27,29,31,33,35,37,39,41,-1,43,45,47,-1,-1,49,51,53,55,57,59,-1,61,-1,63,65,67,69,71,73,75,77,79,81,83,85,87,89,91,93,95,-1,97,99,101,-1,-1,-1,-1,-1,-1,-1,-1,-1,-1,-1,-1,-1,-1,-1,-1,-1,-1,-1,-1,-1,-1,-1,-1,-1,-1,-1,-1,-1,-1,-1,-1,-1,-1,-1,-1,-1,-1,-1,-1,-1,-1,-1,-1,-1,-1],"loss_changes":[3.4559193E1,8.848272E1,7.079535E1,5.1037876E1,9.376584E1,1.2044215E2,7.5470245E1,2.5310999E2,2.75389E2,9.7081924E1,4.3447147E1,7.241404E1,4.1722412E1,6.0041946E1,8.617949E1,2.2477284E2,1.1065207E2,4.3000467E2,1.4920451E2,4.5280396E1,3.0485245E1,0E0,3.8215572E1,2.2480461E1,5.0885944E1,0E0,0E0,9.274634E1,8.4451385E1,1.6247366E2,9.195015E1,1.7153593E2,9.147328E1,0E0,5.5171326E1,0E0,7.7085876E0,1.1902751E2,1.6764491E2,1.4883708E0,1.239891E0,3.2009205E1,2.1117859E1,1.1706215E2,5.3899117E0,6.12031E-1,1.1418915E0,6.908475E1,4.0713997E0,2.3308624E1,1.9041256E1,3.313115E1,1.322356E1,0E0,1.0146988E1,3.7713165E1,7.0389404E1,0E0,0E0,0E0,0E0,0E0,0E0,0E0,0E0,0E0,0E0,0E0,0E0,0E0,0E0,0E0,0E0,0E0,0E0,0E0,0E0,0E0,0E0,0E0,0E0,0E0,0E0,0E0,0E0,0E0,0E0,0E0,0E0,0E0,0E0,0E0,0E0,0E0,0E0,0E0,0E0,0E0,0E0,0E0,0E0,0E0,0E0],"parents":[2147483647,0,0,1,1,2,2,3,3,4,4,5,5,6,6,7,7,8,8,9,9,10,10,11,11,12,12,13,13,14,14,15,15,16,16,17,17,18,18,19,19,20,20,22,22,23,23,24,24,27,27,28,28,29,29,30,30,31,31,32,32,34,34,36,36,37,37,38,38,39,39,40,40,41,41,42,42,43,43,44,44,45,45,46,46,47,47,48,48,49,49,50,50,51,51,52,52,54,54,55,55,56,56],"right_children":[2,4,6,8,10,12,14,16,18,20,22,24,26,28,30,32,34,36,38,40,42,-1,44,46,48,-1,-1,50,52,54,56,58,60,-1,62,-1,64,66,68,70,72,74,76,78,80,82,84,86,88,90,92,94,96,-1,98,100,102,-1,-1,-1,-1,-1,-1,-1,-1,-1,-1,-1,-1,-1,-1,-1,-1,-1,-1,-1,-1,-1,-1,-1,-1,-1,-1,-1,-1,-1,-1,-1,-1,-1,-1,-1,-1,-1,-1,-1,-1,-1,-1,-1,-1,-1,-1],"split_conditions":[2.5E0,1.5E0,1.02E-4,1.06E-4,3.47E2,8.95E-5,3.625E-4,7.7000004E-5,1.145E-4,2.0750001E-1,7.275E-5,1.2E1,9.575E-5,2.685E2,6.25E-1,8.58E2,6.25E-2,3.5E0,1.2925E-4,8.2499996E-2,1.74E0,1.3649483E0,1.875E0,5E-1,5.5E0,1.0066159E0,3.999107E-1,4E0,2.1315E3,8.25E-4,1.105E0,5E-1,6.45E-1,1.3508548E0,1.05000004E-1,1.9034587E0,1.375E0,6.25E-2,1.4375E-4,2E-2,1.4500001E-1,1.645E0,3.75E0,7.955E2,8.5E-4,5E-1,1.5550001E0,5.95E2,2.475E-5,1.0250001E-1,5.75E0,1.7700001E-4,1.5425E0,1.145056E0,1.0375001E-3,7.2925E-4,5.27E-4,-5.482856E-1,4.3941487E-2,2.596723E-1,1.2346407E0,-1.8137106E0,-4.7503936E-1,-5.0664343E-2,-6.737292E-1,-2.1324656E0,-2.699905E-1,2.2705097E0,2.5003605E-2,1.0218277E-1,-2.3352729E-1,4.857548E-1,1.9070618E0,-2.710815E-1,1.2141026E0,-6.4360744E-1,-3.2088244E-1,3.871017E-2,-8.5765624E-1,2.0100445E-1,2.8427143E-2,-6.143778E-1,-1.2648326E-1,2.4425412E-2,3.737935E-1,8.414442E-2,-5.2773005E-1,2.9106122E-1,1.0536923E-1,3.7792894E-1,-5.239834E-1,-8.622326E-2,3.0484712E-1,-2.7058076E-2,2.6135105E-1,-1.1288816E-1,-3.379929E-1,3.518651E-1,8.859892E-2,1.3415587E-1,-3.730602E-1,2.6751158E-1,2.7266918E-2],"split_indices":[4,4,3,3,7,3,3,3,3,1,3,7,3,7,1,7,1,7,3,1,5,0,1,0,4,0,0,1,7,3,1,0,1,0,1,0,1,1,3,1,1,5,1,7,3,1,5,7,3,1,1,3,1,0,3,3,3,0,0,0,0,0,0,0,0,0,0,0,0,0,0,0,0,0,0,0,0,0,0,0,0,0,0,0,0,0,0,0,0,0,0,0,0,0,0,0,0,0,0,0,0,0,0],"split_type":[0,0,0,0,0,0,0,0,0,0,0,0,0,0,0,0,0,0,0,0,0,0,0,0,0,0,0,0,0,0,0,0,0,0,0,0,0,0,0,0,0,0,0,0,0,0,0,0,0,0,0,0,0,0,0,0,0,0,0,0,0,0,0,0,0,0,0,0,0,0,0,0,0,0,0,0,0,0,0,0,0,0,0,0,0,0,0,0,0,0,0,0,0,0,0,0,0,0,0,0,0,0,0],"sum_hessian":[3.661E3,2.032E3,1.629E3,1.806E3,2.26E2,2.29E2,1.4E3,5.61E2,1.245E3,9.5E1,1.31E2,1.81E2,4.8E1,3.57E2,1.043E3,4.51E2,1.1E2,3.7E1,1.208E3,5E0,9E1,1E0,1.3E2,6.6E1,1.15E2,1.6E1,3.2E1,1.17E2,2.4E2,9.7E1,9.46E2,4.16E2,3.5E1,2E0,1.08E2,1.7E1,2E1,1.3E1,1.195E3,3E0,2E0,4E0,8.6E1,6.5E1,6.5E1,2E0,6.4E1,6.5E1,5E1,6.9E1,4.8E1,1.44E2,9.6E1,1.7E1,8E1,8E1,8.66E2,4.9E1,3.67E2,1.8E1,1.7E1,2E0,1.06E2,1.9E1,1E0,4E0,9E0,2E0,1.193E3,2E0,1E0,1E0,1E0,3E0,1E0,5.3E1,3.3E1,4.8E1,1.7E1,3.3E1,3.2E1,1E0,1E0,1E0,6.3E1,3.2E1,3.3E1,1.6E1,3.4E1,2E0,6.7E1,3.2E1,1.6E1,6.4E1,8E1,4.8E1,4.8E1,1.6E1,6.4E1,1.6E1,6.4E1,1.28E2,7.38E2],"tree_param":{"num_deleted":"0","num_feature":"13","num_nodes":"103","size_leaf_vector":"0"}},{"base_weights":[3.53547E-2,3.9235191E0,3.3220947E-2,3.1795675E-1,1.0818094E-2,3.462068E0,1.5642183E-1,-5.167556E-1,4.4531822E-2,-1.11072965E-1,9.201308E0,-3.49861E0,3.5131478E-1,-2.8450074E0,-1.4552507E-1,1.3331755E0,1.0126045E-2,-1.1573372E0,6.049487E-1,3.9115226E0,1.1423991E1,-8.845072E0,-1.3961898E-1,3.0041265E0,1.2573817E-1,-1.5507821E0,-6.5061426E0,-4.599525E-1,1.2404599E0,3.8011541E0,7.537965E-2,-6.282963E-1,5.5159237E-2,-1.5852114E0,6.314278E-2,1.4856733E0,-2.0683193E-1,-3.1627169E0,9.030001E0,-1.7325706E0,-1.0190054E1,-5.5208045E-1,5.13978E-1,1.3368766E1,-1.6524422E0,-9.850165E0,2.1424742E-1,-2.0695312E0,1.3009715E0,-7.37976E0,-6.3222027E-1,-9.9704146E-1,2.1641916E-1,7.2097933E-1,1.6869723E0,-2.7708013E0,6.568476E0,9.300695E-1,-1.5095656E0,-1.06903926E-1,-1.4416356E0,5.2179664E-1,2.0291986E-2],"categories":[],"categories_nodes":[],"categories_segments":[],"categories_sizes":[],"default_left":[true,false,true,true,true,true,true,true,true,true,true,true,true,true,true,true,true,true,true,true,false,true,true,true,true,true,true,true,true,true,true,true,true,false,false,false,false,false,false,false,false,false,false,false,false,false,false,false,false,false,false,false,false,false,false,false,false,false,false,false,false,false,false],"id":20,"left_children":[1,-1,3,5,7,9,11,13,15,17,19,21,23,25,27,29,31,33,35,37,-1,39,41,43,45,47,49,51,53,55,57,59,61,-1,-1,-1,-1,-1,-1,-1,-1,-1,-1,-1,-1,-1,-1,-1,-1,-1,-1,-1,-1,-1,-1,-1,-1,-1,-1,-1,-1,-1,-1],"loss_changes":[3.0251064E1,0E0,2.334969E1,1.3506342E2,6.0408096E1,2.6761447E2,1.8287581E2,1.7590688E2,1.4150954E2,7.44246E0,1.4102386E1,2.322284E2,1.4503645E2,1.22583755E2,7.770568E1,2.5736316E2,8.944778E1,2.1889424E0,4.5970154E0,1.3718735E2,0E0,3.0175964E1,2.7100096E0,9.3910065E2,2.0077629E2,3.5237976E1,3.125528E1,5.2890175E1,6.438225E0,5.274281E2,7.726365E1,8.6780014E1,4.7271088E1,0E0,0E0,0E0,0E0,0E0,0E0,0E0,0E0,0E0,0E0,0E0,0E0,0E0,0E0,0E0,0E0,0E0,0E0,0E0,0E0,0E0,0E0,0E0,0E0,0E0,0E0,0E0,0E0,0E0,0E0],"parents":[2147483647,0,0,2,2,3,3,4,4,5,5,6,6,7,7,8,8,9,9,10,10,11,11,12,12,13,13,14,14,15,15,16,16,17,17,18,18,19,19,21,21,22,22,23,23,24,24,25,25,26,26,27,27,28,28,29,29,30,30,31,31,32,32],"right_children":[2,-1,4,6,8,10,12,14,16,18,20,22,24,26,28,30,32,34,36,38,-1,40,42,44,46,48,50,52,54,56,58,60,62,-1,-1,-1,-1,-1,-1,-1,-1,-1,-1,-1,-1,-1,-1,-1,-1,-1,-1,-1,-1,-1,-1,-1,-1,-1,-1,-1,-1,-1,-1],"split_conditions":[5.5E-2,1.1770558E0,2E-2,1.81E0,1.05000004E-1,5E-1,2.135E0,5E-1,1.4500001E-1,1.285E0,5E-1,1.875E-4,2.355E0,5E-1,3.5745E3,1.79E-4,3.5500002E-1,1.5980001E-3,9.5E0,3E-4,3.4271975E0,1.85E0,5E-1,5E-1,2.37E0,8.125E-4,5E-1,6.25E-2,1.29E-4,5E-1,4.9575E-4,2.8325E-4,4.8E-5,-4.7556344E-1,1.8942833E-2,4.4570202E-1,-6.2049583E-2,-9.488151E-1,2.7090003E0,-5.197712E-1,-3.0570164E0,-1.6562414E-1,1.541934E-1,4.01063E0,-4.957327E-1,-2.9550498E0,6.427423E-2,-6.208594E-1,3.9029148E-1,-2.213928E0,-1.8966609E-1,-2.9911244E-1,6.492575E-2,2.1629381E-1,5.060917E-1,-8.312404E-1,1.9705429E0,2.7902088E-1,-4.5286968E-1,-3.207118E-2,-4.324907E-1,1.56539E-1,6.087596E-3],"split_indices":[5,0,1,5,1,8,5,0,1,5,0,3,5,6,7,3,1,3,7,3,0,5,2,7,5,3,10,1,3,6,3,3,3,0,0,0,0,0,0,0,0,0,0,0,0,0,0,0,0,0,0,0,0,0,0,0,0,0,0,0,0,0,0],"split_type":[0,0,0,0,0,0,0,0,0,0,0,0,0,0,0,0,0,0,0,0,0,0,0,0,0,0,0,0,0,0,0,0,0,0,0,0,0,0,0,0,0,0,0,0,0,0,0,0,0,0,0,0,0,0,0,0,0,0,0,0,0,0,0],"sum_hessian":[3.661E3,1E0,3.66E3,2.66E2,3.394E3,1.2E1,2.54E2,2.03E2,3.191E3,8E0,4E0,1.2E1,2.42E2,2.7E1,1.76E2,8.2E1,3.109E3,3E0,5E0,2E0,2E0,4E0,8E0,1.8E1,2.24E2,2.1E1,6E0,1.44E2,3.2E1,2.7E1,5.5E1,2.04E2,2.905E3,2E0,1E0,2E0,3E0,1E0,1E0,1E0,3E0,5E0,3E0,5E0,1.3E1,1E0,2.23E2,1.8E1,3E0,5E0,1E0,8E1,6.4E1,1.6E1,1.6E1,8E0,1.9E1,3.6E1,1.9E1,1.25E2,7.9E1,2.01E2,2.704E3],"tree_param":{"num_deleted":"0","num_feature":"13","num_nodes":"63","size_leaf_vector":"0"}},{"base_weights":[2.525158E-2,2.2301758E-2,2.178292E0,3.3349915E0,2.0483961E-2,6.953766E0,-7.5401783E-1,-4.9078118E-2,1.0711439E-1,-1.1683655E-1,-9.274661E-1,-1.369337E-1,1.659456E-1,3.8711983E-1,2.3651691E-2,1.487115E-2,-6.420828E-1,1.9927221E1,6.466831E-2,2.7581763E-1,1.5288844E0,-1.3157797E-1,3.0294326E-1,2.3346657E-1,-5.7538605E-1,-1.2326686E0,3.5051352E-1,-3.0775246E-1,3.9843705E-1,4.3907583E-1,-7.093604E-1,2.8137603E0,1.5407428E-1,-7.9176843E-1,-4.985436E-3,1.3543534E0,7.132494E-2],"categories":[],"categories_nodes":[],"categories_segments":[],"categories_sizes":[],"default_left":[true,true,true,false,true,false,true,true,true,false,false,true,true,true,true,true,true,false,true,true,true,true,true,false,false,false,false,false,false,false,false,false,false,false,false,false,false],"id":21,"left_children":[1,3,5,-1,7,-1,9,11,13,-1,-1,15,17,19,21,23,25,-1,27,29,31,33,35,-1,-1,-1,-1,-1,-1,-1,-1,-1,-1,-1,-1,-1,-1],"loss_changes":[2.320911E1,2.1959412E1,7.52591E1,0E0,2.2043043E1,0E0,3.3370996E-1,3.835263E1,3.8060593E1,0E0,0E0,1.1051131E2,1.1775173E3,4.7106567E1,5.449291E1,1.4322585E2,1.9564111E2,0E0,7.308814E1,5.531819E1,5.7859657E1,6.7524796E1,1.0924652E2,0E0,0E0,0E0,0E0,0E0,0E0,0E0,0E0,0E0,0E0,0E0,0E0,0E0,0E0],"parents":[2147483647,0,0,1,1,2,2,4,4,6,6,7,7,8,8,11,11,12,12,13,13,14,14,15,15,16,16,18,18,19,19,20,20,21,21,22,22],"right_children":[2,4,6,-1,8,-1,10,12,14,-1,-1,16,18,20,22,24,26,-1,28,30,32,34,36,-1,-1,-1,-1,-1,-1,-1,-1,-1,-1,-1,-1,-1,-1],"split_conditions":[6.355E0,5.5E-2,6.4449997E0,1.0004975E0,2.5E0,2.08613E0,4.25E-2,3.2E2,4.5E0,-3.5050966E-2,-2.7823985E-1,5E-1,3.505E2,1.1125E-3,9.3750004E-4,5.0624995E-4,5.3950003E-4,5.9781666E0,1.52E0,8.165E-4,1.77E0,5.5E0,1.0625E-3,7.003997E-2,-1.7261583E-1,-3.698006E-1,1.0515406E-1,-9.232574E-2,1.1953112E-1,1.3172275E-1,-2.1280813E-1,8.4412813E-1,4.6222284E-2,-2.3753054E-1,-1.4956308E-3,4.0630606E-1,2.1397483E-2],"split_indices":[5,5,5,0,4,0,1,7,4,0,0,2,7,3,3,3,3,0,1,3,1,4,3,0,0,0,0,0,0,0,0,0,0,0,0,0,0],"split_type":[0,0,0,0,0,0,0,0,0,0,0,0,0,0,0,0,0,0,0,0,0,0,0,0,0,0,0,0,0,0,0,0,0,0,0,0,0],"sum_hessian":[3.661E3,3.657E3,4E0,1E0,3.656E3,1E0,3E0,2.028E3,1.628E3,1E0,2E0,1.44E3,5.88E2,3.73E2,1.255E3,1.108E3,3.32E2,2E0,5.86E2,3.41E2,3.2E1,8.07E2,4.48E2,8.09E2,2.99E2,2.08E2,1.24E2,2.77E2,3.09E2,2.93E2,4.8E1,1.6E1,1.6E1,1.29E2,6.78E2,8E1,3.68E2],"tree_param":{"num_deleted":"0","num_feature":"13","num_nodes":"37","size_leaf_vector":"0"}},{"base_weights":[2.024538E-2,8.694358E-3,5.308073E-1,4.0764224E-2,-1.9045311E-1,7.995898E-1,1.1562093E-1,1.1010305E0,4.520363E-3,-2.8298678E0,9.482015E-3,6.649512E-1,1.0139124E0,1.9355685E-1,3.0883789E-2,2.0119996E0,-3.2619364E0,-1.4916177E0,2.2776788E-2,-3.2822382E0,-2.2202826E0,7.936469E-1,-4.0326753E-1,1.341381E-1,1.6046762E-2,5.1804686E0,8.914008E-1,-3.9052353E0,-1.1538575E0,-2.557114E-1,6.795771E-2,2.551274E0,-4.0468028E-1,1.9217484E0,-5.391078E-1,-2.0908204E-1,8.927779E0,-4.0712624E0,1.6730539E0,4.4166565E-2,-5.236425E0,-7.478261E-1,-1.4920149E0,-7.9123414E-1,3.620294E-1,1.224378E0,2.3979347E-2,-1.3396303E-1,4.462731E0,-1.5550673E0,4.097085E-1,-1.3857198E0,-1.4728563E-1],"categories":[],"categories_nodes":[],"categories_segments":[],"categories_sizes":[],"default_left":[true,true,true,true,true,true,true,true,true,true,true,false,false,false,true,true,false,true,true,false,false,